svm_type c_svc
kernel_type rbf
gamma 0.1
nr_class 2
total_sv 35
rho -0.312301
label 1 -1
nr_sv 19 16
SV
1 1:-0.75179 2:0.607494 3:-1 4:0.320215 5:-1 6:0.72313 7:0.0811355 8:-0.114332 9:-1 10:0.357271 
0.1660259920160678 1:-0.851741 2:-0.0927604 3:0.666942 4:0.35998 5:0.595754 6:0.738728 7:-0.521993 8:-0.172721 9:-0.336393 10:0.317712 
1 1:-0.936704 2:0.47541 3:-0.526493 4:0.320844 5:-0.881809 6:0.725531 7:-0.930563 8:-0.117135 9:-0.963797 10:0.356968 
1 1:-0.644116 2:0.404764 3:-0.253063 4:0.282541 5:-0.51243 6:0.698208 7:0.0279429 8:-0.11326 9:-0.218628 10:0.348546 
0.7418988259128604 1:-0.790143 2:0.0876919 3:0.81691 4:0.418834 5:0.849416 6:0.790491 7:-0.237949 8:-0.122427 9:-1 10:0.340648 
0.5082811007489776 1:-0.620509 2:0.466751 3:-1 4:0.313391 5:0.829375 6:0.766265 7:0.538866 8:-0.0931119 9:-1 10:0.35749 
0.2762882244591353 1:-0.985363 2:0.100306 3:0.971198 4:0.325929 5:0.996571 6:0.729376 7:-1 8:-0.115009 9:0.197818 10:0.358083 
0.2358071042810414 1:-0.986348 2:0.233124 3:0.84868 4:0.326947 5:0.386482 6:0.727203 7:-1 8:-0.115112 9:0.600604 10:0.359261 
1 1:-0.637898 2:0.51292 3:-1 4:0.313375 5:-0.58639 6:0.714613 7:0.428808 8:-0.100835 9:-1 10:0.351135 
1 1:-0.569543 2:0.672606 3:-1 4:0.314482 5:-0.935458 6:0.716067 7:-0.102802 8:-0.119006 9:-0.196241 10:0.351188 
1 1:-0.618451 2:0.484406 3:-0.289553 4:0.288088 5:-0.142375 6:0.710582 7:-0.536415 8:-0.149913 9:-0.600327 10:0.314834 
1 1:-0.953112 2:0.6566 3:-1 4:0.223062 5:-0.999028 6:0.484834 7:-0.980275 8:-0.162242 9:-0.997067 10:0.306999 
1 1:-0.80244 2:0.307676 3:-0.994303 4:-1 5:-0.98863 6:-0.508631 7:-0.980039 8:-0.583873 9:-1 10:-0.278361 
1 1:-0.802308 2:0.51663 3:0.16622 4:0.323858 5:-0.45996 6:0.724424 7:-0.0455461 8:-0.115047 9:-1 10:0.356722 
0.4426695076697531 1:-0.960351 2:-0.0444583 3:0.735875 4:0.324235 5:-0.259143 6:0.724855 7:-0.412562 8:-0.116235 9:-0.380176 10:0.357039 
1 1:-0.487744 2:0.408039 3:-0.386503 4:0.248649 5:-0.64458 6:0.654016 7:-0.693115 8:-0.157841 9:-1 10:0.304833 
1 1:-0.747522 2:0.454089 3:-0.124586 4:0.311553 5:0.284901 6:0.750294 7:-0.440615 8:-0.134631 9:-0.420396 10:0.332584 
1 1:-0.696164 2:0.104826 3:-0.978551 4:-0.145873 5:-0.994744 6:-0.633391 7:-0.933211 8:-0.860357 9:-0.987323 10:-0.519298 
1 1:-0.748748 2:-0.128167 3:-0.470328 4:0.305497 5:-1 6:0.715018 7:0.291475 8:-0.0984399 9:0.343179 10:0.364289 
-1 1:-0.1627 2:0.0819672 3:0.478414 4:0.332095 5:-0.642318 6:0.677763 7:-0.770054 8:-0.330038 9:-1 10:0.338713 
-1 1:-0.137889 2:0.324858 3:-1 4:-0.0920287 5:-0.960472 6:0.435168 7:-0.570267 8:-0.167445 9:-0.898061 10:0.292412 
-1 1:-0.196224 2:0.495265 3:-0.675143 4:0.317098 5:-1 6:0.720882 7:-0.720932 8:-0.123296 9:-0.61846 10:0.353556 
-1 1:-0.327768 2:0.953552 3:-0.591787 4:0.320595 5:0.818117 6:0.735123 7:-0.343423 8:-0.115808 9:-0.23334 10:0.357507 
-1 1:-0.327305 2:0.496896 3:-0.732837 4:0.0975269 5:-0.26576 6:0.601986 7:-0.355449 8:-0.181283 9:-0.70581 10:0.246242 
-1 1:0.0231203 2:0.471475 3:-0.187915 4:0.299803 5:-0.984348 6:-0.10867 7:-0.143927 8:-0.121665 9:-0.857203 10:0.24761 
-1 1:-0.373026 2:0.43907 3:-0.853121 4:0.314152 5:-0.924011 6:0.719738 7:-0.945645 8:-0.125024 9:-0.940812 10:0.344711 
-1 1:-0.606214 2:0.28052 3:-0.788078 4:0.321041 5:-0.940023 6:0.723269 7:-0.974707 8:-0.119677 9:-0.963612 10:0.348768 
-0.9665150629728126 1:-0.253084 2:0.441708 3:-0.970703 4:0.2657 5:-0.998178 6:0.622214 7:-0.866261 8:-0.12946 9:-0.883559 10:0.344661 
-1 1:-0.32251 2:0.436116 3:-0.893977 4:0.252243 5:-0.96782 6:0.624908 7:-0.428191 8:-0.122013 9:-0.249862 10:0.354316 
-1 1:-0.0601224 2:-0.246926 3:1 4:0.323794 5:1 6:0.728849 7:-0.584148 8:-0.123886 9:-0.449 10:0.350944 
-0.9199085377320684 1:0.24048 2:0.480049 3:-0.202535 4:0.316312 5:0.0612596 6:0.730524 7:-0.902298 8:-0.710501 9:-0.968861 10:-0.483095 
-0.4845471543829543 1:-0.00856172 2:0.345378 3:-0.999429 4:-0.640491 5:-0.999609 6:-0.262666 7:-0.999091 8:-0.455881 9:-0.999846 10:-0.311333 
-1 1:-0.312826 2:0.409405 3:-0.921582 4:0.299281 5:-0.994074 6:0.640002 7:-0.763224 8:-0.117524 9:-0.94537 10:0.352891 
-1 1:-0.285649 2:0.36626 3:-0.898888 4:0.273682 5:-0.963255 6:0.685241 7:-0.91936 8:-0.143351 9:-0.98431 10:0.290957 
-1 1:0.0781984 2:0.452641 3:0.0661623 4:0.324274 5:-0.995084 6:-0.645437 7:-0.136239 8:-0.117996 9:-0.934717 10:0.192604 
