svm_type c_svc
kernel_type rbf
gamma 0.142857
nr_class 2
total_sv 273
rho -0.954745
label 1 -1
nr_sv 134 139
SV
1 1:-0.272727 2:0.0899649 3:-0.55925 4:-0.0260869 5:-0.233333 6:-0.303918 7:1 
1 1:-0.454545 2:-0.148332 3:-0.890517 4:-0.49913 5:-0.693333 6:-0.360163 7:-1 
1 1:-0.490909 2:-0.0506354 3:-0.619732 4:-0.0434782 5:-0.25463 6:-0.339243 7:1 
1 1:-0.854545 2:0.0834544 3:-0.556154 4:0.0434783 5:-0.0873015 6:-0.565834 7:1 
1 1:-0.127273 2:-0.503121 3:-0.936973 4:-0.386189 5:-0.699346 6:-0.644947 
1 1:0.163636 2:-0.100406 3:-0.611421 4:-0.403727 5:-0.574074 6:-0.578468 7:-1 
1 1:-0.490909 2:-0.291929 3:-0.860365 4:-0.391304 5:-0.467593 6:-0.621126 7:-1 
1 1:0.2 2:-0.626494 3:-0.905317 4:-0.854398 5:-0.762274 6:-0.685701 7:-1 
1 1:-0.563636 2:0.115605 3:-0.577448 4:0.422925 5:-0.186869 6:-0.197135 
1 1:-0.6 2:-0.0945951 3:-0.826219 4:-0.10559 5:-0.391534 6:-0.134741 7:1 
1 1:-0.745455 2:0.0514783 3:-0.826219 4:-0.0179028 5:0.0522876 6:-0.294844 7:1 
1 1:-0.381818 2:0.294622 3:-0.405372 4:0.15942 5:-0.621399 6:-0.574228 
1 1:-0.309091 2:0.101064 3:-0.5954 4:-0.424288 5:-0.295019 6:0.21399 7:1 
1 1:-0.636364 2:0.0927785 3:-0.545102 4:0.147826 5:-0.744444 6:-0.209692 
1 1:-0.2 2:0.128124 3:-0.64662 4:0.108696 5:-0.121528 6:-0.57484 7:1 
1 1:-0.236364 2:-0.529273 3:-0.936973 4:-0.932679 5:-0.752688 6:-0.769762 7:-1 
1 1:-0.818182 2:-0.0711355 3:-0.7052 4:0.252174 5:-0.488889 6:-0.532768 7:1 
1 1:-0.636364 2:0.239167 3:-0.498404 4:0.147826 5:-0.488889 6:-0.170057 
1 1:-0.6 2:0.159823 3:-0.826219 4:0.0931678 5:0.338624 6:0.161563 
1 1:0.2 2:-0.620566 3:-0.936973 4:-0.660263 5:-0.524548 6:-0.6463 7:-1 
1 1:-0.381818 2:-0.0359829 3:-0.611421 4:-0.690821 5:-0.8107 6:-0.689936 7:-1 
1 1:-0.309091 2:-0.00291753 3:-0.611421 4:-0.424288 5:-0.559387 6:0.348496 7:1 
1 1:-0.818182 2:0.0103802 3:-0.606302 4:-0.0260869 5:-0.148148 6:-0.223739 7:1 
1 1:-0.563636 2:0.0300404 3:-0.591458 4:-0.146245 5:-0.30303 6:-0.33707 7:1 
1 1:-0.127273 2:-0.173354 3:-0.678562 4:-0.386189 5:-0.54902 6:-0.779538 7:1 
1 1:-0.781818 2:-0.186729 3:-1 4:-0.217391 5:0.118056 6:-0.252483 7:1 
1 1:-0.563636 2:-0.153324 3:-0.776537 4:-0.146245 5:-0.419192 6:-0.454266 7:1 
1 1:-0.0181818 2:-0.139491 3:-0.611421 4:-0.548766 5:-0.861862 6:-0.772751 7:-1 
1 1:-0.709091 2:0.0405295 3:-0.552922 4:0.0434783 5:-0.858025 6:-0.290584 7:-1 
1 1:-0.527273 2:0.212174 3:-0.277383 4:0.542533 5:-0.555556 6:-0.21165 
1 1:0.418182 2:-0.57029 3:-0.905317 4:-0.616681 5:-0.791383 6:-0.504048 7:-1 
1 1:-0.272727 2:-0.144955 3:-0.602385 4:-0.791304 5:-0.659259 6:-0.873601 7:-1 
1 1:-0.963636 2:0.289556 3:-0.187726 4:0.13834 5:-0.30303 6:0.612709 
1 1:0.381818 2:-0.593798 3:-0.905317 4:-0.695652 5:-0.733796 6:-0.521568 7:-1 
1 1:-0.381818 2:-0.377484 3:-0.905317 4:-0.536232 5:-1 6:0.274908 7:-1 
1 1:-0.345455 2:0.0193282 3:-0.581561 4:-0.254658 5:-0.269841 6:-0.469301 7:1 
1 1:-0.0181818 2:-0.419755 3:-0.905317 4:-0.774383 5:-0.585586 6:-0.533297 7:-1 
1 1:0.272727 2:-0.132596 3:-0.591458 4:-0.768116 5:-0.88642 6:-0.570232 7:-1 
1 1:-0.890909 2:0.266417 3:-0.555322 4:0.123746 5:-0.213675 6:0.54908 
1 1:-0.490909 2:-0.333979 3:-0.905317 4:-0.217391 5:-0.787037 6:-0.684209 7:-1 
1 1:0.0181818 2:-0.536225 3:-0.905317 4:-0.505721 5:-0.52924 6:-0.304684 7:-1 
1 1:-0.309091 2:0.0246884 3:-0.611421 4:-0.352324 5:-0.206897 6:-0.272258 7:1 
1 1:-0.127273 2:-0.387605 3:-0.905317 4:-0.570332 5:-0.77451 6:-0.460648 7:-1 
1 1:0.0909091 2:-0.575961 3:-0.905317 4:-0.895652 5:-0.808333 6:-0.656387 7:-1 
1 1:0.0909091 2:-0.102027 3:-0.591458 4:-0.686956 5:-0.616667 6:-0.735073 7:-1 
1 1:-0.0181818 2:-0.167028 3:-0.611421 4:-0.60517 5:-0.792793 6:-0.694207 7:-1 
1 1:-0.309091 2:0.0412439 3:-0.591458 4:0.00749625 5:-0.206897 6:-0.237956 7:1 
1 1:-0.890909 2:0.0751203 3:-0.591458 4:0.284281 5:-0.606838 6:-0.0229926 7:1 
1 1:-0.0909091 2:-0.113376 3:-0.591458 4:-0.880745 5:-1 6:-0.873557 
1 1:-0.309091 2:-0.297658 3:-0.843902 4:-0.568216 5:-0.911877 6:-0.52133 7:-1 
1 1:-0.345455 2:-0.050942 3:-0.596014 4:-0.776398 5:-0.452381 6:-0.788429 7:-1 
1 1:-0.381818 2:0.155907 3:-0.5954 4:-0.304348 5:-0.526749 6:0.0555391 7:1 
1 1:-0.454545 2:0.0369172 3:-0.611421 4:-0.749565 5:-0.08 6:-0.150702 
1 1:-0.163636 2:-0.219047 3:-0.702456 4:-0.177866 5:0.00673406 6:-0.582193 7:-1 
1 1:-0.563636 2:-0.0202913 3:-0.912263 4:-0.0513833 5:-0.535354 6:0.169819 7:1 
1 1:-0.127273 2:0.0487245 3:-0.60144 4:-0.0179028 5:-0.323529 6:-0.638323 7:-1 
1 1:0.0181818 2:-0.578235 3:-0.936973 4:-0.505721 5:-0.730994 6:-0.605073 7:-1 
1 1:-0.2 2:-0.455601 3:-0.905317 4:-0.608696 5:-0.920139 6:-1 7:-1 
1 1:-0.490909 2:-0.286568 3:-0.860246 4:-0.565217 5:-0.680556 6:-0.869284 7:-1 
1 1:0.454545 2:-0.697657 3:-0.905317 4:-0.833043 5:-0.948889 6:-0.773849 7:-1 
1 1:0.236364 2:-0.291848 3:-0.678562 4:-0.193676 5:-0.593434 6:-0.781461 7:-1 
1 1:-0.854545 2:0.0856328 3:-0.571902 4:-0.10559 5:-0.269841 6:-0.355254 7:1 
1 1:-0.381818 2:0.0797368 3:-0.579788 4:-0.381642 5:-0.148148 6:-0.0679593 7:1 
1 1:-0.272727 2:-0.155045 3:-0.668056 4:-0.373913 5:-0.403704 6:-0.628571 7:-1 
0.09087011095639566 1:-0.381818 2:0.058083 3:-0.584987 4:-0.381642 5:0.135802 6:-0.0235703 7:1 
1 1:-0.854545 2:-0.0110974 3:-0.611421 4:-0.254658 5:-0.634921 6:-0.145705 7:1 
1 1:-0.381818 2:-0.017075 3:-0.611421 4:-0.149758 5:-0.242798 6:-0.265751 7:1 
1 1:-0.163636 2:-0.0153693 3:-0.591458 4:-0.177866 5:-0.612795 6:-0.466029 7:-1 
1 1:-0.672727 2:0.209886 3:-0.676371 4:-0.231121 5:0.210526 6:-0.177047 
1 1:-0.709091 2:0.224216 3:-0.492565 4:0.275362 5:-0.148148 6:0.364779 
1 1:-0.854545 2:-0.0389125 3:-0.661235 4:-0.254658 5:-0.269841 6:-0.750148 
1 1:-0.890909 2:-0.0382322 3:-0.82403 4:-0.197324 5:-0.410256 6:0.176862 7:-1 
1 1:-0.418182 2:-0.109256 3:-0.806766 4:-0.357859 5:0.179487 6:0.282263 
1 1:-0.345455 2:0.12064 3:-0.591458 4:0.118012 5:0.00396823 6:-0.266596 
1 1:-0.818182 2:0.238362 3:-0.542748 4:-0.0260869 5:0.362963 6:0.371868 
1 1:-0.0181818 2:-0.501633 3:-0.905317 4:-0.717979 5:-0.585586 6:-0.628016 7:-1 
1 1:-0.490909 2:-0.254761 3:-0.905317 4:-0.652174 5:-0.893519 6:-0.538317 7:-1 
1 1:-0.309091 2:0.048215 3:-0.609596 4:0.00749625 5:-0.0306513 6:-0.351411 7:1 
1 1:-0.6 2:-0.0666729 3:-0.826219 4:-0.10559 5:-0.148148 6:-0.0614172 
1 1:-0.563636 2:-0.173841 3:-0.812676 4:-0.146245 5:0.277778 6:-0.197305 7:1 
1 1:0.236364 2:-0.713155 3:-0.936973 4:-0.905138 5:-1 6:-0.913983 
1 1:-0.381818 2:0.152434 3:-0.547043 4:0.31401 5:-0.432099 6:-0.0954 
1 1:-0.381818 2:-0.0557794 3:-0.587214 4:-0.536232 5:-0.526749 6:-0.548287 7:-1 
1 1:-0.0181818 2:-0.111359 3:-0.587214 4:-0.548766 5:-0.792793 6:-0.707813 7:-1 
1 1:-0.709091 2:-0.0426993 3:-0.591458 4:-0.42029 5:-0.858025 6:-0.675295 
1 1:-0.818182 2:0.265098 3:-0.537694 4:-0.165217 5:0.192593 6:0.304924 
1 1:-0.672727 2:-0.0963553 3:-0.75851 4:-0.121281 5:-0.730994 6:0.0472178 7:1 
1 1:-0.309091 2:-0.0503368 3:-0.591458 4:-0.208396 5:-0.118774 6:-0.370396 7:1 
1 1:-0.418182 2:0.233661 3:-0.257027 4:0.0434783 5:-0.213675 6:-0.492917 7:1 
1 1:0.0909091 2:-0.173653 3:-0.611421 4:-0.478261 5:-0.872222 6:-0.698216 7:-1 
1 1:-0.527273 2:-0.0688602 3:-0.587214 4:-0.637051 5:-1 6:-0.744235 7:-1 
1 1:-0.6 2:-0.124142 3:-0.826219 4:-0.10559 5:-0.148148 6:-0.0407903 7:1 
1 1:-0.490909 2:-0.236045 3:-0.913266 4:-0.826087 5:-0.25463 6:-0.605505 
1 1:0.309091 2:-0.790448 3:-0.905317 4:-1 5:-0.888889 6:-0.632747 7:-1 
1 1:-0.163636 2:0.0221065 3:-0.591458 4:-0.114624 5:0.00673406 6:-0.308139 7:1 
1 1:0.0181818 2:-0.0518016 3:-0.591458 4:-0.560641 5:-0.932749 6:-0.742613 7:-1 
1 1:-0.127273 2:-0.421377 3:-0.905317 4:-0.754476 5:-0.849673 6:-0.754287 7:-1 
1 1:-0.854545 2:-0.092065 3:-0.612299 4:-0.403727 5:-0.634921 6:-0.614144 
0.8219388582076175 1:-0.818182 2:0.264198 3:-0.316984 4:0.252174 5:0.192593 6:0.130613 
1 1:-0.490909 2:-0.145743 3:-0.795196 4:-0.217391 5:-0.574074 6:-0.641057 7:-1 
1 1:-0.0181818 2:-0.0894404 3:-0.611421 4:-0.548766 5:-0.585586 6:-0.404195 7:-1 
1 1:1 2:-1 3:-0.905317 4:-0.935786 5:-0.921368 6:-0.745086 7:-1 
1 1:-0.709091 2:-0.14343 3:-0.797298 4:-0.42029 5:-0.432099 6:-0.400887 7:1 
1 1:0.563636 2:-0.86391 3:-0.905317 4:-1 5:-0.855346 6:-0.916095 7:-1 
1 1:-0.672727 2:0.049684 3:-0.591458 4:-0.340961 5:-0.327485 6:-0.385873 7:1 
1 1:-0.927273 2:0.0955423 3:-0.60144 4:0.0434783 5:-0.574074 6:-0.140094 7:1 
1 1:-0.2 2:0.0159662 3:-0.5956 4:0.369565 5:-0.28125 6:-0.597218 7:1 
1 1:-0.236364 2:-0.0456932 3:-0.591458 4:-0.663394 5:-0.587814 6:-0.288249 
1 1:-0.563636 2:0.0163316 3:-0.591458 4:-0.241107 5:-0.535354 6:-0.319443 7:1 
1 1:-0.454545 2:-0.385983 3:-0.905317 4:-0.916522 5:-0.693333 6:-0.672395 7:-1 
1 1:-0.781818 2:0.122266 3:-0.591458 4:-0.217391 5:-0.520833 6:-0.175818 7:1 
1 1:-0.381818 2:0.0776673 3:-0.591458 4:0.15942 5:-0.526749 6:-0.360997 
1 1:-0.563636 2:0.150934 3:-0.77094 4:-0.241107 5:0.393939 6:0.483988 7:-1 
1 1:0.0909091 2:-0.651052 3:-0.921145 4:-1 5:-0.936111 6:-0.946851 7:-1 
1 1:-0.818182 2:0.30899 3:-0.33703 4:-0.0260869 5:0.362963 6:0.273405 
1 1:0.454545 2:-0.792387 3:-0.905317 4:-0.874783 5:-0.897778 6:-0.817506 7:-1 
1 1:-0.672727 2:-0.0224593 3:-0.826219 4:-0.231121 5:-0.327485 6:-0.114133 7:1 
1 1:-0.490909 2:0.359379 3:-0.575952 4:-0.217391 5:-0.680556 6:0.294065 
1 1:-0.854545 2:0.0704604 3:-0.570923 4:-0.254658 5:-0.0873015 6:-0.44293 
1 1:-0.527273 2:0.196481 3:-0.581406 4:0.0888469 5:0.222222 6:0.0283912 
1 1:0.0909091 2:-0.576766 3:-0.905317 4:-0.791304 5:-0.936111 6:-0.547386 7:-1 
1 1:-0.454545 2:-0.38071 3:-0.936973 4:-0.833043 5:-0.693333 6:-0.910928 7:-1 
1 1:0.0909091 2:-0.11038 3:-0.591458 4:-0.530435 5:-0.744444 6:-0.605258 7:-1 
1 1:-0.236364 2:-0.24063 3:-0.936973 4:-0.192146 5:-0.175627 6:-0.272347 
1 1:-0.454545 2:0.00996574 3:-0.81553 4:0.168696 5:0.124444 6:0.10609 
1 1:-0.309091 2:-0.401403 3:-0.905317 4:-0.856072 5:-0.559387 6:-0.549036 7:-1 
1 1:0.2 2:-0.2221 3:-0.635208 4:-0.611729 5:-0.762274 6:-0.785483 7:-1 
1 1:0.0181818 2:-0.101844 3:-0.611421 4:-0.670481 5:-0.663743 6:-0.474902 7:-1 
1 1:-0.2 2:-0.159109 3:-0.591458 4:-0.478261 5:-0.760417 6:-0.504889 7:-1 
1 1:0.127273 2:-0.167568 3:-0.611421 4:-0.541888 5:-0.688347 6:-0.777346 7:-1 
1 1:-0.636364 2:-0.0458581 3:-0.764868 4:-0.0608696 5:-0.488889 6:-0.283288 7:1 
1 1:0.0545455 2:-0.128377 3:-0.587214 4:-0.732441 5:-0.672365 6:-0.664909 7:-1 
1 1:-0.781818 2:-0.115252 3:-0.695252 4:0.173913 5:-0.361111 6:-0.580836 7:-1 
1 1:-0.381818 2:0.140729 3:-0.537694 4:0.00483096 5:-0.90535 6:-0.0959735 
-1 1:-0.418182 2:0.0246992 3:-0.611421 4:0.0434783 5:-0.017094 6:-0.62525 
-1 1:-0.0181818 2:-0.42518 3:-0.905317 4:-0.379553 5:-0.792793 6:-0.631876 7:-1 
-0.8415080727149786 1:-0.527273 2:-0.0638818 3:-0.611421 4:-0.455577 5:-0.444444 6:-0.660896 7:1 
-1 1:-0.527273 2:0.0671946 3:-0.611421 4:-0.0926276 5:-0.333333 6:-0.405899 
-1 1:-0.527273 2:0.00797 3:-0.681303 4:-0.00189033 5:-0.333333 6:-0.667839 
-1 1:-0.709091 2:0.00571178 3:-0.611421 4:-0.304348 5:-0.290123 6:-0.400502 7:1 
-1 1:-0.854545 2:-0.0139259 3:-0.60144 4:-0.10559 5:-0.634921 6:-0.463205 7:1 
-1 1:-0.0545455 2:-0.612309 3:-0.936973 4:-0.942029 5:-1 6:-0.918739 7:-1 
-1 1:-0.418182 2:-0.0729808 3:-0.826219 4:-0.197324 5:-0.311966 6:-0.149266 7:-1 
-1 1:-0.672727 2:0.00858909 3:-0.611421 4:-0.0114416 5:0.0760234 6:-0.543789 7:1 
-1 1:0.0545455 2:-0.642649 3:-0.936973 4:-0.839465 5:-0.803419 6:-0.450206 7:-1 
-1 1:0.163636 2:-0.53689 3:-0.905317 4:-0.652174 5:-0.452381 6:-0.752031 7:-1 
-1 1:-0.818182 2:0.0618789 3:-0.611421 4:-0.582609 5:-0.488889 6:0.301099 
-1 1:0.309091 2:-0.712624 3:-0.927801 4:-1 5:-0.833333 6:-0.507934 7:-1 
-1 1:0.236364 2:-0.526204 3:-0.905317 4:-0.667984 5:-0.709596 6:-0.489389 7:-1 
-1 1:-0.563636 2:-0.022088 3:-0.591458 4:-0.146245 5:-0.767677 6:-0.681754 7:1 
-1 1:-0.0909091 2:-0.496776 3:-0.905317 4:-0.880745 5:-0.926984 6:-0.767767 7:-1 
-1 1:-0.890909 2:0.00483222 3:-0.611636 4:-0.197324 5:-0.017094 6:-0.0546463 
-0.7494969301875734 1:-0.854545 2:0.163124 3:-0.60144 4:-0.10559 5:-0.0873015 6:-0.462605 7:-1 
-1 1:-0.0545455 2:-0.405538 3:-0.936973 4:-0.362319 5:-0.503086 6:-0.631079 7:-1 
-1 1:-0.0545455 2:-0.477893 3:-0.886726 4:-0.478261 5:-0.716049 6:-0.632654 7:-1 
-1 1:-0.381818 2:0.0339564 3:-0.825444 4:-0.227053 5:-0.053498 6:0.300788 7:-1 
-1 1:0.236364 2:-0.0857729 3:-0.60144 4:-0.667984 5:-0.477273 6:-0.543342 
-1 1:-0.272727 2:-0.443833 3:-0.905317 4:-0.791304 5:-1 6:-0.868337 7:-1 
-1 1:-0.709091 2:-0.0400854 3:-0.826219 4:0.15942 5:-0.716049 6:-0.102501 7:-1 
-1 1:-0.781818 2:-0.0221854 3:-0.650554 4:-0.347826 5:-0.520833 6:-0.196758 7:1 
-1 1:-0.418182 2:-0.0599039 3:-0.650441 4:-0.117057 5:-0.115385 6:-0.653608 7:1 
-1 1:-0.418182 2:-0.0606882 3:-0.642602 4:0.0434783 5:-0.508547 6:0.427144 
-0.3512983867561833 1:-0.0909091 2:-0.488606 3:-0.936973 4:-0.582609 5:-0.634921 6:-0.84491 7:-1 
-1 1:-0.127273 2:-0.567727 3:-0.936973 4:-1 5:-0.849673 6:-0.817741 7:-1 
-1 1:-0.636364 2:-0.0148505 3:-0.542748 4:-0.165217 5:-0.233333 6:-0.488847 7:1 
-1 1:-0.2 2:-0.0997141 3:-0.591458 4:-0.478261 5:-0.760417 6:-0.597278 7:-1 
-1 1:-0.163636 2:-0.0900011 3:-0.611421 4:-0.683794 5:-0.612795 6:-0.350616 7:-1 
-1 1:0.0909091 2:-0.644727 3:-0.936973 4:-1 5:-0.808333 6:-0.701207 7:-1 
-1 1:-0.927273 2:0.065699 3:-0.549035 4:-0.478261 5:0.0648148 6:0.163265 
-1 1:-0.2 2:-0.167746 3:-0.611421 4:-0.673913 5:-0.680556 6:-0.707054 7:-1 
-1 1:-0.2 2:-0.13371 3:-0.613205 4:-0.543478 5:-0.520833 6:-0.503354 7:1 
-1 1:-0.781818 2:-0.0455872 3:-0.599737 4:-0.347826 5:-0.0416667 6:-0.668734 7:1 
-1 1:-0.6 2:-0.082194 3:-0.700873 4:-0.10559 5:-0.026455 6:-0.619646 
-1 1:-0.709091 2:-0.170798 3:-0.864976 4:-0.42029 5:-0.148148 6:0.246331 
-1 1:0.0545455 2:-0.532674 3:-0.905317 4:-0.839465 5:-0.803419 6:-0.299747 7:-1 
-1 1:-0.454545 2:0.202734 3:-0.685363 4:0.168696 5:0.124444 6:-0.358694 
-1 1:-0.236364 2:-0.0876724 3:-0.611421 4:-0.528752 5:-0.752688 6:-0.391895 7:1 
-1 1:-0.672727 2:-0.0794497 3:-0.678562 4:-0.340961 5:-0.596491 6:-0.394035 7:1 
-1 1:-0.2 2:-0.181021 3:-0.611421 4:-0.478261 5:-0.361111 6:-0.783595 7:1 
-0.2088601833578218 1:-0.163636 2:-0.0591844 3:-0.618165 4:-0.683794 5:-0.457912 6:-0.543508 7:-1 
-1 1:0.0909091 2:-0.524417 3:-0.905317 4:-0.269565 5:-0.361111 6:-0.617018 7:-1 
-0.2444993380120906 1:-0.490909 2:-0.0527465 3:-0.611421 4:-0.565217 5:-0.680556 6:-0.405953 7:1 
-1 1:-0.818182 2:0.122344 3:-0.506547 4:-0.0260869 5:-0.148148 6:0.154165 7:-1 
-1 1:-0.745455 2:0.00956307 3:-0.627254 4:-0.263427 5:-0.0980392 6:-0.430725 7:1 
-1 1:0.163636 2:-0.231461 3:-0.611421 4:-0.602484 5:-0.574074 6:-0.573201 7:-1 
-1 1:-0.381818 2:0.0543607 3:-0.611421 4:-0.0724637 5:-0.526749 6:-0.38618 
-1 1:-0.236364 2:-0.10504 3:-0.611421 4:-0.663394 5:-0.917563 6:-0.707793 7:-1 
-1 1:-0.927273 2:0.101661 3:-0.330395 4:0.217391 5:-0.361111 6:-0.278765 
-1 1:-0.454545 2:-0.269005 3:-0.855685 4:-0.165217 5:-0.693333 6:0.282706 7:1 
-1 1:-0.672727 2:-0.165249 3:-0.826219 4:-0.121281 5:-0.596491 6:0.135902 
-1 1:0.236364 2:-0.571522 3:-0.929989 4:-0.810277 5:-0.593434 6:-0.639986 7:-1 
-1 1:-0.0181818 2:-0.101771 3:-0.613178 4:-0.548766 5:-0.585586 6:-0.332644 7:-1 
-1 1:-0.927273 2:0.0470043 3:-0.611421 4:-0.130435 5:-0.148148 6:0.390503 
-1 1:-0.781818 2:0.109517 3:-0.429301 4:0.173913 5:-0.520833 6:-0.496133 
-1 1:-0.636364 2:-0.359085 3:-0.936973 4:-0.478261 5:-0.233333 6:-0.453834 7:1 
-1 1:-0.454545 2:0.0248246 3:-0.611421 4:0.168696 5:-0.182222 6:-0.622496 
-1 1:-0.890909 2:-0.0157021 3:-0.826219 4:-0.0367893 5:-0.017094 6:0.313367 7:-1 
-1 1:0.0909091 2:-0.582931 3:-0.936973 4:-0.73913 5:-0.744444 6:-0.765332 7:-1 
-1 1:-0.309091 2:-0.040331 3:-0.613178 4:-0.28036 5:-0.295019 6:-0.61389 
-1 1:-0.672727 2:-0.0809354 3:-0.630219 4:-0.340961 5:-0.461988 6:-0.0198897 
-1 1:-0.781818 2:0.133051 3:-0.790454 4:-0.217391 5:-0.0416667 6:0.236305 7:-1 
-1 1:0.0181818 2:-0.132608 3:-0.611421 4:-0.78032 5:-0.798246 6:-0.717319 7:-1 
-1 1:-0.781818 2:0.0225945 3:-0.561739 4:0.0434783 5:-0.361111 6:-0.440202 
-0.6494670709789474 1:-0.636364 2:0.210515 3:-0.591458 4:-0.373913 5:-0.488889 6:0.00938966 7:-1 
-1 1:-0.709091 2:-0.0227442 3:-0.591458 4:-0.42029 5:-0.716049 6:0.0218606 7:1 
-0.01740323773261104 1:-0.709091 2:-0.105364 3:-0.674621 4:0.0434783 5:-0.716049 6:-0.375908 7:-1 
-1 1:-0.127273 2:-0.157604 3:-0.619244 4:-0.508951 5:-0.699346 6:-0.635428 7:-1 
-1 1:-0.890909 2:0.0469361 3:-0.407931 4:0.284281 5:-0.606838 6:-0.506912 7:1 
-1 1:-0.2 2:-0.232313 3:-0.881596 4:-0.478261 5:-0.680556 6:-0.764303 7:-1 
-1 1:0.0909091 2:-0.550348 3:-0.934601 4:-0.582609 5:-0.616667 6:-0.396859 7:-1 
-1 1:-0.527273 2:0.0596615 3:-0.591458 4:-0.274102 5:-0.444444 6:-0.250664 
-1 1:-0.381818 2:0.0936253 3:-0.587214 4:-0.381642 5:-0.716049 6:-0.52036 7:-1 
-1 1:-0.490909 2:-0.050703 3:-0.707439 4:-0.130435 5:-0.574074 6:-0.57135 7:1 
-1 1:-0.236364 2:0.0243524 3:-0.591458 4:-0.528752 5:-0.752688 6:-0.407722 7:1 
-1 1:-0.781818 2:-0.0646515 3:-0.826219 4:-0.347826 5:0.118056 6:0.529903 7:-1 
-1 1:-0.2 2:-0.0601066 3:-0.589336 4:-0.608696 5:-0.440972 6:-0.629401 7:-1 
-1 1:-0.309091 2:-0.111427 3:-0.649367 4:-0.352324 5:0.145594 6:-0.778008 
-1 1:-0.0181818 2:-0.559929 3:-0.905317 4:-0.548766 5:-0.792793 6:-0.651412 7:-1 
-1 1:-0.0181818 2:-0.120456 3:-0.611421 4:-0.548766 5:-0.585586 6:-0.772799 7:-1 
-1 1:-0.272727 2:0.131706 3:-0.591472 4:-0.373913 5:-0.574074 6:-0.206779 7:1 
-1 1:0.0181818 2:-0.187157 3:-0.611421 4:-0.670481 5:-0.596491 6:-0.77588 7:-1 
-1 1:-0.854545 2:0.017969 3:-0.611421 4:-0.10559 5:-0.81746 6:0.401227 
-1 1:-0.163636 2:-0.055253 3:-0.660318 4:-0.43083 5:-0.457912 6:-0.21914 
-1 1:-0.345455 2:-0.176929 3:-0.734192 4:-0.0310559 5:-0.72619 6:-0.795786 7:1 
-1 1:-0.272727 2:-0.12477 3:-0.702316 4:-0.304348 5:-0.403704 6:-0.716498 7:1 
-1 1:-0.927273 2:0.0457185 3:-0.564576 4:-0.130435 5:-0.148148 6:-0.066251 7:1 
-0.4671105187941058 1:-0.309091 2:-0.163095 3:-0.613823 4:-0.28036 5:-0.206897 6:-0.629506 7:-1 
-1 1:-0.672727 2:0.209898 3:-0.611421 4:-0.121281 5:-0.192982 6:-0.0768508 
-0.01182579585874976 1:-0.0909091 2:-0.106798 3:-0.611421 4:-0.403727 5:-0.342857 6:-0.588994 
-1 1:-0.854545 2:-0.0165895 3:-0.660564 4:-0.403727 5:-0.634921 6:-0.168617 7:1 
-1 1:-0.636364 2:0.0707515 3:-0.623186 4:0.356522 5:-0.616667 6:-0.204432 
-1 1:-0.272727 2:-0.0206975 3:-0.611421 4:-0.513043 5:-0.659259 6:-0.284838 7:1 
-1 1:-0.781818 2:-0.0197077 3:-0.591458 4:0.173913 5:-0.520833 6:-0.5623 
-1 1:-0.454545 2:-0.249197 3:-0.826219 4:0.0852174 5:-0.488889 6:-0.576205 7:-1 
-1 1:-0.709091 2:0.026341 3:-0.826219 4:-0.304348 5:-0.716049 6:0.759555 
-1 1:-0.781818 2:-0.0885713 3:-0.826219 4:0.0434783 5:-0.361111 6:-0.280461 
-1 1:0.0545455 2:-0.467114 3:-0.905317 4:-0.785953 5:-0.606838 6:-0.762643 7:-1 
-1 1:-0.781818 2:0.0130292 3:-0.618827 4:-0.217391 5:-0.840278 6:0.388225 
-1 1:0.527273 2:-0.804917 3:-0.936973 4:-0.759197 5:-0.803419 6:-0.625366 7:-1 
-1 1:-0.563636 2:-0.118494 3:-0.68463 4:-0.146245 5:-0.651515 6:-0.363501 7:1 
-1 1:-0.927273 2:0.0696857 3:-0.67799 4:0.0434783 5:0.0648148 6:-0.163748 
-1 1:0.127273 2:-0.585144 3:-0.905317 4:-0.592789 5:-0.688347 6:-0.751939 7:-1 
-1 1:-0.0181818 2:-0.551865 3:-0.905317 4:-0.943596 5:-0.930931 6:-0.657208 7:-1 
-1 1:-0.563636 2:-0.119306 3:-0.620539 4:-0.146245 5:-0.419192 6:-0.710607 7:1 
-1 1:-0.345455 2:-0.0397587 3:-0.620817 4:-0.254658 5:-0.178571 6:-0.696565 
-1 1:0.0545455 2:-0.319987 3:-0.826219 4:-0.518395 5:-0.410256 6:-0.612174 7:-1 
-1 1:-0.854545 2:0.0353539 3:-0.471227 4:-0.552795 5:0.0952381 6:-0.244297 
-1 1:-0.0909091 2:-0.491882 3:-0.905317 4:-0.880745 5:-0.853968 6:-0.789059 7:-1 
-1 1:0.490909 2:-0.8078 3:-0.905317 4:-1 5:-0.899782 6:-0.818685 7:-1 
-1 1:-0.236364 2:-0.123518 3:-0.611421 4:-0.326788 5:-0.670251 6:-0.527405 7:-1 
-1 1:-0.2 2:-0.127267 3:-0.611421 4:-0.543478 5:-0.680556 6:-0.48972 7:1 
-1 1:-0.890909 2:-0.00932866 3:-0.826219 4:-0.357859 5:-0.213675 6:0.281728 7:1 
-1 1:0.2 2:-0.513874 3:-0.889033 4:-0.660263 5:-0.643411 6:-0.63252 7:-1 
-1 1:-0.163636 2:-0.122697 3:-0.591458 4:-0.620553 5:-0.845118 6:-0.617291 7:-1 
-1 1:-0.127273 2:-0.130189 3:-0.591458 4:-0.508951 5:-0.849673 6:-0.69219 7:-1 
-1 1:-0.490909 2:0.103316 3:-0.60144 4:-0.0434782 5:-0.680556 6:-0.489871 
-1 1:-0.818182 2:-0.0500891 3:-0.591458 4:-0.304348 5:-0.318518 6:-0.5543 7:1 
-1 1:-0.309091 2:-0.0364527 3:-0.591458 4:-0.712144 5:-0.206897 6:-0.438237 7:1 
-1 1:-0.490909 2:-0.0807608 3:-0.611421 4:-0.391304 5:-0.574074 6:-0.604395 7:1 
-0.3713394347709519 1:-0.0545455 2:-0.418901 3:-0.905317 4:-0.478261 5:-0.503086 6:-0.61105 7:-1 
-1 1:-0.127273 2:-0.484589 3:-0.936973 4:-0.938619 5:-1 6:-0.677746 7:-1 
-1 1:-0.818182 2:0.168407 3:-0.555322 4:-0.0260869 5:0.0222223 6:0.180617 7:-1 
-1 1:-0.563636 2:-0.0494529 3:-0.591458 4:-0.43083 5:-0.186869 6:-0.759459 7:1 
-1 1:-0.672727 2:-0.00816984 3:-0.591458 4:0.0983982 5:-0.192982 6:-0.160027 
-1 1:-0.0181818 2:-0.14728 3:-0.611421 4:-0.323149 5:-0.447447 6:-0.685109 
-1 1:-0.0181818 2:-0.559724 3:-0.936973 4:-0.661575 5:-0.723724 6:-0.802932 7:-1 
-1 1:-0.854545 2:0.0184649 3:-0.60144 4:-0.10559 5:-0.81746 6:0.335871 
-1 1:-0.0181818 2:-0.0845103 3:-0.591458 4:-0.60517 5:-0.516516 6:-0.71556 7:1 
-1 1:0.0181818 2:-0.531072 3:-0.905317 4:-0.78032 5:-0.865497 6:-0.627418 7:-1 
-1 1:-0.127273 2:0.179987 3:-0.611421 4:-0.44757 5:-0.699346 6:-0.367645 7:-1 
-1 1:-0.381818 2:-0.00539883 3:-0.611421 4:-0.149758 5:0.135802 6:-0.694783 7:1 
-1 1:-0.345455 2:0.0139488 3:-0.611421 4:-0.180124 5:-0.361111 6:-0.55566 
-1 1:0.0909091 2:-0.135784 3:-0.591458 4:-0.791304 5:-0.297222 6:-0.646688 7:-1 
