svm_type c_svc
kernel_type rbf
gamma 0.0454545
nr_class 2
total_sv 109
rho 1.88691
label 1 -1
nr_sv 56 53
SV
1 1:-0.586343 2:0.447929 3:-0.586343 4:0.447929 5:0.586343 6:-0.447929 7:0.270654 8:-0.35777 9:-0.614851 10:-0.771449 11:-0.286179 12:0.973306 13:-0.361175 14:0.958467 15:-0.397918 16:-0.948572 17:0.484338 18:-0.934396 19:0.236794 20:-0.724109 21:0.547246 22:-0.125524 
0.5596070646832195 1:0.0682849 2:0.464911 3:0.0682849 4:0.464911 5:-0.0682842 6:-0.464911 7:-0.883563 8:0.896384 9:-0.191985 10:0.907317 11:-0.0719692 12:0.497519 13:-0.301422 14:0.688257 15:-0.268794 16:-0.839139 17:0.362837 18:-0.460607 19:0.169239 20:-1 21:0.540128 22:-0.30313 
1 1:-0.341176 2:0.368027 3:-0.341176 4:0.368027 5:0.341174 6:-0.368027 7:-0.161618 8:0.987183 9:-0.391364 10:0.999116 11:-0.0518543 12:0.994744 13:-0.117239 14:0.998121 15:0.0820365 16:-0.429618 17:0.470359 18:0.542289 19:0.306701 20:-0.937824 21:0.411759 22:0.0496908 
1 1:-0.301444 2:0.519534 3:-0.301444 4:0.519534 5:0.301443 6:-0.519534 7:-0.231671 8:0.915459 9:-0.558913 10:0.996772 11:-0.0455303 12:0.979313 13:-0.378779 14:0.960248 15:-0.411043 16:-0.817763 17:0.499885 18:-0.892501 19:0.238828 20:0.587939 21:0.556435 22:-0.739683 
0.4744165168332187 1:-0.100362 2:0.497448 3:-0.100362 4:0.497448 5:0.100362 6:-0.497448 7:-0.586211 8:0.961407 9:-0.449057 10:0.965527 11:0.711384 12:0.999177 13:-0.192454 14:0.999381 15:-0.307237 16:-0.970007 17:0.376268 18:-0.976209 19:0.192955 20:-0.990705 21:0.537001 22:-0.92019 
1 1:-0.0162669 2:0.481616 3:-0.0162669 4:0.481616 5:0.0162667 6:-0.481616 7:-0.734485 8:0.999507 9:0.668068 10:0.998986 11:-0.00859887 12:0.977547 13:-0.340345 14:0.95151 15:-0.416897 16:-0.988217 17:-0.263232 18:-1 19:0.225853 20:-0.549695 21:0.542771 22:-0.900102 
1 1:-0.0998906 2:0.149826 3:-0.0998906 4:0.149826 5:0.0998906 6:-0.149826 7:-0.587042 8:1 9:-0.529908 10:1 11:-0.264798 12:0.96059 13:0.00532483 14:1 15:-0.403677 16:-0.0983453 17:0.497203 18:-1 19:0.236032 20:-0.660344 21:0.470228 22:-0.131685 
0.1989762850809156 1:0.36994 2:0.416452 3:0.36994 4:0.416452 5:-0.369941 6:-0.416452 7:-0.591375 8:0.895658 9:-0.288629 10:0.956849 11:-0.133629 12:0.934105 13:0.125194 14:0.954301 15:0.170537 16:-0.949086 17:0.196624 18:-0.900376 19:-0.0101391 20:0.025301 21:0.551641 22:-0.30438 
1 1:0.00835184 2:0.448781 3:0.00835184 4:0.448781 5:-0.00835176 6:-0.44878 7:-0.777892 8:0.607312 9:-0.540934 10:0.110858 11:-0.264211 12:0.338182 13:-0.326846 14:0.199405 15:-0.350711 16:-0.207805 17:0.483608 18:-0.245967 19:0.219276 20:-0.384979 21:0.514448 22:-0.109859 
1 1:0.281903 2:0.444653 3:0.281903 4:0.444653 5:-0.281904 6:-0.444653 7:-0.746599 8:0.903924 9:-0.207278 10:0.780967 11:-0.0903158 12:-0.0501338 13:-0.449562 14:-0.395518 15:-0.57681 16:-0.801324 17:0.347715 18:-0.556582 19:0.154491 20:-0.577215 21:0.536102 22:-0.683604 
1 1:0.671585 2:0.477308 3:0.671585 4:0.477308 5:-0.671585 6:-0.477308 7:-0.0595257 8:0.970662 9:-0.530234 10:0.959048 11:-0.263206 12:0.844518 13:-0.0837123 14:0.925784 15:-0.17477 16:0.0445118 17:0.51009 18:-0.680938 19:0.199413 20:-0.562869 21:0.539659 22:-0.277483 
1 1:0.657934 2:0.316153 3:0.657934 4:0.316153 5:-0.657934 6:-0.316153 7:-0.0835945 8:1 9:-0.610388 10:0.93972 11:-0.280656 12:1 13:-0.381819 14:0.987189 15:-0.414015 16:0.426698 17:0.527226 18:-0.0722581 19:0.23855 20:-0.515298 21:0.546444 22:-0.116434 
1 1:-0.440958 2:0.384736 3:-0.440958 4:0.384736 5:0.440958 6:-0.384736 7:0.0143158 8:0.754663 9:-0.585509 10:0.831596 11:-0.279427 12:0.245362 13:-0.418379 14:0.202683 15:-0.438459 16:-0.0630584 17:0.505839 18:0.389734 19:0.26914 20:0.237103 21:0.562722 22:-0.388008 
1 1:-0.486414 2:0.430894 3:-0.486414 4:0.430894 5:0.486415 6:-0.430894 7:0.0944636 8:0.999547 9:-0.550971 10:0.998508 11:-0.270172 12:0.969579 13:-0.289701 14:0.948459 15:-0.373008 16:-0.931439 17:-0.0476394 18:-0.48044 19:0.217399 20:-0.965434 21:0.40285 22:-0.749482 
1 1:-0.3299 2:0.396217 3:-0.3299 4:0.396217 5:0.3299 6:-0.396217 7:-0.181497 8:0.953396 9:-0.570408 10:0.495372 11:-0.282587 12:0.998933 13:-0.395738 14:0.976972 15:-0.435797 16:-0.910217 17:0.439613 18:-0.454396 19:0.233376 20:0.227735 21:0.551649 22:0.045953 
1 1:-0.351795 2:0.256739 3:-0.351795 4:0.256739 5:0.351795 6:-0.256739 7:-0.142893 8:0.999503 9:-0.364336 10:0.992364 11:-0.194011 12:0.999445 13:-0.164377 14:0.992241 15:-0.274452 16:-0.550078 17:0.454044 18:0.0301268 19:0.240288 20:0.861797 21:0.565931 22:0.146761 
1 1:-0.12363 2:0.089939 3:-0.12363 4:0.089939 5:0.12363 6:-0.089939 7:-0.545186 8:1 9:-0.436512 10:1 11:-0.177595 12:1 13:-0.244387 14:1 15:-0.275533 16:-0.656413 17:0.380233 18:-0.791762 19:0.114865 20:0.803011 21:0.571513 22:0.367263 
1 1:0.193279 2:0.48267 3:0.193279 4:0.48267 5:-0.193281 6:-0.48267 7:-0.902856 8:0.992069 9:-0.420573 10:0.986801 11:-0.219053 12:0.984208 13:0.327109 14:0.989893 15:0.766696 16:-0.974373 17:-0.0870789 18:-1 19:-0.147046 20:-0.873146 21:0.487336 22:-0.162558 
0.1097681833559589 1:0.633849 2:0.509146 3:0.633849 4:0.509146 5:-0.63385 6:-0.509146 7:-0.126059 8:0.134206 9:-0.614563 10:0.72621 11:-0.285493 12:0.999878 13:0.103765 14:0.999389 15:0.0290541 16:0.534943 17:0.516041 18:0.859695 19:0.254284 20:-1 21:0.548412 22:-0.886915 
1 1:-0.308093 2:0.480976 3:-0.308093 4:0.480976 5:0.308094 6:-0.480976 7:-0.219946 8:0.258287 9:-0.61395 10:0.0982527 11:-0.28583 12:0.0574076 13:-0.42947 14:-0.180807 15:-0.447977 16:-0.167755 17:0.491927 18:0.931486 19:0.246749 20:0.0827929 21:0.548853 22:-0.687232 
1 1:-0.25603 2:0.0995601 3:-0.25603 4:0.0995601 5:0.25603 6:-0.0995601 7:-0.311743 8:1 9:-0.614317 10:-1 11:-0.28595 12:0.998647 13:-0.364239 14:1 15:-0.416991 16:0.800016 17:0.534311 18:0.0886501 19:0.240971 20:0.538389 21:0.548926 22:-0.870887 
1 1:0.381401 2:0.467457 3:0.381401 4:0.467457 5:-0.381403 6:-0.467457 7:-0.571166 8:0.966931 9:-0.283778 10:0.987197 11:-0.136138 12:0.996575 13:0.390136 14:0.983524 15:0.36958 16:-0.938605 17:-0.111525 18:-0.889852 19:-0.101351 20:0.409386 21:0.562073 22:-0.238093 
1 1:-0.407687 2:0.43241 3:-0.409286 4:0.15957 5:0.407687 6:-0.43241 7:-0.0443467 8:0.632951 9:-0.614584 10:1 11:-0.281641 12:0.995113 13:-0.412482 14:0.990009 15:-0.433111 16:0.975196 17:0.616761 18:-0.0532698 19:0.23941 20:-0.798875 21:0.548329 22:-0.812192 
1 1:-0.381384 2:0.48489 3:-0.38323 4:0.333027 5:0.381384 6:-0.48489 7:-0.0907228 8:0.90056 9:-0.602526 10:0.994116 11:-0.27993 12:0.919902 13:-0.387762 14:0.997017 15:-0.410666 16:0.212216 17:0.509798 18:0.615852 19:0.243923 20:-0.555275 21:0.54677 22:-0.44556 
1 1:0.657865 2:0.418559 3:0.657865 4:0.418559 5:-0.657865 6:-0.418559 7:-0.0837164 8:0.982051 9:-0.60982 10:0.974959 11:-0.283128 12:0.984598 13:-0.38622 14:0.99638 15:-0.406722 16:-0.677503 17:0.482468 18:-0.680025 19:0.226878 20:-0.807329 21:0.537338 22:-0.115688 
1 1:0.410844 2:0.793817 3:0.384586 4:0.0450936 5:-0.410844 6:-0.793817 7:-0.519256 8:0.734904 9:-0.355755 10:0.867622 11:-0.151593 12:0.32882 13:-0.0649979 14:0.364197 15:-0.176056 16:-0.713813 17:0.428602 18:-0.506334 19:0.169325 20:-0.318047 21:0.543925 22:-0.639797 
1 1:0.422156 2:0.533101 3:0.422058 4:0.51777 5:-0.422156 6:-0.533101 7:-0.49931 8:0.975474 9:-0.441186 10:0.953309 11:-0.188735 12:0.875588 13:-0.153936 14:0.923043 15:-0.138697 16:-0.764521 17:0.263615 18:-0.775987 19:0.0585216 20:-0.841292 21:0.457284 22:-0.347796 
1 1:-0.51645 2:0.230827 3:-0.51645 4:0.230827 5:0.51645 6:-0.230827 7:0.14742 8:0.987989 9:-0.565042 10:0.984247 11:-0.25387 12:0.990325 13:-0.305422 14:0.990213 15:-0.342887 16:0.378168 17:0.540062 18:0.393266 19:0.263358 20:0.259464 21:0.553371 22:0.135901 
1 1:0.238222 2:0.37266 3:0.238222 4:0.37266 5:-0.238222 6:-0.37266 7:-0.823616 8:0.915236 9:0.134308 10:0.0502518 11:-0.284304 12:0.652288 13:-0.0167093 14:-0.153565 15:-0.462807 16:-0.808788 17:0.434321 18:-0.0034517 19:0.239546 20:-0.704591 21:0.53369 22:-0.629419 
0.07285356465522599 1:-0.315793 2:0.48801 3:-0.315793 4:0.48801 5:0.315793 6:-0.48801 7:-0.206371 8:0.998677 9:-0.541924 10:0.995599 11:-0.0371308 12:0.975513 13:-0.378187 14:0.886955 15:-0.427352 16:-0.950521 17:0.490977 18:-0.348778 19:0.237224 20:0.662718 21:0.554518 22:-0.739705 
1 1:-0.36855 2:0.308094 3:-0.36855 4:0.308094 5:0.368549 6:-0.308094 7:-0.113352 8:0.87392 9:-0.543669 10:0.667273 11:-0.256033 12:0.87228 13:-0.328798 14:0.743686 15:-0.328382 16:-0.291816 17:0.45961 18:-0.296628 19:0.219137 20:-0.839547 21:0.495189 22:0.0884328 
1 1:-0.492285 2:0.431992 3:-0.492285 4:0.431992 5:0.492285 6:-0.431992 7:0.104814 8:-0.101568 9:-0.614847 10:0.863995 11:-0.274842 12:0.977854 13:-0.389846 14:0.97568 15:-0.372854 16:-0.191448 17:0.49417 18:0.344803 19:0.255009 20:-0.619481 21:0.539645 22:-0.343214 
1 1:-0.335623 2:0.169481 3:-0.335623 4:0.169481 5:0.335624 6:-0.169481 7:-0.171407 8:0.996622 9:-0.383064 10:0.991566 11:0.0107828 12:0.991459 13:-0.063775 14:0.996811 15:0.102334 16:-0.562855 17:0.380578 18:-0.276057 19:0.189847 20:-0.675418 21:0.424216 22:0.222194 
1 1:-0.60664 2:0.39407 3:-0.60664 4:0.39407 5:0.60664 6:-0.39407 7:0.306442 8:0.998864 9:-0.581221 10:1 11:-0.0263783 12:0.62573 13:-0.428906 14:1 15:-0.439548 16:0.551483 17:0.514559 18:0.114448 19:0.240437 20:-0.954679 21:0.546405 22:-0.823663 
0.5358741563675483 1:-0.0664034 2:0.383825 3:-0.0664034 4:0.383825 5:0.066403 6:-0.383825 7:-0.646086 8:1 9:-0.503616 10:1 11:-0.257686 12:0.771434 13:-0.253061 14:0.858967 15:-0.331146 16:-0.872614 17:0.290232 18:-0.93065 19:0.118993 20:-0.589183 21:0.515917 22:-0.913288 
1 1:-0.486864 2:0.422274 3:-0.486864 4:0.422274 5:0.486864 6:-0.422274 7:0.0952555 8:0.996401 9:-0.455773 10:0.999615 11:-0.085654 12:0.999806 13:0.188512 14:0.999491 15:-0.0387637 16:-0.704547 17:0.496536 18:0.175756 19:0.243346 20:0.172858 21:0.551543 22:-0.31052 
1 1:0.0364816 2:0.493327 3:0.0364816 4:0.493327 5:-0.0364819 6:-0.493327 7:-0.827489 8:0.99666 9:-0.413362 10:0.998596 11:-0.0503499 12:0.969016 13:0.133667 14:0.953747 15:-0.0522417 16:-0.954976 17:-0.545767 18:-0.960684 19:-0.276192 20:-0.714058 21:0.517738 22:-0.801364 
0.5148494730248897 1:-0.0124078 2:0.498572 3:-0.0124078 4:0.498572 5:0.0124078 6:-0.498572 7:-0.741289 8:0.967992 9:-0.529865 10:1 11:1 12:1 13:-0.42631 14:1 15:-0.441308 16:-0.933978 17:0.472606 18:-1 19:0.232945 20:0.0889109 21:0.548763 22:-0.235028 
1 1:0.302517 2:0.463415 3:0.302517 4:0.463415 5:-0.302516 6:-0.463415 7:-0.710254 8:0.51784 9:-0.392845 10:0.521332 11:-0.113785 12:0.611404 13:-0.235453 14:0.714318 15:-0.168268 16:-0.949915 17:0.251864 18:-0.670698 19:-0.0427911 20:-0.474422 21:0.499639 22:-0.464822 
1 1:0.743347 2:0.394416 3:0.743347 4:0.394416 5:-0.743347 6:-0.394416 7:0.0670029 8:0.910294 9:-0.610358 10:0.601571 11:-0.284704 12:1 13:-0.37368 14:1 15:-0.390897 16:0.0657905 17:0.511036 18:-0.10271 19:0.238667 20:-0.147246 21:0.547753 22:-0.11628 
0.917171674952913 1:-0.28129 2:0.341463 3:-0.28129 4:0.341463 5:0.28129 6:-0.341463 7:-0.267205 8:0.626618 9:-0.605168 10:0.429773 11:-0.285289 12:1 13:-0.322021 14:1 15:-0.404777 16:-0.442832 17:0.494445 18:1 19:0.25183 20:-1 21:0.536631 22:-0.840349 
1 1:-0.609026 2:0.447929 3:-0.609026 4:0.447929 5:0.609026 6:-0.447929 7:0.310648 8:0.51238 9:-0.613696 10:0.482398 11:-0.285306 12:0.57918 13:-0.426866 14:0.366864 15:-0.440886 16:-0.266691 17:0.503673 18:0.315527 19:0.269261 20:0.931967 21:0.549317 22:-0.0887005 
0.348164886379205 1:0.0692804 2:0.92874 3:0.0534675 4:-0.0479937 5:-0.0692809 6:-0.92874 7:-0.885319 8:0.983 9:-0.398756 10:0.952999 11:-0.00435766 12:0.999962 13:-0.11588 14:0.902806 15:-0.227063 16:-0.892101 17:0.328324 18:-0.828931 19:0.207083 20:-0.91052 21:0.526309 22:-0.690825 
1 1:0.578146 2:0.403377 3:0.578146 4:0.403377 5:-0.578146 6:-0.403377 7:-0.224275 8:0.588429 9:-0.6146 10:-1 11:-0.285959 12:0.930657 13:0.65313 14:0.976113 15:0.0436324 16:0.514677 17:0.521094 18:0.794236 19:0.242741 20:-1 21:0.548515 22:-1 
1 1:-0.00719075 2:0.414634 3:-0.00737814 4:0.398374 5:0.00719096 6:-0.414634 7:-0.750487 8:0.989496 9:-0.259347 10:0.999136 11:-0.111278 12:0.991868 13:-0.207436 14:0.999302 15:-0.232533 16:-0.998136 17:0.318187 18:-0.727043 19:0.0858924 20:-0.919277 21:0.53584 22:-0.303007 
1 1:0.737565 2:0.616221 3:0.737565 4:0.616221 5:-0.737565 6:-0.616221 7:0.0568082 8:0.749228 9:-0.612368 10:1 11:-0.285055 12:0.270022 13:-0.415722 14:-0.55593 15:-0.450961 16:-1 17:0.508329 18:-0.630999 19:0.238094 20:-0.999998 21:0.529147 22:-0.692216 
0.9807978899181346 1:0.126935 2:0.503618 3:0.126935 4:0.503618 5:-0.126935 6:-0.503618 7:-0.986974 8:-0.355252 9:-0.798183 10:-0.53595 11:-0.530642 12:0.965781 13:0.188843 14:0.929469 15:0.294725 16:-0.49626 17:0.191486 18:0.303603 19:0.389976 20:-0.644883 21:0.488484 22:-0.316129 
1 1:-0.303797 2:0.341463 3:-0.303797 4:0.341463 5:0.303798 6:-0.341463 7:-0.227521 8:0.996809 9:-0.556053 10:0.946744 11:-0.265229 12:0.971874 13:-0.388131 14:0.97552 15:-0.406586 16:-0.938298 17:0.495425 18:-0.336644 19:0.237716 20:-0.099517 21:0.54721 22:0.0454306 
1 1:-0.299369 2:0.304542 3:-0.299369 4:0.304542 5:0.299368 6:-0.304542 7:-0.23533 8:-0.287076 9:-0.61563 10:0.992172 11:-0.277707 12:0.3129 13:-0.423048 14:0.399398 15:-0.440061 16:-1 17:0.431147 18:-0.654444 19:0.225119 20:0.236155 21:0.552155 22:-0.649479 
1 1:0.0723979 2:0.490515 3:0.0723979 4:0.490515 5:-0.0723979 6:-0.490515 7:-0.890816 8:0.271433 9:-0.550909 10:-0.29294 11:-0.304718 12:0.822387 13:-0.189803 14:0.617052 15:-0.338845 16:-0.99735 17:0.246394 18:-0.241855 19:0.208874 20:-0.1698 21:0.543135 22:-0.580233 
1 1:0.203415 2:0.52439 3:0.200207 4:0.463415 5:-0.203415 6:-0.52439 7:-0.884987 8:0.201086 9:-0.56697 10:0.684083 11:-0.235972 12:0.867594 13:-0.0074243 14:0.774399 15:-0.10621 16:-0.900716 17:0.234968 18:-0.459144 19:0.121838 20:-0.792795 21:0.479832 22:-0.64185 
1 1:-0.471464 2:0.367427 3:-0.471464 4:0.367427 5:0.471464 6:-0.367427 7:0.0681036 8:0.684579 9:-0.61453 10:0.987199 11:-0.264995 12:1 13:-0.402389 14:0.989835 15:-0.394969 16:-0.833764 17:0.507274 18:-0.679781 19:0.238515 20:-0.948217 21:0.548065 22:-0.129608 
1 1:-0.0869371 2:0.428571 3:-0.0869371 4:0.428571 5:0.0869361 6:-0.428571 7:-0.609882 8:0.995544 9:-0.320484 10:0.965462 11:-0.181339 12:1 13:-0.227088 14:0.975314 15:-0.31391 16:-0.947786 17:-0.328383 18:-0.821197 19:0.00299785 20:-0.884176 21:0.506818 22:-0.390821 
1 1:-0.732964 2:0.371274 3:-0.732964 4:0.371274 5:0.732964 6:-0.371274 7:0.529172 8:0.999058 9:-0.614047 10:1 11:-0.284923 12:0.996677 13:-0.42765 14:0.997889 15:-0.440344 16:0.979815 17:0.512833 18:0.636184 19:0.239863 20:-0.990803 21:0.548183 22:-0.559533 
1 1:-0.431661 2:0.940564 3:-0.495001 4:-0.0362301 5:0.431661 6:-0.940564 7:-0.00207637 8:0.528697 9:-0.61112 10:0.647861 11:-0.284245 12:0.54907 13:-0.421421 14:-0.803597 15:-0.447746 16:-0.894568 17:0.506539 18:-0.606406 19:0.237431 20:0.472298 21:0.550599 22:-0.681023 
1 1:0.0866925 2:0.380346 3:0.0866925 4:0.380346 5:-0.0866931 6:-0.380346 7:-0.91602 8:0.0924395 9:-0.613444 10:0.565248 11:-0.25041 12:0.923577 13:-0.224146 14:0.850363 15:-0.3956 16:-0.934678 17:0.282952 18:-0.411323 19:0.222608 20:-0.972609 21:0.484729 22:-0.494112 
-1 1:0.314173 2:0.57364 3:0.248588 4:0.186679 5:-0.314173 6:-0.57364 7:-0.689702 8:-0.753608 9:-0.635444 10:-0.682679 11:-0.290888 12:0.700462 13:-0.290094 14:0.131287 15:-0.44125 16:-0.952021 17:0.0991982 18:-0.506693 19:0.233323 20:-0.920479 21:0.438822 22:-0.856797 
-0.9072397084667069 1:-0.819382 2:-0.0838786 3:-0.819382 4:-0.0838786 5:0.819382 6:0.0838787 7:0.68154 8:1 9:-0.614073 10:0.925916 11:-0.285324 12:1 13:-0.424977 14:1 15:-0.440096 16:-0.87566 17:0.501737 18:-0.0224184 19:0.239469 20:-0.548757 21:0.548182 22:0.234697 
-1 1:0.290014 2:0.103913 3:0.290014 4:0.103913 5:-0.290014 6:-0.103913 7:-0.732298 8:1 9:-0.594535 10:1 11:-0.27302 12:0.94954 13:-0.401871 14:0.886464 15:-0.425788 16:-0.983362 17:-0.885167 18:-0.973772 19:-0.311776 20:0.316398 21:0.552948 22:0.266855 
-1 1:0.71737 2:0.386179 3:0.71737 4:0.386179 5:-0.71737 6:-0.386179 7:0.0212014 8:1 9:-0.567279 10:1 11:-0.28248 12:0.980334 13:-0.402101 14:1 15:-0.439201 16:-0.27883 17:0.500433 18:-0.562343 19:0.230617 20:-0.981629 21:0.533765 22:-0.520955 
-1 1:0.0531524 2:0.499283 3:0.0531524 4:0.499283 5:-0.0531525 6:-0.499283 7:-0.856883 8:0.719106 9:-0.45871 10:0.75029 11:-0.180035 12:0.89694 13:-0.100122 14:0.799798 15:-0.31753 16:-0.983592 17:-0.568076 18:-0.966201 19:-0.107333 20:-0.995902 21:0.123553 22:-0.621968 
-1 1:0.746402 2:0.280488 3:0.746402 4:0.280488 5:-0.746402 6:-0.280488 7:0.0723898 8:1 9:-0.58158 10:1 11:-0.283182 12:0.842823 13:-0.425851 14:0.929143 15:-0.439283 16:-0.936503 17:0.344804 18:-0.859598 19:0.119085 20:-0.988712 21:0.527753 22:-0.225431 
-1 1:-0.76884 2:0.442267 3:-0.76884 4:0.442267 5:0.768839 6:-0.442267 7:0.592426 8:0.921646 9:-0.609914 10:0.935718 11:-0.278114 12:0.958903 13:-0.41508 14:0.962155 15:-0.436201 16:0.602626 17:0.56163 18:0.818495 19:0.279524 20:0.502347 21:0.55442 22:-0.225346 
-1 1:-0.918483 2:0.555072 3:-0.918483 4:0.555072 5:0.918483 6:-0.555072 7:0.856272 8:0.977948 9:-0.613634 10:0.963833 11:-0.285524 12:0.994831 13:-0.42505 14:0.986542 15:-0.441408 16:-0.979398 17:0.506681 18:0.867977 19:0.243613 20:-0.241779 21:0.548501 22:-0.508623 
-1 1:0.362966 2:0.571217 3:0.362629 4:0.556394 5:-0.362966 6:-0.571217 7:-0.603672 8:0.761436 9:-0.545098 10:0.365721 11:-0.27836 12:0.873096 13:-0.308675 14:0.856215 15:-0.319712 16:-0.962038 17:-0.322795 18:-0.625463 19:0.114079 20:-0.545571 21:0.479135 22:-0.400456 
-1 1:0.247296 2:0.307645 3:0.247296 4:0.307645 5:-0.247296 6:-0.307645 7:-0.807618 8:1 9:-0.611993 10:1 11:-0.284683 12:0.206361 13:-0.333169 14:-0.836851 15:-0.706334 16:-0.998879 17:-0.254898 18:-0.947889 19:-0.0790606 20:-0.59284 21:0.510645 22:-0.0997706 
-1 1:0.551959 2:0.553273 3:0.551959 4:0.553273 5:-0.551958 6:-0.553273 7:-0.270447 8:0.656892 9:-0.592363 10:0.912889 11:-0.18659 12:0.702479 13:-0.330583 14:0.45293 15:-0.398743 16:-0.975299 17:0.0483964 18:-0.995985 19:-0.404355 20:-1 21:0.52356 22:-0.249263 
-1 1:-0.714479 2:0.52439 3:-0.714479 4:0.52439 5:0.714479 6:-0.52439 7:0.496578 8:0.994425 9:-0.55654 10:0.907499 11:-0.252391 12:0.999472 13:-0.41595 14:0.995312 15:-0.4274 16:0.615873 17:0.706353 18:0.967788 19:0.677751 20:-0.0829828 21:0.548365 22:-0.318398 
-1 1:0.475181 2:0.527205 3:0.475181 4:0.527205 5:-0.475181 6:-0.527204 7:-0.405818 8:0.545675 9:-0.606504 10:0.952094 11:-0.279339 12:0.546147 13:-0.353924 14:0.869819 15:-0.410809 16:-0.910452 17:0.231864 18:-0.940585 19:-0.371012 20:-0.580494 21:0.534986 22:-0.250645 
-0.9375540531464036 1:0.273824 2:0.701368 3:0.249197 4:0.325104 5:-0.273824 6:-0.701368 7:-0.760845 8:-0.732894 9:-0.621524 10:-0.481251 11:-0.288462 12:0.953364 13:-0.355107 14:0.919803 15:-0.38208 16:-0.889975 17:0.504062 18:-1 19:0.23929 20:-0.998936 21:-1 22:-0.565464 
-1 1:0.152462 2:0.767426 3:0.0863133 4:0.00450816 5:-0.152461 6:-0.767426 7:-0.974826 8:-0.580813 9:-0.668134 10:0.898186 11:0.208259 12:0.521068 13:-0.2819 14:0.386054 15:-0.34436 16:-0.944409 17:0.25892 18:-0.438837 19:0.19293 20:-0.994983 21:0.0227629 22:-0.504649 
-1 1:-0.821065 2:0.341463 3:-0.821065 4:0.341463 5:0.821065 6:-0.341463 7:0.684508 8:0.976281 9:-0.611809 10:0.73847 11:-0.284926 12:0.969001 13:-0.413961 14:0.992339 15:-0.43337 16:0.800543 17:0.624509 18:0.0670394 19:0.244416 20:-1 21:0.544043 22:-0.316082 
-1 1:0.0874382 2:0.533101 3:0.0874382 4:0.533101 5:-0.087438 6:-0.533101 7:-0.917334 8:0.684992 9:-0.478737 10:0.21614 11:-0.264174 12:0.399124 13:-0.37267 14:-0.425209 15:-0.517443 16:-0.973893 17:-0.577042 18:-0.869095 19:0.0488588 20:-0.887083 21:0.486157 22:-0.355497 
-1 1:0.335699 2:0.588772 3:0.335699 4:0.588772 5:-0.335699 6:-0.588772 7:-0.651748 8:0.763722 9:-0.486027 10:0.873241 11:-0.187559 12:0.878274 13:-0.291976 14:0.797142 15:-0.326437 16:-0.913324 17:-0.477834 18:-0.812836 19:0.1443 20:-0.930905 21:0.430101 22:-0.398904 
-1 1:0.426947 2:0.482176 3:0.426947 4:0.482176 5:-0.426947 6:-0.482176 7:-0.490862 8:1 9:-0.545892 10:1 11:-0.280435 12:0.992943 13:-0.251762 14:1 15:-0.395434 16:-0.691613 17:0.44945 18:-0.619779 19:0.140397 20:-0.785487 21:0.44963 22:0.244653 
-1 1:-0.880866 2:0.425305 3:-0.880866 4:0.425305 5:0.880866 6:-0.425305 7:0.789947 8:0.987777 9:-0.601968 10:0.997644 11:-0.276129 12:0.996272 13:-0.396802 14:0.997961 15:-0.408024 16:0.757128 17:0.530727 18:0.580053 19:0.299234 20:-0.111389 21:0.546603 22:-0.374854 
-1 1:0.838314 2:0.401274 3:0.83142 4:0.367096 5:-0.838314 6:-0.401274 7:0.234446 8:0.944777 9:-0.601175 10:0.915073 11:-0.281699 12:0.865605 13:-0.405837 14:1 15:-0.432593 16:-0.99649 17:0.471513 18:-0.975827 19:0.208841 20:-0.81984 21:0.537619 22:-0.200444 
-1 1:0.28387 2:0.494773 3:0.28387 4:0.494773 5:-0.28387 6:-0.494773 7:-0.743131 8:1 9:-0.598043 10:1 11:-0.273415 12:1 13:-0.313937 14:1 15:-0.37725 16:-1 17:0.344304 18:-0.554773 19:0.142136 20:-1 21:0.507637 22:0.165558 
-0.2184773448480964 1:-0.931151 2:0.664408 3:-0.937486 4:0.440831 5:0.931151 6:-0.664408 7:0.878607 8:0.976887 9:-0.530169 10:0.980579 11:-0.224123 12:0.915827 13:-0.428529 14:0.725425 15:-0.442071 16:0.91644 17:0.602366 18:0.881946 19:0.428949 20:-0.398664 21:0.525115 22:-0.251924 
-1 1:0.447162 2:0.788618 3:0.266108 4:0.229675 5:-0.447162 6:-0.788618 7:-0.45522 8:0.758634 9:-0.48651 10:0.161047 11:-0.276599 12:0.503117 13:-0.360738 14:-0.560266 15:-0.507808 16:-0.697934 17:0.0567238 18:-0.807127 19:-0.00422272 20:-0.869989 21:0.518937 22:-0.411518 
-1 1:0.421399 2:0.77575 3:0.354302 4:0.447622 5:-0.421399 6:-0.77575 7:-0.500644 8:0.822446 9:-0.238664 10:0.299605 11:-0.224904 12:0.719876 13:-0.195063 14:0.726083 15:-0.278783 16:-0.891679 17:-0.198613 18:-0.907721 19:-0.0262203 20:-0.91968 21:0.209938 22:-0.728423 
-1 1:-0.542993 2:0.308745 3:-0.542993 4:0.308745 5:0.542993 6:-0.308745 7:0.19422 8:0.892032 9:-0.565442 10:0.98268 11:-0.0576717 12:0.974617 13:-0.27553 14:0.97146 15:-0.333374 16:-0.501866 17:0.390441 18:0.32146 19:0.278349 20:-0.00317282 21:0.548403 22:0.0561746 
-1 1:-0.767483 2:0.0622756 3:-0.767483 4:0.0622756 5:0.767483 6:-0.0622757 7:0.590033 8:1 9:-0.609413 10:1 11:-0.27798 12:1 13:-0.41259 14:1 15:-0.430814 16:0.106161 17:0.516786 18:-0.272557 19:0.230707 20:0.704961 21:0.564232 22:0.356582 
-1 1:0.291942 2:0.615526 3:0.290535 4:0.586677 5:-0.291942 6:-0.615526 7:-0.728899 8:-0.750747 9:-0.688631 10:-0.864176 11:-0.415871 12:0.684524 13:0.0113795 14:0.290082 15:-0.359071 16:-0.90887 17:0.202634 18:-0.980114 19:-0.301483 20:-0.904303 21:0.485313 22:-0.897096 
-0.756695633922057 1:0.432115 2:0.56883 3:0.432115 4:0.56883 5:-0.432115 6:-0.56883 7:-0.48175 8:1 9:-0.556104 10:1 11:-0.196911 12:0.568382 13:-0.240856 14:-0.277788 15:-0.476479 16:-0.971105 17:-0.28234 18:-0.966243 19:-0.281655 20:-0.944121 21:0.495331 22:-0.249043 
-1 1:-0.758062 2:0.334584 3:-0.758062 4:0.334584 5:0.758062 6:-0.334584 7:0.573424 8:0.991925 9:-0.60947 10:0.928439 11:-0.283941 12:0.968487 13:-0.421123 14:0.986012 15:-0.431774 16:-0.471938 17:0.497059 18:0.0125694 19:0.239731 20:-0.059729 21:0.548216 22:0.0804318 
-1 1:0.599813 2:0.617948 3:0.599813 4:0.617948 5:-0.599813 6:-0.617948 7:-0.186072 8:-0.499586 9:-0.619897 10:-0.186008 11:-0.28841 12:0.100056 13:-0.412439 14:1 15:-0.390079 16:0.00793922 17:0.510547 18:0.111645 19:0.248091 20:-1 21:0.521258 22:-0.267001 
-1 1:-0.832127 2:0.498842 3:-0.832127 4:0.498842 5:0.832127 6:-0.498842 7:0.704011 8:0.97619 9:-0.595345 10:0.979067 11:-0.271839 12:0.869747 13:-0.427941 14:0.956343 15:-0.439005 16:0.76817 17:0.682224 18:0.885431 19:0.454549 20:0.453709 21:0.554543 22:-0.314007 
-0.3058345899969018 1:0.454476 2:0.948652 3:0.174883 4:-0.0397946 5:-0.454475 6:-0.948652 7:-0.442325 8:0.904787 9:-0.558912 10:-0.783207 11:-0.323264 12:-0.10814 13:-0.454124 14:-0.714833 15:-0.788736 16:-0.862256 17:0.440911 18:-0.830246 19:0.132482 20:-0.749265 21:0.50943 22:-0.788272 
-1 1:-0.792715 2:0.307067 3:-0.798203 4:0.261205 5:0.792714 6:-0.307067 7:0.634521 8:0.977711 9:-0.608349 10:0.83682 11:-0.282645 12:0.932819 13:-0.419286 14:0.976412 15:-0.434809 16:0.0773 17:0.509631 18:-0.859197 19:0.22891 20:0.00155986 21:0.548643 22:-0.502924 
-1 1:0.795872 2:0.350347 3:0.795872 4:0.350347 5:-0.795872 6:-0.350347 7:0.159614 8:0.975269 9:-0.59939 10:0.986503 11:-0.274122 12:0.993335 13:-0.421467 14:0.901366 15:-0.438505 16:-0.905651 17:0.456635 18:-0.911964 19:0.191985 20:-0.938038 21:0.528195 22:-0.225585 
-0.8561146207073825 1:0.396423 2:0.637374 3:0.396423 4:0.637374 5:-0.396422 6:-0.637374 7:-0.544682 8:0.90862 9:-0.606329 10:0.997799 11:0.0645829 12:0.460201 13:-0.424133 14:0.360053 15:-0.440772 16:-0.983808 17:-0.647309 18:-0.982008 19:-0.437347 20:-0.986235 21:0.486437 22:-0.544801 
-1 1:0.380801 2:0.389033 3:0.380801 4:0.389033 5:-0.380801 6:-0.389033 7:-0.572226 8:0.940192 9:-0.595803 10:1 11:-0.242985 12:0.980484 13:-0.123342 14:1 15:-0.385484 16:-0.743772 17:0.45919 18:-0.84692 19:0.215335 20:-0.875739 21:0.489558 22:0.156744 
-1 1:-0.767483 2:0.0622756 3:-0.767483 4:0.0622756 5:0.767483 6:-0.0622757 7:0.590033 8:1 9:-0.609413 10:1 11:-0.27798 12:1 13:-0.41259 14:1 15:-0.430814 16:0.106161 17:0.516786 18:-0.272557 19:0.230707 20:0.704961 21:0.564232 22:0.356582 
-0.730563744163681 1:-0.668374 2:-0.26158 3:-0.668374 4:-0.26158 5:0.668374 6:0.26158 7:0.415288 8:-1 9:-0.614618 10:-1 11:-0.28595 12:1 13:-0.419665 14:1 15:-0.433852 16:-0.137892 17:0.489976 18:1 19:0.453025 20:-0.299368 21:0.546516 22:0.470314 
-1 1:-0.297354 2:-0.0707181 3:-0.297354 4:-0.0707181 5:0.297355 6:0.070718 7:-0.238881 8:1 9:-0.598231 10:1 11:-0.27587 12:1 13:-0.409261 14:1 15:-0.420867 16:-0.78332 17:0.454446 18:-0.354751 19:0.218161 20:0.0967076 21:0.549721 22:0.345704 
-1 1:-0.824537 2:0.492614 3:-0.824537 4:0.492614 5:0.824537 6:-0.492614 7:0.690629 8:0.73043 9:-0.612161 10:0.670696 11:-0.285496 12:0.965013 13:-0.417322 14:0.920844 15:-0.438107 16:-0.965634 17:0.477821 18:0.826109 19:0.3156 20:0.108412 21:0.549347 22:-0.564079 
-1 1:0.322354 2:0.47561 3:0.320656 4:0.445799 5:-0.322354 6:-0.47561 7:-0.675277 8:0.953242 9:-0.50744 10:0.10698 11:-0.283228 12:0.851789 13:-0.343993 14:0.817963 15:-0.398817 16:-0.963488 17:-0.435988 18:-0.92677 19:-0.295056 20:-0.781032 21:0.44056 22:-0.399254 
-1 1:-0.820881 2:-0.059829 3:-0.820881 4:-0.059829 5:0.820881 6:0.0598291 7:0.684183 8:0.979115 9:-0.604718 10:1 11:-0.283004 12:0.980862 13:-0.417066 14:1 15:-0.443738 16:-0.705948 17:0.500993 18:0.922388 19:0.423673 20:-0.805536 21:0.544161 22:-0.304094 
-1 1:0.700548 2:0.732181 3:0.669869 4:0.146105 5:-0.700548 6:-0.732181 7:-0.00845817 8:0.316352 9:-0.596465 10:0.490465 11:-0.257142 12:0.556675 13:-0.397558 14:0.236811 15:-0.439143 16:-0.832081 17:0.385703 18:-0.194489 19:0.227845 20:-0.949427 21:0.394388 22:-0.414531 
-1 1:0.541867 2:0.561704 3:0.541867 4:0.561704 5:-0.541867 6:-0.561704 7:-0.28824 8:0.911582 9:-0.441525 10:0.79721 11:-0.203541 12:0.486591 13:-0.161126 14:0.409746 15:-0.0484364 16:-0.875679 17:-0.148297 18:-0.936686 19:-0.484127 20:-0.917694 21:0.5258 22:-0.551231 
-1 1:-0.656029 2:0.272186 3:-0.656029 4:0.272186 5:0.656029 6:-0.272186 7:0.393521 8:0.92188 9:-0.578817 10:0.880935 11:-0.265524 12:0.969755 13:-0.320846 14:0.993371 15:-0.285081 16:0.179222 17:0.535012 18:-0.134057 19:0.225315 20:0.557611 21:0.577787 22:0.135846 
-1 1:0.157111 2:0.543121 3:0.157111 4:0.543121 5:-0.157111 6:-0.543121 7:-0.966629 8:-0.0528439 9:-0.619864 10:0.094418 11:-0.276867 12:0.342407 13:-0.350232 14:-0.346832 15:-0.476239 16:-0.937902 17:-0.314103 18:-0.824794 19:-0.0263368 20:-0.975459 21:0.0839253 22:-0.534444 
-1 1:-0.67354 2:0.55248 3:-0.67354 4:0.55248 5:0.673541 6:-0.55248 7:0.424397 8:0.827255 9:-0.606568 10:0.962555 11:-0.277078 12:0.738011 13:-0.418606 14:0.634877 15:-0.438127 16:0.957779 17:0.80045 18:-0.662054 19:0.220401 20:0.941966 21:0.828716 22:-0.317922 
-1 1:0.67119 2:0.743902 3:0.634946 4:0.231707 5:-0.67119 6:-0.743902 7:-0.0602221 8:0.154936 9:-0.604384 10:0.286247 11:-0.277055 12:0.661604 13:-0.364537 14:0.789637 15:-0.41548 16:-0.935762 17:0.418935 18:-0.701344 19:0.168631 20:-0.984544 21:0.436366 22:-0.412 
-1 1:-0.920398 2:-0.000478218 3:-0.920398 4:-0.000478218 5:0.920397 6:0.000478299 7:0.859647 8:1 9:-0.614377 10:0.97164 11:-0.285754 12:0.998428 13:-0.422282 14:1 15:-0.440975 16:-0.990831 17:0.494214 18:-0.794761 19:0.233376 20:0.995874 21:0.564844 22:-0.529095 
-1 1:-0.874856 2:0.285569 3:-0.874856 4:0.285569 5:0.874856 6:-0.285569 7:0.77935 8:0.996218 9:-0.579749 10:0.988024 11:-0.275913 12:0.999882 13:-0.413516 14:1 15:-0.432648 16:-0.306094 17:0.500914 18:0.930494 19:0.284092 20:-1 21:0.548445 22:-0.362289 
-1 1:-0.808501 2:0.369411 3:-0.808501 4:0.369411 5:0.8085 6:-0.369411 7:0.662354 8:1 9:-0.611906 10:0.930421 11:-0.284141 12:0.972686 13:-0.427859 14:0.984724 15:-0.442367 16:-0.0655697 17:0.509323 18:0.479945 19:0.244883 20:0.580084 21:0.554692 22:0.0803294 
-1 1:0.150323 2:0.35984 3:0.133919 4:0.286335 5:-0.150322 6:-0.35984 7:-0.978598 8:0.989614 9:-0.112132 10:0.375646 11:-0.243991 12:0.903139 13:-0.215751 14:0.790831 15:-0.266959 16:-0.939576 17:-0.0371604 18:-0.932835 19:-0.0659647 20:-0.591267 21:0.491697 22:-0.339613 
