svm_type c_svc
kernel_type rbf
gamma 0.0434783
nr_class 2
total_sv 311
rho 0.920224
label 1 -1
nr_sv 154 157
SV
1 1:-0.306225 2:0.532802 3:-0.306097 4:0.532802 5:0.306225 6:-0.532802 7:-0.272234 8:0.883795 9:-0.796615 10:-0.55418 11:-0.403206 12:0.986492 13:-0.00369742 14:0.910231 15:-0.11334 16:-0.150704 17:0.289522 18:-1 19:0.190512 20:-0.99268 21:-0.177757 22:-0.417847 23:-0.0632531 
1 1:-0.0349255 2:0.687495 3:-0.034747 4:0.687495 5:0.0349255 6:-0.687495 7:-0.769739 8:0.999893 9:-0.506393 10:0.998949 11:-0.184983 12:0.988026 13:-0.188819 14:0.988558 15:0.0156268 16:-0.995519 17:-0.171474 18:-0.992497 19:-0.227256 20:-0.936611 21:0.0848795 22:-0.108089 23:-0.0632531 
1 1:0.162597 2:0.710048 3:0.162812 4:0.710048 5:-0.162597 6:-0.710048 7:-0.868046 8:1 9:-0.779149 10:0.809524 11:-0.393677 12:0.844498 13:-0.24917 14:0.924883 15:-0.201451 16:-0.943969 17:0.191648 18:-0.882353 19:0.170514 20:-0.792148 21:0.194007 22:-0.860499 23:-0.0632531 
1 1:-0.148112 2:0.781048 3:-0.147954 4:0.781048 5:0.148112 6:-0.781048 7:-0.56218 8:0.925492 9:-0.803581 10:0.859259 11:-0.365957 12:0.722106 13:-0.370044 14:0.500133 15:-0.199406 16:-0.912046 17:0.183318 18:-0.897784 19:0.160519 20:-0.134615 21:0.216893 22:-0.37673 23:0.294318 
1 1:-0.516125 2:0.71301 3:-0.516036 4:0.71301 5:0.516125 6:-0.71301 7:0.112677 8:0.569825 9:-0.822344 10:-0.279817 11:-0.403771 12:0.878779 13:-0.406922 14:0.996107 15:-0.202869 16:-0.989414 17:0.287979 18:-0.884527 19:0.191749 20:-0.988495 21:0.208402 22:0.0415306 23:-0.0269604 
1 1:0.26407 2:0.718679 3:0.264304 4:0.718679 5:-0.26407 6:-0.718679 7:-0.681967 8:0.922756 9:-0.817504 10:0.986233 11:-0.400206 12:-0.168108 13:-0.572699 14:0.305759 15:-0.12954 16:-0.130582 17:0.240107 18:-0.606051 19:0.185066 20:-1 21:0.217473 22:-0.74586 23:-0.0632531 
1 1:0.247391 2:0.820807 3:0.247622 4:0.820807 5:-0.247391 6:-0.820807 7:-0.712553 8:0.870915 9:-0.762923 10:0.369565 11:-0.399138 12:0.973918 13:-0.222038 14:-0.298146 15:-0.244729 16:-1 17:0.256591 18:0.390625 19:0.198507 20:0.915294 21:0.230678 22:-0.761314 23:-0.0632531 
1 1:0.21859 2:0.814726 3:0.218208 4:0.790403 5:-0.21859 6:-0.814726 7:-0.765367 8:0.989133 9:-0.638863 10:0.97679 11:-0.326505 12:0.904967 13:-0.00390097 14:-0.920201 15:-0.248326 16:-0.970755 17:0.283935 18:-0.820225 19:0.190674 20:0.875278 21:0.218898 22:-0.604254 23:-0.0632531 
1 1:0.266839 2:0.707854 3:0.267073 4:0.707854 5:-0.266839 6:-0.707854 7:-0.676889 8:0.340359 9:-0.800598 10:-0.116088 11:-0.425256 12:0.98492 13:-0.0988582 14:1 15:0.19386 16:-0.74859 17:0.271083 18:-0.409987 19:0.190266 20:-0.941317 21:0.185219 22:-0.0567437 23:-0.0632531 
1 1:-0.0863616 2:0.746904 3:-0.086408 4:0.720273 5:0.0863615 6:-0.746904 7:-0.675416 8:0.982624 9:-0.622616 10:0.998664 11:-0.0607351 12:0.999703 13:-0.151633 14:0.998817 15:-0.1833 16:-0.98361 17:0.135573 18:-0.805345 19:0.16883 20:-0.474114 21:0.210039 22:-0.648321 23:-0.0632531 
1 1:0.658459 2:0.77898 3:0.657894 4:0.718507 5:-0.658459 6:-0.77898 7:0.0412571 8:-1 9:-0.834675 10:0.69236 11:-0.394934 12:0.996904 13:-0.406991 14:1 15:-0.20548 16:-1 17:0.254501 18:-1 19:0.191028 20:-0.855359 21:0.210253 22:-0.318576 23:-0.0632531 
1 1:-0.240495 2:0.854875 3:-0.240707 4:0.810917 5:0.240495 6:-0.854875 7:-0.392769 8:-0.993031 9:-0.824338 10:-0.914949 11:-0.402612 12:0.984478 13:-0.39279 14:0.977262 15:-0.205614 16:-0.997399 17:0.286937 18:-1 19:0.190992 20:-0.928168 21:0.214553 22:-0.440547 23:-0.907866 
1 1:0.188961 2:0.728386 3:0.189181 4:0.728386 5:-0.188961 6:-0.728386 7:-0.819701 8:0.985612 9:-0.519506 10:0.958438 11:0.0323777 12:0.975721 13:0.230589 14:0.934846 15:0.237687 16:-0.892632 17:0.253123 18:-0.924783 19:0.179293 20:-1 21:-0.104714 22:-0.438406 23:-0.0632531 
1 1:-0.216965 2:0.660397 3:-0.21682 4:0.660397 5:0.216964 6:-0.660397 7:-0.435919 8:-0.0357246 9:-0.824068 10:-0.511265 11:-0.406554 12:0.503939 13:-0.375255 14:0.147809 15:-0.204928 16:-0.126638 17:0.290443 18:-0.841281 19:0.187779 20:1 21:0.217734 22:-0.603584 23:0.35836 
1 1:0.126543 2:0.7712 3:0.126751 4:0.7712 5:-0.126543 6:-0.7712 7:-0.934163 8:0.470885 9:-0.809999 10:0.386412 11:-0.395955 12:0.98846 13:-0.317418 14:0.971743 15:-0.208852 16:-1 17:0.258772 18:-1 19:0.191955 20:0.144852 21:0.218132 22:-0.718059 23:-0.0632531 
1 1:0.482737 2:0.702424 3:0.482927 4:0.663609 5:-0.482737 6:-0.702424 7:-0.28098 8:-0.0253395 9:-0.824065 10:-0.96895 11:-0.428305 12:0.999925 13:-0.0203751 14:0.995765 15:-0.115595 16:-0.288267 17:0.290332 18:-0.00046284 19:0.192487 20:0.931399 21:0.219189 22:-0.87511 23:-0.0632531 
1 1:-0.120308 2:0.702424 3:-0.120145 4:0.702424 5:0.120308 6:-0.702424 7:-0.613166 8:0.996779 9:0.865883 10:0.955841 11:-0.376045 12:-0.824248 13:-0.432964 14:-0.20134 15:-0.211618 16:-1 17:0.290468 18:-1 19:0.192433 20:-0.985736 21:0.211291 22:-0.865218 23:-0.0632531 
1 1:0.336888 2:0.559248 3:0.337135 4:0.559248 5:-0.336888 6:-0.559248 7:-0.548435 8:0.577939 9:-0.447842 10:-0.910517 11:-0.536692 12:0.575363 13:0.487363 14:0.722909 15:-0.204055 16:-0.711574 17:0.288609 18:-0.0335134 19:0.192136 20:-0.946893 21:0.212278 22:-0.252141 23:-0.0632531 
1 1:-0.219208 2:0.762337 3:-0.219063 4:0.762337 5:0.219208 6:-0.762337 7:-0.431805 8:0.969195 9:-0.78788 10:0.985164 11:-0.344994 12:0.985881 13:-0.329152 14:0.931624 15:-0.161195 16:-0.988262 17:0.213492 18:-0.688027 19:0.186252 20:-0.977571 21:0.149049 22:-0.0547176 23:-0.0632531 
1 1:0.489092 2:0.684477 3:0.489367 4:0.684477 5:-0.489092 6:-0.684477 7:-0.269326 8:-0.724159 9:-0.835749 10:0.439437 11:-0.392025 12:0.995355 13:0.153908 14:0.99791 15:0.145176 16:-0.995236 17:0.273034 18:-0.99882 19:0.165674 20:0.899849 21:0.22736 22:-0.849311 23:-0.0632531 
1 1:-0.0501292 2:0.709536 3:-0.0499537 4:0.709536 5:0.0501292 6:-0.709536 7:-0.741859 8:1 9:-0.618351 10:0.999221 11:-0.242838 12:0.998154 13:-0.314072 14:0.992543 15:-0.158431 16:-0.869337 17:0.287157 18:-1 19:0.190409 20:0.215341 21:0.21862 22:-0.212347 23:-0.0632531 
1 1:0.508016 2:0.596471 3:0.508294 4:0.596471 5:-0.508016 6:-0.596471 7:-0.234624 8:0.42156 9:-0.815146 10:-1 11:-0.402245 12:0.907751 13:0.0251185 14:-0.892501 15:-0.209672 16:-0.351823 17:0.290131 18:0.94012 19:0.19969 20:1 21:0.218011 22:-0.989382 23:-0.0632531 
0.4341541218136421 1:-0.186337 2:0.775201 3:-0.186531 4:0.757659 5:0.186337 6:-0.775201 7:-0.492083 8:0.856329 9:-0.818178 10:0.485855 11:-0.399262 12:0.977313 13:-0.340842 14:0.870646 15:-0.171987 16:-0.600967 17:0.287615 18:-1 19:0.189426 20:-0.632363 21:0.214209 22:-0.295078 23:0.40084 
1 1:-0.428794 2:0.675359 3:-0.428689 4:0.675359 5:0.428794 6:-0.675359 7:-0.0474687 8:-0.855238 9:-0.825026 10:0.564168 11:-0.394448 12:-0.340595 13:-0.418474 14:0.112532 15:-0.204492 16:-0.948902 17:0.275856 18:-0.831832 19:0.186012 20:1 21:0.218246 22:-0.418392 23:0.363924 
0.8345004290608965 1:-0.219606 2:0.654477 3:-0.219462 4:0.654477 5:0.219606 6:-0.654477 7:-0.431075 8:1 9:-0.802097 10:0.961755 11:-0.400785 12:1 13:-0.382889 14:0.0393486 15:-0.209308 16:-1 17:0.284435 18:-0.284909 19:0.192418 20:1 21:0.287478 22:-0.778663 23:-0.0632531 
1 1:-0.217722 2:0.739195 3:-0.217577 4:0.739195 5:0.217722 6:-0.739195 7:-0.43453 8:0.998529 9:-0.702731 10:0.999669 11:-0.17032 12:0.99722 13:0.265464 14:0.998297 15:0.121132 16:-0.986812 17:-0.3273 18:-0.998055 19:-0.108091 20:-0.862809 21:0.209738 22:-0.545599 23:-0.0632531 
1 1:0.541535 2:0.633127 3:0.54182 4:0.633127 5:-0.541535 6:-0.633127 7:-0.173157 8:1 9:-0.559817 10:0.999773 11:-0.298788 12:0.99998 13:-0.236374 14:0.999971 15:-0.0653444 16:-0.759404 17:0.289709 18:0.410828 19:0.192591 20:0.910987 21:0.218508 22:-0.207797 23:-0.0632531 
1 1:0.119575 2:0.703533 3:0.119782 4:0.703533 5:-0.119575 6:-0.703533 7:-0.94694 8:1 9:-0.792408 10:0.259849 11:-0.206731 12:0.978056 13:0.0987599 14:0.996327 15:0.0999099 16:-0.97546 17:0.281481 18:-0.743737 19:0.170398 20:-0.18297 21:0.20432 22:-0.62244 23:-0.0632531 
1 1:0.144758 2:0.873902 3:0.14497 4:0.873902 5:-0.144758 6:-0.873902 7:-0.90076 8:0.969201 9:-0.758642 10:-0.996746 11:-0.49423 12:0.998751 13:0.0300521 14:0.785322 15:-0.201455 16:-1 17:0.290428 18:-1 19:0.192488 20:-0.771229 21:0.194938 22:-0.456922 23:-0.0632531 
1 1:-0.386043 2:0.614732 3:-0.385929 4:0.614732 5:0.386043 6:-0.614732 7:-0.125866 8:1 9:-0.805941 10:-1 11:-0.404572 12:0.889398 13:-0.342019 14:-1 15:-0.21345 16:-0.871646 17:0.239677 18:-0.941601 19:0.157741 20:-0.884363 21:0.211568 22:-0.652159 23:-0.617591 
1 1:0.0557555 2:0.637733 3:0.0559506 4:0.637733 5:-0.0557554 6:-0.637733 7:-0.936028 8:-0.0164683 9:-0.82549 10:0.144006 11:-0.390894 12:0.982952 13:-0.280561 14:0.392394 15:-0.199116 16:-0.574871 17:0.272508 18:-0.791519 19:0.174658 20:-1 21:0.200462 22:-0.556245 23:-0.0632531 
1 1:0.240387 2:0.557835 3:0.240616 4:0.557835 5:-0.240387 6:-0.557835 7:-0.725397 8:0.980389 9:-0.734141 10:1 11:-0.213811 12:0.995571 13:-0.234204 14:0.993438 15:-0.0535768 16:-0.726678 17:0.272805 18:-0.877184 19:0.189955 20:-0.0170749 21:0.217419 22:-0.0876851 23:-0.0632531 
1 1:0.00349736 2:0.826392 3:0.00101542 4:0.807777 5:-0.0034973 6:-0.826392 7:-0.840198 8:0.113419 9:-0.821843 10:-0.720149 11:-0.409123 12:-0.59719 13:-0.43442 14:-0.464864 15:-0.214859 16:-0.97627 17:-0.229407 18:-1 19:0.0784554 20:-0.849469 21:0.178391 22:-0.151814 23:-0.0632531 
1 1:-0.171103 2:0.572861 3:-0.17095 4:0.572861 5:0.171103 6:-0.572861 7:-0.520019 8:0.109346 9:-0.819378 10:0.260822 11:-0.381463 12:0.315848 13:-0.382266 14:0.194383 15:-0.195365 16:-0.949534 17:0.263764 18:-0.838685 19:0.167333 20:-0.084619 21:0.215628 22:-0.530801 23:0.339372 
1 1:-0.523278 2:0.658209 3:-0.52319 4:0.658209 5:0.523278 6:-0.658209 7:0.125795 8:0.966822 9:-0.823164 10:-1 11:-0.402194 12:0.98707 13:-0.398026 14:1 15:-0.208576 16:-0.998123 17:0.287543 18:-1 19:0.184289 20:1 21:0.218344 22:-0.745667 23:-0.0632531 
1 1:-0.28954 2:0.777822 3:-0.289408 4:0.777822 5:0.28954 6:-0.777822 7:-0.302832 8:0.996123 9:-0.743915 10:0.690819 11:-0.389177 12:0.910347 13:-0.388554 14:0.793317 15:-0.184427 16:-0.982833 17:0.0106509 18:-1 19:0.167176 20:-0.393081 21:0.162874 22:-0.148599 23:-0.0207082 
1 1:0.418861 2:0.744699 3:0.418827 4:0.72146 5:-0.418861 6:-0.744699 7:-0.398115 8:-0.276899 9:-0.832891 10:-0.462298 11:-0.413044 12:0.170994 13:-0.359996 14:-0.0541652 15:-0.227293 16:-0.984623 17:0.28776 18:-0.990695 19:0.188786 20:-0.323687 21:0.215724 22:-0.535869 23:-0.0632531 
1 1:0.107347 2:0.785115 3:0.106387 4:0.758676 5:-0.107348 6:-0.785115 7:-0.969363 8:-0.763671 9:-0.830769 10:1 11:-0.401404 12:0.745063 13:-0.259053 14:0.808729 15:-0.182904 16:-0.639518 17:0.284613 18:1 19:0.194282 20:-0.847581 21:0.217239 22:-0.398374 23:0.0552768 
1 1:0.0671629 2:0.789327 3:0.0673602 4:0.789327 5:-0.0671628 6:-0.789327 7:-0.956947 8:-0.271343 9:-0.846312 10:-0.657465 11:-0.464495 12:-0.214314 13:-0.689886 14:-0.517092 15:-1 16:-0.493849 17:0.290292 18:-0.195974 19:0.192513 20:0.945581 21:0.228781 22:-0.817859 23:-0.0632531 
1 1:0.15233 2:0.634037 3:0.152543 4:0.634037 5:-0.15233 6:-0.634037 7:-0.886875 8:0.985611 9:-0.671378 10:0.970543 11:-0.198614 12:0.903288 13:-0.239296 14:0.587315 15:-0.16984 16:-0.543036 17:0.27746 18:0.19393 19:0.203289 20:-0.301432 21:0.216377 22:-0.270404 23:-0.0632531 
1 1:-0.0453449 2:0.731436 3:-0.0451684 4:0.731436 5:0.0453447 6:-0.731437 7:-0.750632 8:-0.107448 9:-0.825215 10:0.70577 11:-0.334646 12:0.889888 13:-0.354492 14:0.847748 15:-0.173777 16:-0.787967 17:0.27012 18:-0.414971 19:0.187407 20:-0.773894 21:0.187805 22:0.0158976 23:-0.0632531 
1 1:0.0601876 2:0.632558 3:0.0603836 4:0.632558 5:-0.0601876 6:-0.632558 7:-0.944156 8:0.383126 9:-0.80594 10:0.0295566 11:-0.400374 12:0.925 13:-0.218222 14:0.946588 15:-0.145421 16:-0.986207 17:0.225916 18:-0.930769 19:0.143359 20:-0.419476 21:0.191983 22:0.0253624 23:-0.0632531 
1 1:-0.161997 2:0.797194 3:-0.161842 4:0.797194 5:0.161997 6:-0.797194 7:-0.536717 8:0.942067 9:-0.785248 10:0.989778 11:-0.374849 12:0.972677 13:-0.346326 14:0.974429 15:-0.153014 16:-0.717805 17:0.262764 18:-1 19:0.192361 20:-0.746421 21:0.212703 22:-0.0957457 23:0.403285 
1 1:-0.100918 2:0.606783 3:-0.100752 4:0.606783 5:0.100918 6:-0.606783 7:-0.648723 8:0.972445 9:-0.759378 10:0.838443 11:-0.375796 12:1 13:-0.207455 14:0.950135 15:-0.114143 16:-0.556339 17:0.246156 18:-1 19:0.181752 20:-0.719222 21:0.1549 22:0.0582286 23:-0.0632531 
1 1:0.178708 2:0.749864 3:0.178926 4:0.749864 5:-0.178708 6:-0.749864 7:-0.838503 8:0.516482 9:-0.78854 10:0.883464 11:-0.330934 12:0.818683 13:-0.152922 14:0.731571 15:-0.151949 16:-1 17:0.17631 18:-0.640448 19:0.181283 20:0.437181 21:0.229119 22:-0.294616 23:-0.0632531 
1 1:0.10186 2:0.605388 3:0.102064 4:0.605388 5:-0.10186 6:-0.605388 7:-0.979425 8:0.99038 9:-0.783032 10:0.65055 11:-0.373562 12:0.996776 13:-0.191403 14:0.975602 15:-0.179632 16:-0.74613 17:0.284487 18:-0.463557 19:0.187998 20:0.712418 21:0.2279 22:-0.304853 23:-0.0632531 
1 1:0.686141 2:0.693947 3:0.686453 4:0.693947 5:-0.686141 6:-0.693947 7:0.0920201 8:0.990604 9:-0.821792 10:0.976436 11:-0.400575 12:0.982894 13:0.0729861 14:0.0770402 15:-0.207491 16:-0.923776 17:0.290511 18:-0.623337 19:0.192383 20:-0.986807 21:0.217521 22:-0.935983 23:-0.0632531 
1 1:0.0635538 2:0.575232 3:0.0637503 4:0.575232 5:-0.0635539 6:-0.575232 7:-0.950329 8:0.957018 9:-0.802388 10:0.918807 11:-0.391858 12:0.999203 13:-0.255428 14:1 15:-0.113911 16:-0.0239476 17:0.289595 18:-0.57802 19:0.17813 20:-0.880769 21:0.205445 22:0.117657 23:-0.0632531 
1 1:0.207202 2:0.722577 3:0.207425 4:0.722577 5:-0.207202 6:-0.722577 7:-0.786252 8:0.615963 9:-0.744839 10:0.302986 11:-0.363134 12:0.431554 13:-0.142151 14:0.179229 15:-0.160378 16:-0.727251 17:0.0231157 18:-0.869577 19:0.0309888 20:-0.91894 21:0.203818 22:-0.77315 23:-0.0632531 
1 1:0.116612 2:0.751932 3:0.115789 4:0.733317 5:-0.116612 6:-0.751932 7:-0.952374 8:0.874878 9:-0.613366 10:0.717092 11:-0.284599 12:0.998957 13:-0.161959 14:0.917417 15:-0.135463 16:-0.915587 17:0.13432 18:-0.819163 19:0.00232518 20:-0.258316 21:0.206694 22:-0.232752 23:-0.0632531 
1 1:-0.387804 2:0.695552 3:-0.38769 4:0.695552 5:0.387804 6:-0.695552 7:-0.122637 8:0.973853 9:-0.811555 10:0.969349 11:-0.381948 12:0.987446 13:-0.311156 14:0.986849 15:-0.13086 16:-0.936836 17:0.257818 18:-0.965243 19:0.158503 20:-1 21:0.213802 22:-0.23223 23:-0.0632531 
1 1:0.532303 2:0.729594 3:0.532586 4:0.729594 5:-0.532303 6:-0.729594 7:-0.190086 8:1 9:-0.783825 10:1 11:-0.393876 12:1 13:-0.172228 14:0.99315 15:-0.0120141 16:-0.401428 17:0.27125 18:-0.782135 19:0.191253 20:-0.340801 21:0.217167 22:-0.690986 23:-0.0632531 
1 1:0.245824 2:0.706206 3:0.246054 4:0.706206 5:-0.245824 6:-0.706206 7:-0.715427 8:0.993616 9:-0.328227 10:0.986997 11:0.216223 12:0.991176 13:0.0550569 14:0.971326 15:0.0431528 16:-0.912875 17:0.243873 18:-0.944168 19:0.161733 20:-0.579504 21:0.20411 22:-0.107436 23:-0.0632531 
1 1:-0.00832371 2:0.672979 3:-0.00814046 4:0.672979 5:0.0083239 6:-0.672979 7:-0.818521 8:0.297334 9:-0.811032 10:0.298776 11:-0.388401 12:1 13:-0.273576 14:0.990446 15:-0.0677674 16:-0.53247 17:0.283952 18:-1 19:0.184584 20:1 21:0.223036 22:-0.688598 23:-0.0632531 
1 1:0.132734 2:0.547167 3:0.132944 4:0.547167 5:-0.132734 6:-0.547167 7:-0.922809 8:0.947276 9:-0.812591 10:0.768566 11:-0.25118 12:0.0494058 13:-0.393631 14:-0.222756 15:-0.282622 16:-0.702472 17:0.194362 18:-0.984063 19:0.0937532 20:-0.85342 21:0.214302 22:-0.563088 23:-0.0632531 
1 1:0.0314578 2:0.845684 3:0.0316484 4:0.845684 5:-0.0314578 6:-0.845684 7:-0.891472 8:0.965987 9:-0.806981 10:-0.876213 11:-0.495916 12:0.977565 13:-0.313275 14:1 15:-0.206214 16:-1 17:0.289785 18:-1 19:0.192404 20:0.977372 21:0.224864 22:-0.725741 23:-0.0632531 
1 1:0.455671 2:0.731008 3:0.45594 4:0.731008 5:-0.455671 6:-0.731008 7:-0.330613 8:0.359655 9:-0.821171 10:0.103563 11:-0.400356 12:0.519318 13:-0.268662 14:-0.12904 15:-0.253595 16:0.388154 17:0.303146 18:0.198657 19:0.209778 20:0.842271 21:0.222274 22:-0.641625 23:-0.0632531 
1 1:0.140156 2:0.687495 3:0.140367 4:0.687495 5:-0.140156 6:-0.687495 7:-0.909199 8:0.997556 9:-0.652371 10:0.503889 11:0.0201712 12:0.635657 13:0.0892422 14:0.470433 15:0.0133549 16:-0.950448 17:0.172844 18:-0.846154 19:0.156472 20:-0.757293 21:0.188762 22:-0.457396 23:-0.0632531 
1 1:0.0734864 2:0.66634 3:0.0736848 4:0.66634 5:-0.0734864 6:-0.66634 7:-0.968543 8:0.953281 9:-0.54209 10:0.947652 11:0.0939237 12:0.899415 13:0.211877 14:0.815257 15:0.0789465 16:-0.989869 17:0.201174 18:-0.892012 19:0.03788 20:-0.126484 21:0.21601 22:0.0384862 23:-0.0632531 
0.6440765177238077 1:-0.206812 2:0.711586 3:-0.206666 4:0.711586 5:0.206812 6:-0.711586 7:-0.454536 8:1 9:-0.781289 10:1 11:-0.38774 12:0.833333 13:-0.359038 14:0.977579 15:-0.185706 16:0.116635 17:0.292787 18:-0.128571 19:0.18952 20:-0.927978 21:0.202014 22:-0.00174955 23:-0.0632531 
0.566826615180688 1:-0.16809 2:0.720273 3:-0.167937 4:0.720273 5:0.16809 6:-0.720273 7:-0.525543 8:0.998939 9:-0.654107 10:0.999699 11:-0.300221 12:-0.0231844 13:-0.416526 14:-0.358835 15:-0.24606 16:-0.261239 17:0.268799 18:-0.793803 19:0.14198 20:0.766706 21:0.222821 22:-0.536773 23:0.180826 
1 1:-0.129706 2:0.698046 3:-0.129545 4:0.698046 5:0.129706 6:-0.698046 7:-0.595932 8:0.513905 9:-0.817739 10:-0.726664 11:-0.42855 12:0.695017 13:-0.343012 14:0.0655372 15:-0.207771 16:-0.60691 17:0.266154 18:-0.93658 19:0.139886 20:-0.89167 21:0.204805 22:-0.52815 23:0.0720403 
1 1:-0.0729949 2:0.577403 3:-0.0728235 4:0.577403 5:0.0729949 6:-0.577403 7:-0.699928 8:0.699864 9:-0.776629 10:0.937796 11:-0.352453 12:0.883473 13:-0.329476 14:0.663417 15:-0.184604 16:-0.861255 17:0.265568 18:-0.863081 19:0.175518 20:-0.693931 21:0.210424 22:-0.412549 23:-0.0632531 
1 1:-0.378084 2:0.483157 3:-0.377969 4:0.483157 5:0.378084 6:-0.483157 7:-0.14046 8:0.855937 9:-0.819031 10:-1 11:-0.402191 12:0.787256 13:-0.387222 14:1 15:-0.207637 16:-0.827411 17:0.276106 18:-1 19:0.162785 20:0.710157 21:0.226291 22:-0.278221 23:0.23432 
1 1:0.101276 2:0.687495 3:0.10148 4:0.687495 5:-0.101276 6:-0.687495 7:-0.980496 8:0.994648 9:-0.512788 10:0.982353 11:-0.330881 12:0.999286 13:0.0130847 14:0.998448 15:-0.0320905 16:-0.989002 17:0.0672119 18:-0.984202 19:0.0431935 20:-0.637362 21:0.215716 22:-0.508034 23:-0.0632531 
1 1:-0.237115 2:0.890075 3:-0.237079 4:0.862642 5:0.237115 6:-0.890075 7:-0.398967 8:0.998298 9:0.835756 10:-1 11:-0.402212 12:-0.293894 13:-0.415261 14:0.983201 15:-0.207746 16:-1 17:0.289603 18:-1 19:0.190196 20:1 21:0.218281 22:-0.674865 23:-0.0632531 
1 1:-0.170443 2:0.657252 3:-0.17029 4:0.657252 5:0.170443 6:-0.657252 7:-0.521229 8:0.97105 9:-0.790875 10:0.77564 11:-0.37038 12:0.998583 13:-0.240406 14:0.853846 15:-0.208412 16:-0.99897 17:0.008621 18:-0.897032 19:0.156762 20:-0.885098 21:0.204586 22:-0.0829299 23:-0.0632531 
1 1:-0.331121 2:0.761787 3:-0.330997 4:0.761787 5:0.331121 6:-0.761787 7:-0.22658 8:0.22236 9:-0.8228 10:0.693405 11:-0.396567 12:0.59197 13:-0.388919 14:0.304452 15:-0.199639 16:-1 17:0.279122 18:-0.0214689 19:0.19212 20:-0.272727 21:0.216024 22:-0.457318 23:-0.0632531 
1 1:-0.0598278 2:0.468824 3:-0.0623656 4:0.424056 5:0.0598277 6:-0.468824 7:-0.724074 8:0.994709 9:-0.647303 10:0.944828 11:-0.320249 12:0.989095 13:-0.11863 14:1 15:-0.126456 16:-0.489051 17:0.284568 18:-0.871743 19:0.163422 20:-0.995342 21:-0.199482 22:-0.574823 23:-0.0632531 
1 1:0.0483076 2:0.599891 3:0.0485014 4:0.599891 5:-0.0483076 6:-0.599891 7:-0.922371 8:-0.346535 9:-0.831795 10:0.314286 11:-0.400262 12:0.987571 13:-0.289406 14:-0.435407 15:-0.223449 16:-0.724687 17:0.223867 18:-0.263158 19:0.186611 20:-0.866667 21:0.207226 22:-0.508339 23:-0.0632531 
1 1:0.168241 2:0.857417 3:0.168457 4:0.857417 5:-0.168242 6:-0.857417 7:-0.857696 8:0.894682 9:-0.781288 10:0.983026 11:-0.280529 12:0.984492 13:-0.107579 14:0.954739 15:-0.114122 16:-0.962573 17:0.130208 18:-1 19:0.0573685 20:-0.173176 21:0.204548 22:-0.327724 23:-0.0632531 
1 1:-0.236923 2:0.660539 3:-0.236782 4:0.660539 5:0.236923 6:-0.66054 7:-0.399319 8:0.890501 9:-0.444824 10:0.84965 11:-0.21866 12:0.78618 13:-0.230125 14:0.628217 15:-0.142747 16:-0.988246 17:0.231274 18:-0.914408 19:0.120629 20:0.745898 21:0.220422 22:-0.182255 23:-0.0434058 
1 1:-0.223964 2:0.699189 3:-0.22382 4:0.699189 5:0.223964 6:-0.699189 7:-0.423083 8:0.781026 9:-0.81465 10:0.925069 11:-0.36878 12:0.699332 13:-0.238442 14:0.575473 15:-0.157387 16:-1 17:0.272486 18:-0.751666 19:0.189249 20:-0.759764 21:0.217128 22:-0.864747 23:-0.0632531 
1 1:0.136638 2:0.74585 3:0.136848 4:0.74585 5:-0.136638 6:-0.74585 7:-0.915651 8:-0.220876 9:-0.824551 10:-1 11:-0.402217 12:-0.520886 13:-0.890013 14:1 15:-0.208168 16:-0.873023 17:-0.751058 18:-0.995182 19:0.180066 20:-0.527121 21:0.217419 22:-0.853771 23:-0.0632531 
1 1:-0.312793 2:0.678192 3:-0.312666 4:0.678192 5:0.312793 6:-0.678192 7:-0.260189 8:0.929336 9:-0.71202 10:0.960239 11:-0.179472 12:0.999853 13:-0.170301 14:0.999872 15:-0.0646316 16:-0.952787 17:0.0383451 18:-0.998824 19:-0.071344 20:-0.355805 21:0.217478 22:-0.229235 23:0.0244024 
1 1:-0.0192814 2:0.739195 3:-0.019323 4:0.675186 5:0.0192814 6:-0.739195 7:-0.798427 8:0.968521 9:-0.822993 10:-1 11:-0.402897 12:0.989899 13:-0.383999 14:-0.985027 15:-0.276541 16:-0.965286 17:0.273968 18:-0.136267 19:0.19238 20:0.742633 21:0.221264 22:-0.809248 23:-0.0632531 
1 1:-0.235987 2:0.646672 3:-0.235846 4:0.646672 5:0.235988 6:-0.646672 7:-0.401035 8:-0.114108 9:-0.824104 10:0.669285 11:-0.400872 12:1 13:-0.184714 14:0.995031 15:-0.0526796 16:-0.872314 17:0.285868 18:-1 19:0.191453 20:-1 21:0.210279 22:-0.0429919 23:0.404365 
1 1:-0.0297984 2:0.656623 3:-0.029619 4:0.656623 5:0.0297985 6:-0.656623 7:-0.779141 8:0.993438 9:-0.700997 10:0.977482 11:-0.373951 12:0.990358 13:0.299084 14:0.972454 15:0.0492867 16:-0.974579 17:0.0640217 18:-1 19:0.159524 20:0.376872 21:0.219493 22:0.0257981 23:-0.0632531 
1 1:0.27701 2:0.757659 3:0.277246 4:0.757659 5:-0.27701 6:-0.75766 7:-0.658238 8:0.289403 9:-0.81095 10:0.885804 11:-0.289817 12:0.981413 13:0.0860793 14:0.996706 15:0.0800199 16:-0.97378 17:0.256406 18:-1 19:0.192488 20:-0.469311 21:0.151961 22:-0.317927 23:-0.0632531 
1 1:-0.342565 2:0.503732 3:-0.342443 4:0.503732 5:0.342565 6:-0.503732 7:-0.205595 8:0.90533 9:-0.823638 10:0.840146 11:-0.402121 12:0.827948 13:-0.407506 14:-0.96634 15:-0.210014 16:-1 17:0.161712 18:-1 19:-0.0629136 20:-0.95995 21:0.213501 22:-0.880661 23:0.254755 
1 1:0.576811 2:0.758398 3:0.577103 4:0.758398 5:-0.576811 6:-0.758398 7:-0.108467 8:0.987384 9:-0.789352 10:0.858425 11:-0.387642 12:0.981544 13:0.0196823 14:1 15:-0.136626 16:0.954226 17:0.308156 18:-1 19:0.192429 20:-0.999398 21:0.0830696 22:-0.753143 23:-0.0632531 
1 1:-0.139193 2:0.727341 3:-0.139587 4:0.70482 5:0.139193 6:-0.727342 7:-0.578535 8:-0.782106 9:-0.840057 10:-0.274142 11:-0.40687 12:0.946582 13:0.0948028 14:0.984362 15:-0.151443 16:-0.414223 17:0.278427 18:-0.817138 19:0.179467 20:-1 21:0.197958 22:-0.355559 23:-0.00919147 
1 1:0.261415 2:0.773316 3:0.261648 4:0.773316 5:-0.261414 6:-0.773316 7:-0.686837 8:-1 9:-0.824609 10:0.980584 11:-0.360146 12:0.874048 13:-0.274443 14:0.981657 15:-0.156209 16:-1 17:0.273757 18:-0.468715 19:0.182453 20:0.437444 21:0.227839 22:-0.556424 23:-0.0632531 
0.7428170623900131 1:0.152541 2:0.563311 3:0.152754 4:0.563311 5:-0.152541 6:-0.563311 7:-0.886488 8:0.899953 9:-0.640214 10:0.91024 11:-0.362241 12:0.939472 13:0.327847 14:0.938259 15:-0.0187221 16:-0.894873 17:0.094033 18:-1 19:0.171848 20:-0.650007 21:0.197296 22:-0.708569 23:-0.0632531 
1 1:-0.248337 2:0.699189 3:-0.248198 4:0.699189 5:0.248337 6:-0.699189 7:-0.378388 8:1 9:-0.823464 10:0.797255 11:-0.400856 12:0.956463 13:-0.377113 14:0.884177 15:-0.192558 16:-1 17:0.289144 18:-0.326411 19:0.192036 20:-0.721111 21:0.214353 22:-0.871277 23:-0.0632531 
1 1:0.000682715 2:0.707854 3:0.000867698 4:0.707854 5:-0.000682792 6:-0.707854 7:-0.835037 8:0.843388 9:-0.737043 10:0.693171 11:-0.255865 12:0.870157 13:-0.255591 14:0.888411 15:-0.00403872 16:-0.9059 17:0.243196 18:-0.783729 19:0.137626 20:-0.144475 21:0.212808 22:-0.213076 23:-0.0632531 
1 1:-0.0189278 2:0.71301 3:-0.0187465 4:0.71301 5:0.0189278 6:-0.71301 7:-0.799075 8:1 9:-0.771747 10:1 11:0.16858 12:0.985637 13:-0.140125 14:0.978262 15:0.010199 16:-0.895109 17:0.273922 18:-0.869634 19:0.16182 20:-0.468155 21:0.211244 22:-0.0973053 23:0.148949 
1 1:0.314176 2:0.654477 3:0.314419 4:0.654477 5:-0.314176 6:-0.654477 7:-0.590083 8:0.987678 9:-0.4149 10:0.989072 11:0.0394218 12:0.937717 13:-0.00426253 14:0.91183 15:0.0941794 16:-1 17:0.290548 18:-1 19:0.188761 20:0.265623 21:0.218638 22:-0.0956312 23:-0.0632531 
1 1:0.0374852 2:0.193204 3:0.037677 4:0.193204 5:-0.0374852 6:-0.193204 7:-0.902525 8:1 9:-0.750877 10:-0.757549 11:-0.525479 12:0.915461 13:0.281952 14:0.688736 15:-0.0798519 16:0.0488372 17:0.293726 18:-1 19:0.192488 20:-1 21:0.217526 22:-0.652002 23:-0.0632531 
1 1:-0.0401896 2:0.802376 3:-0.0400122 4:0.802376 5:0.0401897 6:-0.802376 7:-0.760086 8:0.619918 9:-0.780856 10:0.298471 11:-0.391417 12:0.782492 13:-0.16892 14:0.380992 15:-0.197757 16:-0.401451 17:0.266574 18:-0.943662 19:0.161187 20:0.355089 21:0.227519 22:-0.37085 23:-0.0632531 
1 1:0.593364 2:0.721662 3:0.593659 4:0.721662 5:-0.593364 6:-0.721662 7:-0.0781126 8:0.327007 9:-0.817028 10:0.435712 11:-0.395637 12:0.334403 13:-0.263916 14:0.333923 15:-0.133776 16:0.200581 17:0.292005 18:0.996591 19:0.192922 20:-0.292007 21:0.217495 22:-0.662365 23:-0.0632531 
1 1:-0.252656 2:0.57582 3:-0.252518 4:0.57582 5:0.252656 6:-0.57582 7:-0.370469 8:-0.870265 9:-0.838649 10:-0.993001 11:-0.424336 12:0.855285 13:-0.301459 14:0.0717378 15:-0.206151 16:-0.915042 17:0.231242 18:-1 19:0.182447 20:0.458941 21:0.221055 22:-0.182083 23:0.138912 
1 1:-0.0849132 2:0.791886 3:-0.0847441 4:0.791886 5:0.0849133 6:-0.791886 7:-0.678072 8:1 9:-0.683607 10:0.332315 11:-0.401688 12:0.855131 13:-0.330215 14:-1 15:-0.210893 16:-0.684838 17:0.267898 18:-0.792907 19:0.182893 20:-0.847203 21:0.199504 22:-0.2918 23:0.146189 
0.655182527845297 1:0.137335 2:0.862642 3:0.137101 4:0.835209 5:-0.137335 6:-0.862642 7:-0.914373 8:0.837256 9:-0.817288 10:0.987549 11:-0.387045 12:0.285412 13:-0.412263 14:-0.91026 15:-0.215793 16:0.965595 17:0.915413 18:0.897666 19:0.361581 20:-0.956581 21:0.214418 22:-0.551314 23:-0.0632531 
1 1:0.0316125 2:0.770547 3:0.0310414 4:0.751932 5:-0.0316125 6:-0.770547 7:-0.891755 8:-0.0106301 9:-0.824543 10:-0.224223 11:-0.405134 12:0.475421 13:-0.325222 14:0.344676 15:-0.146767 16:-0.875327 17:0.26912 18:0.952775 19:0.21573 20:-0.211055 21:0.216167 22:-0.279366 23:-0.053392 
1 1:-0.170342 2:0.310862 3:-0.170189 4:0.310862 5:0.170342 6:-0.310862 7:-0.521414 8:1 9:-0.79365 10:0.990465 11:-0.297924 12:1 13:-0.369465 14:1 15:-0.188219 16:0.0898204 17:0.291671 18:-0.207547 19:0.186937 20:-0.945018 21:-0.448259 22:0.336798 23:0.0575001 
1 1:0.0297766 2:0.76474 3:0.0299669 4:0.76474 5:-0.0297767 6:-0.76474 7:-0.888389 8:0.146848 9:-0.807663 10:-1 11:-0.615893 12:0.0493344 13:-0.395803 14:-1 15:-0.681691 16:0.574712 17:0.495383 18:-0.405405 19:0.191986 20:0.270015 21:0.472228 22:-0.848925 23:-0.0632531 
1 1:0.212054 2:0.858627 3:0.212278 4:0.858627 5:-0.212054 6:-0.858628 7:-0.777353 8:1 9:-0.666995 10:-0.324512 11:-0.467039 12:1 13:-0.139155 14:1 15:-0.133725 16:-0.98472 17:-0.149672 18:-0.993251 19:-0.0659815 20:0.737368 21:0.220036 22:-0.208711 23:-0.0632531 
1 1:-0.0887151 2:0.787202 3:-0.0890203 4:0.739195 5:0.0887151 6:-0.787202 7:-0.671101 8:0.663843 9:-0.731821 10:-0.201834 11:-0.406241 12:-0.21059 13:-0.453487 14:-0.43447 15:-0.25778 16:-0.441863 17:0.276802 18:1 19:0.208065 20:-0.883309 21:0.207454 22:-0.492605 23:0.369715 
1 1:-0.241389 2:0.851212 3:-0.241624 4:0.783646 5:0.241389 6:-0.851212 7:-0.39113 8:-0.924655 9:-0.895289 10:0.0273721 11:-0.400054 12:0.982632 13:-0.317019 14:0.994482 15:-0.193302 16:0.997846 17:0.337517 18:1 19:0.195872 20:-0.992619 21:-0.825363 22:-0.820041 23:-0.0632531 
1 1:0.319385 2:0.732686 3:0.319629 4:0.732686 5:-0.319385 6:-0.732686 7:-0.580531 8:1 9:-0.736953 10:-0.68749 11:-0.462725 12:-0.047668 13:-0.455591 14:-0.559951 15:-0.260023 16:-0.666956 17:0.202791 18:-0.959572 19:0.176329 20:-0.752905 21:0.140323 22:-0.73553 23:-0.0632531 
1 1:-0.130918 2:0.653341 3:-0.130758 4:0.653341 5:0.130918 6:-0.653341 7:-0.593709 8:0.703526 9:-0.817849 10:0.688669 11:-0.379211 12:0.795469 13:-0.371665 14:0.696061 15:-0.173147 16:-0.988898 17:0.236125 18:-0.789147 19:0.146776 20:-0.311967 21:0.209821 22:0.0130777 23:-0.0632531 
1 1:0.391936 2:0.783904 3:0.392077 4:0.756053 5:-0.391936 6:-0.783904 7:-0.447489 8:0.34343 9:-0.7257 10:0.479118 11:-0.332733 12:0.99375 13:-0.0345791 14:0.998113 15:-0.00424696 16:-0.980366 17:0.160478 18:-0.845197 19:0.121106 20:-0.910691 21:0.156709 22:-0.629092 23:-0.0632531 
1 1:0.267094 2:0.676631 3:0.267329 4:0.676631 5:-0.267094 6:-0.676631 7:-0.676421 8:1 9:-0.673153 10:0.173562 11:-0.392116 12:-0.0018655 13:-0.415182 14:0.89756 15:-0.182894 16:-0.471607 17:0.25765 18:-0.854545 19:0.18995 20:-0.356629 21:0.212264 22:-0.507379 23:-0.0632531 
1 1:0.0959064 2:0.849586 3:0.0944512 4:0.791053 5:-0.0959064 6:-0.849586 7:-0.990343 8:0.974251 9:-0.748831 10:0.919141 11:-0.310543 12:0.893121 13:-0.269683 14:0.778715 15:-0.132585 16:-0.930518 17:0.210268 18:-0.652816 19:0.187104 20:-0.22755 21:0.216872 22:-0.221957 23:0.197357 
1 1:-0.196263 2:0.746178 3:-0.196215 4:0.71301 5:0.196263 6:-0.746178 7:-0.473881 8:0.964844 9:-0.657281 10:0.352147 11:-0.265404 12:0.978448 13:-0.006587 14:0.928788 15:-0.13768 16:-0.945645 17:0.126833 18:-0.894325 19:0.175177 20:-0.983234 21:0.00336787 22:-0.722465 23:0.0397413 
1 1:0.197841 2:0.745457 3:0.198062 4:0.745457 5:-0.197841 6:-0.745457 7:-0.803418 8:0.954179 9:-0.793629 10:-0.489741 11:-0.438176 12:0.999942 13:-0.171646 14:0.999781 15:-0.0567855 16:-0.94005 17:0.271378 18:-0.287684 19:0.176573 20:1 21:0.220368 22:-0.952607 23:-0.0632531 
1 1:-0.316112 2:0.737195 3:-0.315986 4:0.737195 5:0.316112 6:-0.737195 7:-0.254104 8:-0.0503979 9:-0.823972 10:0.981812 11:-0.391155 12:0.975472 13:-0.354869 14:0.929745 15:-0.18953 16:-0.937282 17:0.26277 18:-0.906634 19:0.178873 20:0.693796 21:0.253616 22:-0.247211 23:0.195339 
1 1:0.203057 2:0.604775 3:0.203279 4:0.604775 5:-0.203057 6:-0.604775 7:-0.793852 8:1 9:-0.765451 10:-0.25 11:-0.404695 12:0.789996 13:0.214549 14:-0.89545 15:-0.464871 16:-0.261905 17:0.286437 18:-0.97351 19:0.161646 20:0.408696 21:0.223065 22:-0.957098 23:-0.0632531 
1 1:0.163407 2:0.746178 3:0.163622 4:0.746178 5:-0.163407 6:-0.746178 7:-0.866562 8:0.865534 9:-0.814725 10:-0.111186 11:-0.45802 12:0.141573 13:-0.314879 14:-0.0813665 15:-0.211221 16:-0.860756 17:-0.314961 18:-0.849228 19:0.109748 20:-0.978765 21:0.203833 22:-0.665168 23:-0.0632531 
1 1:0.132525 2:0.606654 3:0.131936 4:0.586825 5:-0.132525 6:-0.606654 7:-0.923193 8:0.882583 9:-0.806111 10:0.688871 11:-0.322639 12:0.919744 13:-0.109111 14:1 15:-0.000878276 16:-0.542225 17:0.239351 18:-0.365741 19:0.153461 20:-0.353748 21:0.19068 22:-0.414726 23:-0.0632531 
1 1:0.562699 2:0.801716 3:0.562988 4:0.801716 5:-0.562699 6:-0.801716 7:-0.134346 8:0.458081 9:-0.817054 10:0.437927 11:-0.386207 12:0.956342 13:0.130385 14:0.991192 15:0.141364 16:-1 17:0.246428 18:-1 19:0.157161 20:1 21:0.217602 22:-0.849358 23:-0.0632531 
0.2988193557278515 1:0.347432 2:0.878852 3:0.346528 4:0.812515 5:-0.347432 6:-0.878852 7:-0.5291 8:0.844587 9:-0.816957 10:0.976674 11:-0.394422 12:0.972622 13:-0.347815 14:0.960071 15:-0.198813 16:-0.772482 17:0.0792672 18:0.58651 19:0.193074 20:0.743247 21:0.225391 22:-0.83757 23:-0.0632531 
1 1:0.0795594 2:0.747248 3:0.0797589 4:0.747248 5:-0.0795594 6:-0.747248 7:-0.97968 8:-0.319205 9:-0.897828 10:-0.569646 11:-0.690431 12:0.953629 13:-0.104135 14:1 15:-0.0846447 16:0.410645 17:0.30153 18:-0.0269685 19:0.190532 20:-0.763702 21:0.109011 22:-0.355503 23:-0.0632531 
1 1:0.059314 2:0.752031 3:0.0595098 4:0.752031 5:-0.059314 6:-0.752031 7:-0.942554 8:0.873817 9:-0.801572 10:1 11:-0.309524 12:0.921663 13:-0.280381 14:0.792936 15:-0.155293 16:-0.829146 17:0.253466 18:-0.598662 19:0.169901 20:-0.462898 21:0.208241 22:-0.372094 23:-0.0632531 
1 1:-0.273901 2:0.493512 3:-0.273766 4:0.493512 5:0.273901 6:-0.493512 7:-0.33151 8:1 9:-0.822017 10:1 11:-0.401936 12:1 13:-0.395406 14:-0.346396 15:-0.21447 16:-0.522133 17:0.273192 18:-0.0192103 19:0.192306 20:-0.498588 21:0.209083 22:-0.939724 23:-0.71051 
1 1:-0.187247 2:0.895924 3:-0.188202 4:0.734959 5:0.187247 6:-0.895924 7:-0.490414 8:0.999854 9:0.343868 10:0.768621 11:-0.401621 12:-0.807611 13:-0.416157 14:-0.191769 15:-0.210551 16:-0.980761 17:0.285657 18:-1 19:0.189957 20:-0.325897 21:0.217286 22:-0.710228 23:-0.0632531 
1 1:0.157469 2:0.778087 3:0.157683 4:0.778087 5:-0.157469 6:-0.778087 7:-0.877451 8:0.748084 9:-0.742003 10:0.743259 11:-0.358747 12:0.734411 13:-0.144515 14:0.705709 15:-0.166213 16:-1 17:0.245888 18:-0.508607 19:0.165835 20:-1 21:0.192053 22:-0.254484 23:-0.0632531 
1 1:-0.320087 2:0.641759 3:-0.319961 4:0.641759 5:0.320087 6:-0.641759 7:-0.246815 8:-1 9:-0.823911 10:0.762277 11:-0.389191 12:0.795418 13:-0.376996 14:0.940983 15:-0.200583 16:-1 17:0.282901 18:-0.685962 19:0.190397 20:-0.804593 21:0.21726 22:-0.574855 23:0.506934 
1 1:-0.379339 2:0.731008 3:-0.379224 4:0.731008 5:0.379339 6:-0.731008 7:-0.138159 8:1 9:-0.823674 10:-0.968733 11:-0.459563 12:0.991014 13:-0.387902 14:-1 15:-0.209367 16:-1 17:0.190889 18:-0.988973 19:0.162569 20:0.857366 21:0.217784 22:-0.59747 23:0.825435 
1 1:-0.0079766 2:0.665626 3:-0.00779315 4:0.665626 5:0.00797652 6:-0.665626 7:-0.819158 8:0.987081 9:-0.791062 10:0.994786 11:-0.356565 12:0.997747 13:-0.109997 14:0.991928 15:0.0140392 16:-0.846008 17:0.26754 18:-0.51638 19:0.188775 20:-1 21:0.209277 22:-0.242523 23:-0.0632531 
1 1:-0.714753 2:0.558786 3:-0.7147 4:0.558786 5:0.714752 6:-0.558786 7:0.476917 8:0.85285 9:-0.823786 10:0.531205 11:-0.40192 12:1 13:-0.409548 14:1 15:-0.208435 16:-1 17:0.28923 18:-0.635248 19:0.192387 20:-0.17749 21:0.217473 22:-0.157493 23:-0.0632531 
1 1:0.132004 2:0.631041 3:0.132213 4:0.631041 5:-0.132004 6:-0.631041 7:-0.924148 8:0.815261 9:-0.814086 10:0.526578 11:-0.384288 12:0.989916 13:-0.154592 14:0.997116 15:-0.0198444 16:-0.933528 17:0.263562 18:0.380783 19:0.196539 20:-0.347594 21:0.214762 22:-0.4581 23:-0.0632531 
1 1:0.269008 2:0.540177 3:0.269243 4:0.540177 5:-0.269008 6:-0.540177 7:-0.672911 8:-0.442786 9:-0.829197 10:0.765933 11:-0.310489 12:0.746992 13:-0.288874 14:0.764322 15:-0.144849 16:-0.863128 17:0.26496 18:0.534545 19:0.206158 20:-0.918548 21:0.109146 22:-0.0168542 23:-0.0632531 
1 1:0.38941 2:0.668785 3:0.389667 4:0.668785 5:-0.38941 6:-0.668785 7:-0.452121 8:1 9:-0.822391 10:0.991691 11:-0.400312 12:0.999356 13:0.00416786 14:-0.895105 15:-0.209663 16:-0.522689 17:0.290426 18:-0.450382 19:0.192281 20:-1 21:0.217432 22:-0.950087 23:-0.0632531 
1 1:0.206941 2:0.681587 3:0.207164 4:0.681587 5:-0.206941 6:-0.681587 7:-0.786729 8:0.997779 9:0.307293 10:1 11:-0.394126 12:-0.311236 13:-0.417953 14:1 15:-0.200268 16:-0.944453 17:0.280156 18:-1 19:0.140211 20:-0.507052 21:0.215701 22:-0.863883 23:-0.0632531 
1 1:-0.0884673 2:0.652413 3:-0.0882989 4:0.652413 5:0.0884673 6:-0.652413 7:-0.671555 8:1 9:-0.822668 10:0.767666 11:-0.401181 12:1 13:-0.351758 14:1 15:-0.180568 16:-1 17:0.288085 18:-0.918796 19:0.191001 20:0.974217 21:0.236137 22:-0.767877 23:-0.0632531 
1 1:-0.302318 2:0.69508 3:-0.302189 4:0.69508 5:0.302318 6:-0.695081 7:-0.279399 8:0.593539 9:-0.743154 10:0.397243 11:-0.340935 12:0.438294 13:-0.264157 14:0.0909128 15:-0.181745 16:-0.140605 17:0.280876 18:-0.474279 19:0.1536 20:-1 21:0.217124 22:-0.460489 23:-0.0632531 
1 1:-0.154169 2:0.760393 3:-0.154013 4:0.760393 5:0.154169 6:-0.760393 7:-0.551072 8:1 9:-0.818338 10:0.991443 11:-0.384922 12:0.968997 13:-0.366901 14:0.517135 15:-0.203058 16:-0.808561 17:0.281905 18:-1 19:0.1868 20:-1 21:0.216772 22:-0.506543 23:0.039733 
1 1:-0.169449 2:0.637254 3:-0.169725 4:0.614732 5:0.169449 6:-0.637254 7:-0.523053 8:-0.384934 9:-0.83839 10:0.0177925 11:-0.40189 12:0.988658 13:-0.369346 14:0.0151736 15:-0.208545 16:-0.683296 17:0.288366 18:-0.406408 19:0.191617 20:-0.19827 21:0.217386 22:-0.450126 23:0.567944 
1 1:0.306101 2:0.76861 3:0.306342 4:0.76861 5:-0.306101 6:-0.76861 7:-0.604892 8:0.826528 9:-0.598333 10:0.691547 11:-0.342657 12:0.999468 13:-0.0976256 14:0.994571 15:-0.103882 16:-0.455285 17:0.273478 18:-0.65247 19:0.170639 20:-0.714286 21:0.213681 22:-0.410574 23:-0.0632531 
1 1:-0.0162082 2:0.660539 3:-0.0160263 4:0.660539 5:0.0162083 6:-0.66054 7:-0.804063 8:1 9:-0.821463 10:0.95889 11:-0.377688 12:0.979258 13:-0.0665365 14:0.988576 15:-0.0461302 16:-0.919031 17:0.268748 18:-0.380981 19:0.189391 20:-0.767838 21:0.213538 22:-0.39165 23:-0.0632531 
0.2856827907018439 1:-0.684526 2:0.110102 3:-0.684467 4:0.110102 5:0.684526 6:-0.110102 7:0.421488 8:1 9:-0.78992 10:0.964946 11:-0.382698 12:1 13:-0.40381 14:-0.580247 15:-0.209582 16:-0.930906 17:0.288998 18:-0.196429 19:0.192411 20:-0.75 21:0.217479 22:0.255658 23:0.590964 
1 1:-0.773007 2:-0.730704 3:-0.772965 4:-0.730704 5:0.773007 6:0.730704 7:0.583744 8:1 9:-0.821356 10:1 11:-0.397049 12:1 13:-0.324341 14:1 15:-0.150586 16:-0.261146 17:0.288246 18:0.687861 19:0.202492 20:0.0676692 21:0.217951 22:1 23:-0.0632531 
1 1:-0.251386 2:0.627887 3:-0.251247 4:0.627887 5:0.251386 6:-0.627887 7:-0.372798 8:1 9:-0.812278 10:1 11:-0.388124 12:0.401094 13:-0.391384 14:0.258262 15:-0.191485 16:-0.979474 17:0.257881 18:-0.745725 19:0.145144 20:-0.272054 21:0.214466 22:0.0910053 23:-0.0632531 
1 1:0.0827524 2:0.676631 3:0.0829525 4:0.676631 5:-0.0827523 6:-0.676631 7:-0.985535 8:0.969728 9:-0.358383 10:0.973743 11:0.0186958 12:0.881494 13:-0.106832 14:0.892554 15:-0.0345385 16:-1 17:0.284043 18:-0.946093 19:0.0840182 20:-0.978778 21:0.163304 22:-0.301146 23:-0.0632531 
1 1:-0.481895 2:0.692766 3:-0.481799 4:0.692766 5:0.481895 6:-0.692766 7:0.0499072 8:0.984959 9:-0.822857 10:0.997152 11:-0.39756 12:0.995699 13:-0.405762 14:0.992475 15:-0.202504 16:-0.663942 17:0.289733 18:-0.864198 19:0.191971 20:0.466052 21:0.217757 22:-0.0428539 23:-0.0632531 
1 1:-0.231255 2:0.655637 3:-0.231112 4:0.655637 5:0.231254 6:-0.655637 7:-0.409714 8:0.924196 9:-0.782716 10:0.89549 11:-0.38072 12:0.900021 13:-0.338303 14:0.859268 15:-0.165078 16:-0.890131 17:0.280767 18:-0.389578 19:0.192359 20:-0.728437 21:0.217395 22:-0.241824 23:-0.0632531 
1 1:0.0834001 2:0.47814 3:0.0836004 4:0.47814 5:-0.0834 6:-0.47814 7:-0.986723 8:0.859823 9:-0.612383 10:0.747824 11:-0.363183 12:0.716861 13:0.417414 14:-0.0356569 15:-0.212337 16:-1 17:0.268306 18:-0.97399 19:-0.0447194 20:-0.986662 21:0.163091 22:0.130959 23:-0.0632531 
1 1:0.310102 2:0.537514 3:0.310344 4:0.537514 5:-0.310102 6:-0.537515 7:-0.597555 8:0.0974247 9:-0.757168 10:0.359379 11:-0.175093 12:0.656508 13:0.178032 14:0.536458 15:0.347688 16:-0.834029 17:0.248047 18:-0.028302 19:0.187214 20:-0.852782 21:0.203985 22:0.0348462 23:-0.0632531 
1 1:0.115184 2:0.77285 3:0.11539 4:0.77285 5:-0.115184 6:-0.77285 7:-0.954992 8:1 9:-0.457656 10:1 11:0.0449038 12:1 13:-0.115993 14:0.995237 15:0.0488367 16:-0.943355 17:0.273089 18:-0.686157 19:0.177235 20:0.0650121 21:0.21785 22:-0.162361 23:-0.0632531 
0.429568614147608 1:-0.143074 2:0.634037 3:-0.143555 4:0.60508 5:0.143074 6:-0.634037 7:-0.571418 8:0.940388 9:-0.72765 10:0.773155 11:-0.395897 12:0.997778 13:-0.00774144 14:0.991556 15:-0.0250029 16:-0.830451 17:0.150096 18:-0.682776 19:0.16134 20:-0.962036 21:-0.12765 22:-0.582292 23:0.0432485 
1 1:-0.304142 2:0.710722 3:-0.304013 4:0.710722 5:0.304142 6:-0.710722 7:-0.276054 8:0.507304 9:-0.823754 10:0.992404 11:-0.389524 12:0.998026 13:-0.394616 14:0.988827 15:-0.201448 16:-1 17:0.279404 18:0.026296 19:0.192523 20:-1 21:0.216954 22:-0.247635 23:-0.0632531 
1 1:-0.586005 2:0.759998 3:-0.585929 4:0.759998 5:0.586005 6:-0.759998 7:0.240823 8:0.922656 9:-0.817053 10:0.976227 11:-0.388324 12:0.853804 13:-0.405845 14:0.595331 15:-0.207949 16:-0.660706 17:0.283402 18:-0.696888 19:0.187447 20:0.943403 21:0.234708 22:0.00929982 23:-0.0632531 
1 1:0.152267 2:0.727024 3:0.152296 4:0.70133 5:-0.152267 6:-0.727024 7:-0.886991 8:-0.940299 9:-0.825879 10:-0.33424 11:-0.402362 12:0.923168 13:-0.287365 14:0.840684 15:-0.199739 16:-0.594021 17:0.278554 18:1 19:0.192719 20:1 21:0.217588 22:-0.482103 23:-0.0632531 
1 1:-0.074882 2:0.738079 3:-0.0764778 4:0.695654 5:0.0748819 6:-0.738079 7:-0.696468 8:0.987462 9:-0.802749 10:0.994541 11:-0.333623 12:0.951638 13:-0.146965 14:0.957186 15:-0.0109602 16:-0.777402 17:0.279085 18:-0.546869 19:0.179025 20:-0.429812 21:0.211034 22:-0.382605 23:-0.0632531 
1 1:-0.201124 2:0.738524 3:-0.200976 4:0.738524 5:0.201124 6:-0.738524 7:-0.464966 8:0.999836 9:-0.806376 10:0.998834 11:-0.398746 12:0.977462 13:-0.401739 14:0.977772 15:-0.204993 16:-0.895868 17:0.221069 18:-0.929028 19:0.16461 20:1 21:0.217616 22:-0.510797 23:-0.0632531 
1 1:0.832015 2:0.665626 3:0.832237 4:0.618242 5:-0.832015 6:-0.665626 7:0.359521 8:-0.847997 9:-0.828167 10:-0.867057 11:-0.403878 12:1 13:-0.265435 14:1 15:-0.154832 16:-0.142708 17:0.290228 18:0.8437 19:0.194211 20:-1 21:0.217489 22:-0.973201 23:-0.0632531 
1 1:-0.276997 2:0.283769 3:-0.276863 4:0.283769 5:0.276997 6:-0.283769 7:-0.325833 8:1 9:-0.801578 10:1 11:-0.368446 12:1 13:-0.269996 14:1 15:-0.0355276 16:-0.632275 17:0.246484 18:-0.874972 19:0.154454 20:-0.344346 21:0.214895 22:0.350405 23:-0.0632531 
1 1:-0.217976 2:0.674441 3:-0.217832 4:0.674441 5:0.217976 6:-0.674441 7:-0.434063 8:0.992651 9:-0.796831 10:0.995306 11:-0.39314 12:1 13:-0.206171 14:1 15:-0.130954 16:-1 17:0.271701 18:-0.927443 19:0.169175 20:-0.572928 21:0.204214 22:-0.23169 23:0.128867 
1 1:0.0540225 2:0.737428 3:0.0535875 4:0.715044 5:-0.0540226 6:-0.737428 7:-0.932851 8:0.91236 9:-0.805296 10:-0.350698 11:-0.431183 12:0.482463 13:-0.306 14:-0.0888146 15:-0.220719 16:-0.316805 17:0.276154 18:-0.701077 19:0.179071 20:0.656294 21:0.21973 22:-0.366619 23:0.286769 
0.9688165698611798 1:0.330968 2:0.63838 3:0.331214 4:0.63838 5:-0.330968 6:-0.63838 7:-0.559291 8:1 9:-0.624198 10:0.999681 11:0.0854053 12:0.999812 13:-0.113073 14:0.844538 15:-0.167792 16:-0.659771 17:0.285185 18:-0.661952 19:0.191112 20:0.661482 21:0.218541 22:-0.337786 23:-0.0632531 
1 1:-0.231053 2:0.716866 3:-0.230911 4:0.716866 5:0.231053 6:-0.716866 7:-0.410083 8:0.454954 9:-0.823416 10:-0.51565 11:-0.402684 12:0.880681 13:-0.409661 14:0.706652 15:-0.207796 16:-0.989361 17:0.271186 18:-1 19:0.173258 20:-0.953465 21:0.203734 22:-0.330396 23:0.424297 
1 1:-0.472107 2:0.772638 3:-0.472009 4:0.772638 5:0.472107 6:-0.772638 7:0.0319576 8:0.875774 9:-0.823402 10:0.041742 11:-0.402138 12:0.973815 13:-0.397331 14:-0.502318 15:-0.210202 16:0.525919 17:0.290796 18:-0.984924 19:0.190403 20:0.56232 21:0.217879 22:-0.449878 23:-0.0632531 
-1 1:0.153388 2:0.864943 3:0.152959 4:0.817865 5:-0.153388 6:-0.864943 7:-0.884934 8:0.909895 9:-0.809953 10:0.996062 11:-0.395676 12:1 13:-0.273465 14:0.977478 15:-0.17772 16:-0.929831 17:0.253402 18:-1 19:0.180805 20:-1 21:0.0433982 22:-0.469804 23:-0.344711 
-1 1:-0.229871 2:0.652703 3:-0.229729 4:0.652703 5:0.229871 6:-0.652703 7:-0.412251 8:-1 9:-0.825485 10:-0.531027 11:-0.40271 12:0.922207 13:-0.115007 14:0.942864 15:-0.0128998 16:-0.614655 17:-0.0594098 18:-1 19:-0.310416 20:-0.997564 21:0.0501324 22:-0.617139 23:-0.188432 
-0.9092126510934362 1:0.00498815 2:0.886191 3:0.00517386 4:0.886191 5:-0.00498823 6:-0.886191 7:-0.842932 8:1 9:-0.821017 10:1 11:-0.398403 12:1 13:-0.413173 14:-1 15:-0.209448 16:-0.9417 17:-0.0294413 18:-0.997541 19:0.0582388 20:-0.999751 21:0.128743 22:-0.840465 23:-0.0632531 
-1 1:-0.0337745 2:0.52836 3:-0.0335958 4:0.52836 5:0.0337745 6:-0.52836 7:-0.77185 8:1 9:-0.812554 10:-1 11:-0.402191 12:0.911357 13:-0.328257 14:1 15:-0.183513 16:-1 17:0.177294 18:-0.627119 19:0.157888 20:-0.649485 21:0.118253 22:-0.741959 23:-0.0632531 
-1 1:-0.00537357 2:0.881188 3:-0.00586151 4:0.855494 5:0.00537356 6:-0.881188 7:-0.823931 8:-0.37528 9:-0.824032 10:1 11:-0.395612 12:0.907762 13:-0.407531 14:0.00699448 15:-0.209361 16:-0.97121 17:0.256732 18:0.377578 19:0.193629 20:-0.915104 21:0.214264 22:-0.502858 23:-0.0632531 
-1 1:0.0780578 2:0.53345 3:0.0782571 4:0.53345 5:-0.0780578 6:-0.53345 7:-0.976926 8:0.784173 9:-0.815473 10:-0.387755 11:-0.417639 12:0.149492 13:-0.399445 14:-1 15:-0.349829 16:-0.927641 17:0.152291 18:-0.238494 19:0.178682 20:-0.303754 21:0.205418 22:-0.699619 23:-0.0632531 
-1 1:-0.085083 2:0.803705 3:-0.0864272 4:0.775201 5:0.0850831 6:-0.803705 7:-0.677761 8:1 9:-0.82374 10:-0.48134 11:-0.40503 12:0.356594 13:-0.374107 14:-0.882419 15:-0.301936 16:-0.547432 17:0.0712362 18:-0.0220246 19:0.190936 20:0.906275 21:0.220828 22:-0.587056 23:-0.408774 
-1 1:-0.0236976 2:0.752031 3:-0.0238529 4:0.73252 5:0.0236976 6:-0.752031 7:-0.790329 8:0.782326 9:-0.820108 10:-0.292881 11:-0.40571 12:0.976323 13:-0.238472 14:0.660114 15:-0.168139 16:-0.965555 17:0.267388 18:-0.442611 19:0.17919 20:0.160667 21:0.218524 22:-0.303291 23:-0.645235 
-1 1:0.0197718 2:0.767938 3:0.0199603 4:0.767938 5:-0.0197718 6:-0.767938 7:-0.870042 8:0.607312 9:-0.81809 10:0.567405 11:-0.400052 12:0.960324 13:-0.384508 14:0.865721 15:-0.195749 16:-1 17:0.238694 18:-0.907564 19:0.186359 20:0.918589 21:0.254532 22:0.099845 23:-0.452855 
-1 1:-0.403047 2:0.757659 3:-0.403584 4:0.710883 5:0.403047 6:-0.75766 7:-0.0946841 8:1 9:-0.823866 10:0.954239 11:-0.397411 12:0.769493 13:-0.407051 14:0.599646 15:-0.206965 16:-1 17:0.270754 18:0.924588 19:0.193075 20:-0.0342843 21:0.217489 22:-0.42378 23:-0.69769 
-1 1:-0.0867144 2:0.395144 3:-0.0865456 4:0.395144 5:0.0867143 6:-0.395144 7:-0.674769 8:1 9:-0.821072 10:1 11:-0.399359 12:0.999328 13:-0.204281 14:0.992732 15:-0.197819 16:-0.960199 17:0.240766 18:-0.993491 19:0.111337 20:0.784738 21:0.235846 22:0.306655 23:-0.360083 
-1 1:0.0523725 2:0.478585 3:0.0517859 4:0.451152 5:-0.0523725 6:-0.478585 7:-0.929825 8:1 9:-0.823849 10:-0.00025892 11:-0.402196 12:0.964959 13:-0.389871 14:-0.0909091 15:-0.209389 16:-0.91389 17:0.268671 18:-0.997382 19:0.165898 20:1 21:0.217611 22:-0.75917 23:-0.541129 
-1 1:0.258657 2:0.867918 3:0.258314 4:0.847871 5:-0.258657 6:-0.867918 7:-0.691893 8:0.885222 9:-0.802932 10:0.215716 11:-0.398374 12:0.999682 13:-0.352974 14:0.97779 15:-0.203124 16:-1 17:0.260109 18:-0.199233 19:0.190683 20:-0.981555 21:0.210049 22:-0.365063 23:-0.0632531 
-1 1:0.342084 2:0.590949 3:0.342332 4:0.590949 5:-0.342084 6:-0.590949 7:-0.538907 8:1 9:-0.823672 10:1 11:-0.400829 12:0.900663 13:-0.404841 14:1 15:-0.194006 16:-0.994144 17:0.250974 18:-0.925076 19:0.179531 20:-0.938791 21:0.214408 22:-0.312872 23:-0.0632531 
-1 1:-0.0344139 2:0.609006 3:-0.0342354 4:0.609006 5:0.0344139 6:-0.609006 7:-0.770677 8:0.342466 9:-0.822419 10:1 11:-0.343021 12:0.795565 13:-0.368433 14:1 15:-0.185619 16:-0.95828 17:0.167882 18:-1 19:0.169118 20:-0.796211 21:0.15032 22:-0.0213129 23:-0.0632531 
-1 1:-0.126653 2:0.798213 3:-0.128532 4:0.76474 5:0.126653 6:-0.798213 7:-0.60153 8:0.226016 9:-0.817603 10:-0.798561 11:-0.425702 12:-0.089934 13:-0.464511 14:-0.372917 15:-0.242824 16:-0.785819 17:0.0187224 18:-0.787583 19:-0.0254431 20:0.529881 21:0.249344 22:-0.881634 23:-0.0632531 
-0.02052404560933848 1:0.375048 2:0.942112 3:0.375302 4:0.942112 5:-0.375048 6:-0.942112 7:-0.478458 8:0.929369 9:-0.808008 10:0.893641 11:-0.384385 12:0.953351 13:-0.346808 14:0.777578 15:-0.190904 16:-0.987618 17:0.0772213 18:-0.839594 19:0.162965 20:-0.940857 21:0.203114 22:-0.325972 23:-0.0632531 
-1 1:0.648348 2:0.822776 3:0.645804 4:0.770279 5:-0.648348 6:-0.822776 7:0.0227154 8:-1 9:-0.824471 10:-1 11:-0.40279 12:-0.291834 13:-0.413771 14:0.322316 15:-0.209101 16:0.0244751 17:0.2906 18:-0.257695 19:0.192285 20:0.98378 21:0.219241 22:-0.608739 23:-0.0632531 
-1 1:-0.108019 2:0.835209 3:-0.107854 4:0.835209 5:0.108019 6:-0.83521 7:-0.635701 8:0.988792 9:-0.815144 10:0.997823 11:-0.333819 12:0.239429 13:-0.380854 14:0.392573 15:-0.164401 16:-0.608519 17:0.274312 18:-0.687312 19:0.190433 20:0.586141 21:0.219758 22:-0.110262 23:-0.0632531 
-1 1:-0.551248 2:0.87173 3:-0.552142 4:0.826963 5:0.551248 6:-0.87173 7:0.177086 8:0.993059 9:-0.797783 10:0.988618 11:-0.397822 12:0.995299 13:-0.355542 14:0.991062 15:-0.185584 16:-0.688027 17:0.268461 18:-0.981231 19:0.189402 20:-0.625931 21:0.217482 22:-0.269898 23:-1 
-1 1:0.0193923 2:0.490412 3:0.0195807 4:0.490412 5:-0.0193923 6:-0.490412 7:-0.869346 8:0.859425 9:-0.817704 10:1 11:-0.400899 12:0.629893 13:-0.390289 14:0.953846 15:-0.194636 16:-0.979548 17:0.0504075 18:-0.830585 19:0.0197857 20:0.723785 21:0.223263 22:0.127673 23:-0.0632531 
-1 1:0.0855421 2:0.83905 3:0.0824222 4:0.766079 5:-0.0855421 6:-0.83905 7:-0.990651 8:0.942696 9:-0.788742 10:1 11:-0.317722 12:0.744387 13:-0.352152 14:1 15:-0.173751 16:-0.90917 17:-0.00871449 18:-0.981575 19:-0.140839 20:-1 21:-0.106647 22:-0.556389 23:-0.0632531 
-1 1:0.0552481 2:0.900251 3:0.0548969 4:0.81198 5:-0.0552481 6:-0.900251 7:-0.935098 8:0.998928 9:-0.72895 10:0.922501 11:-0.385457 12:0.999896 13:0.0061359 14:0.99302 15:-0.110662 16:-0.944823 17:0.236488 18:-1 19:0.181487 20:-1 21:0.217526 22:-0.78978 23:-0.661682 
-1 1:0.0462187 2:0.79664 3:0.0464121 4:0.79664 5:-0.0462187 6:-0.79664 7:-0.91854 8:0.885498 9:-0.800006 10:0.725025 11:-0.368631 12:0.973132 13:-0.195143 14:0.833977 15:-0.104642 16:-0.999457 17:-0.112182 18:-0.989849 19:-0.0804385 20:-0.991786 21:0.144259 22:-0.229752 23:-0.0632531 
-1 1:0.342533 2:0.832209 3:0.340995 4:0.718192 5:-0.342532 6:-0.832209 7:-0.538084 8:1 9:-0.823105 10:-0.273597 11:-0.403707 12:0.3105 13:-0.401382 14:0.0589086 15:-0.208795 16:-0.993637 17:0.139746 18:-1 19:0.186969 20:1 21:0.217608 22:-0.696378 23:-0.0632531 
-1 1:-0.0888127 2:0.603587 3:-0.0886443 4:0.603587 5:0.0888126 6:-0.603588 7:-0.670922 8:0.572243 9:-0.774784 10:0.5 11:-0.397619 12:0.601307 13:-0.335356 14:1 15:-0.0733615 16:-0.599815 17:-0.151237 18:-0.813187 19:0.15469 20:-0.975051 21:-0.26461 22:-0.868273 23:-0.0632531 
-1 1:0.313109 2:0.854875 3:0.311792 4:0.810917 5:-0.313109 6:-0.854875 7:-0.592041 8:-0.815789 9:-0.825142 10:-0.454545 11:-0.402685 12:1 13:-0.402861 14:-0.118049 15:-0.209987 16:-0.959718 17:0.275681 18:-0.23356 19:0.190884 20:0.911877 21:0.218567 22:-0.55481 23:-0.0632531 
-1 1:0.033984 2:0.730673 3:0.0341752 4:0.730673 5:-0.033984 6:-0.730673 7:-0.896104 8:1 9:-0.395802 10:1 11:-0.0811909 12:0.995344 13:0.428458 14:0.989116 15:0.0627502 16:-0.991659 17:-0.0504616 18:-0.99805 19:-0.0977683 20:-1 21:-0.514037 22:-0.0957368 23:-0.0632531 
-1 1:-0.361138 2:0.917507 3:-0.361622 4:0.862642 5:0.361138 6:-0.917508 7:-0.171535 8:0.981529 9:-0.819808 10:0.529376 11:-0.401356 12:0.93581 13:-0.408929 14:0.817766 15:-0.209052 16:-0.994106 17:0.253021 18:-0.941933 19:0.180326 20:0.982615 21:0.218816 22:-0.630748 23:-0.797713 
-1 1:0.135156 2:0.784085 3:0.135366 4:0.784085 5:-0.135156 6:-0.784085 7:-0.918368 8:0.336424 9:-0.821525 10:0.199394 11:-0.401443 12:0.999935 13:-0.280398 14:-0.757128 15:-0.209719 16:-0.982419 17:0.276259 18:-0.999396 19:0.163582 20:0.0787265 21:0.217554 22:-0.539808 23:-0.0632531 
-1 1:-0.10388 2:0.851212 3:-0.10594 4:0.783646 5:0.10388 6:-0.851212 7:-0.643291 8:0.998237 9:-0.801309 10:-0.895803 11:-0.420002 12:0.552857 13:-0.412898 14:0.315766 15:-0.209339 16:-0.987181 17:0.222402 18:-0.957838 19:0.148202 20:-0.686478 21:0.2164 22:-0.861619 23:-0.0632531 
-1 1:-0.00348877 2:0.800168 3:-0.00363322 4:0.746904 5:0.00348876 6:-0.800168 7:-0.827387 8:0.13687 9:-0.797967 10:-0.905165 11:-0.43382 12:0.185193 13:-0.211988 14:-0.0684615 15:-0.231554 16:-0.346309 17:-0.22145 18:-0.985785 19:-0.146139 20:-0.00896782 21:0.217199 22:-0.677666 23:-0.0632531 
-1 1:0.0712267 2:0.681844 3:0.0714247 4:0.681844 5:-0.0712266 6:-0.681844 7:-0.964399 8:0.999667 9:-0.314068 10:0.999166 11:-0.217965 12:0.999816 13:-0.353627 14:0.999017 15:-0.18525 16:-0.993618 17:0.26337 18:-1 19:0.192416 20:0.872518 21:0.220366 22:-0.33261 23:-0.0632531 
-1 1:0.147248 2:0.869097 3:0.146243 4:0.797557 5:-0.147248 6:-0.869097 7:-0.896194 8:-0.972856 9:-0.829263 10:0.90389 11:-0.400813 12:0.562395 13:-0.410629 14:0.426222 15:-0.191814 16:-1 17:0.275088 18:0.383562 19:0.19275 20:0.855339 21:0.22144 22:-0.911164 23:-0.0632531 
-1 1:0.381945 2:0.296777 3:0.382201 4:0.296777 5:-0.381945 6:-0.296776 7:-0.46581 8:1 9:-0.823856 10:0.97304 11:-0.392751 12:0.915577 13:-0.388546 14:0.964644 15:-0.154441 16:-0.470963 17:0.281571 18:-0.956612 19:0.171068 20:-0.800439 21:0.210296 22:0.294887 23:-0.0632531 
-1 1:-0.0178604 2:0.769639 3:-0.0180861 4:0.725144 5:0.0178604 6:-0.769639 7:-0.801033 8:-0.163941 9:-0.82426 10:0.97235 11:-0.382032 12:0.981337 13:-0.309288 14:-1 15:-0.209367 16:-0.808771 17:0.267596 18:-0.427496 19:0.192014 20:0.384354 21:0.217746 22:-0.366491 23:-0.0632531 
-1 1:0.167215 2:0.835209 3:0.167431 4:0.835209 5:-0.167215 6:-0.83521 7:-0.859579 8:0.149024 9:-0.823013 10:0.0966996 11:-0.401668 12:0.944595 13:-0.381536 14:0.955372 15:-0.19679 16:-0.90311 17:0.231706 18:0.162234 19:0.192583 20:-0.916235 21:0.193319 22:-0.12 23:-0.202858 
-1 1:-0.275409 2:0.618012 3:-0.275275 4:0.618012 5:0.275409 6:-0.618012 7:-0.328745 8:1 9:-0.820519 10:0.991694 11:-0.398747 12:0.858996 13:-0.401208 14:0.613702 15:-0.206214 16:-0.813039 17:0.269345 18:-0.71684 19:0.167234 20:-0.551912 21:0.214211 22:0.0868445 23:-0.691359 
-1 1:-0.209506 2:0.847363 3:-0.209572 4:0.824271 5:0.209506 6:-0.847363 7:-0.449595 8:-0.224368 9:-0.823901 10:-1 11:-0.407708 12:1 13:-0.376183 14:0.823611 15:-0.17924 16:0.0400426 17:0.296546 18:0.975716 19:0.25026 20:-0.103527 21:0.206033 22:-0.393136 23:-0.0632531 
-1 1:-0.012066 2:0.577073 3:-0.0118834 4:0.577073 5:0.012066 6:-0.577073 7:-0.811658 8:1 9:-0.818731 10:0.710532 11:-0.397432 12:0.950979 13:-0.0907803 14:0.956142 15:0.100392 16:-0.986929 17:-0.352961 18:-1 19:-0.246803 20:-0.403321 21:0.212539 22:-0.21481 23:-0.0632531 
-1 1:0.326064 2:0.254149 3:0.326309 4:0.254149 5:-0.326064 6:-0.254149 7:-0.568283 8:1 9:-0.80161 10:1 11:-0.390607 12:1 13:-0.291889 14:1 15:-0.180519 16:-0.99189 17:0.115624 18:-0.977232 19:0.104935 20:-0.199186 21:0.209227 22:0.385579 23:-0.0632531 
-1 1:-0.193829 2:0.807777 3:-0.19368 4:0.807777 5:0.193829 6:-0.807777 7:-0.478345 8:0.768621 9:-0.819398 10:-1 11:-0.403507 12:0.81809 13:-0.408361 14:0.795341 15:-0.194895 16:-0.996252 17:0.0626062 18:-0.984568 19:-0.133564 20:0.951867 21:0.255737 22:-0.207421 23:-0.378022 
-1 1:-0.0240427 2:0.0162941 3:-0.0238623 4:0.0162941 5:0.0240427 6:-0.0162942 7:-0.789696 8:1 9:-0.702393 10:1 11:-0.392816 12:1 13:-0.411915 14:1 15:-0.206728 16:-0.963723 17:-0.399376 18:-0.967799 19:-0.358363 20:0.327333 21:0.38334 22:0.50718 23:-0.0632531 
-1 1:0.696306 2:0.58341 3:0.692496 4:0.535085 5:-0.696306 6:-0.583411 7:0.11066 8:0.0571429 9:-0.823902 10:0.723369 11:-0.399226 12:0.926226 13:-0.281108 14:0.885418 15:-0.189214 16:0.0577496 17:0.291174 18:-0.609756 19:0.191694 20:0.122807 21:0.217535 22:-0.636985 23:-0.0632531 
-0.9480320012272011 1:-0.000557745 2:0.857681 3:-0.000372991 4:0.857681 5:0.000557668 6:-0.857681 7:-0.832762 8:0.735403 9:-0.794027 10:-0.53456 11:-0.412047 12:0.990961 13:-0.113838 14:0.790546 15:-0.130677 16:-0.329547 17:0.288198 18:-0.939431 19:0.189682 20:-1 21:0.2155 22:-0.303118 23:-0.681514 
-0.3473251243236888 1:-0.98992 2:-1 3:-0.989918 4:-1 5:0.98992 6:1 7:0.981515 8:-1 9:-0.823908 10:-1 11:-0.402191 12:1 13:-0.411874 14:-1 15:-0.209367 16:-1 17:0.290276 18:-1 19:0.192488 20:-1 21:0.217526 22:-0.536444 23:-0.0632531 
-0.9064384811467762 1:0.351976 2:0.760153 3:0.351916 4:0.741632 5:-0.351976 6:-0.760153 7:-0.520767 8:1 9:-0.818395 10:0.750875 11:-0.400518 12:0.995159 13:-0.390436 14:0.971864 15:-0.205374 16:-0.920107 17:0.236348 18:-0.967476 19:0.174579 20:-0.999799 21:-0.271949 22:-0.34571 23:-0.0632531 
-1 1:0.218363 2:0.794326 3:0.218167 4:0.723709 5:-0.218363 6:-0.794326 7:-0.765784 8:0.549546 9:-0.802558 10:-0.200297 11:-0.40299 12:0.991949 13:-0.29318 14:0.960852 15:-0.184961 16:-0.991562 17:0.172543 18:-0.953716 19:0.152186 20:1 21:0.25274 22:-0.469927 23:-0.316876 
-1 1:-0.225408 2:0.612319 3:-0.225264 4:0.612319 5:0.225408 6:-0.612319 7:-0.420436 8:1 9:-0.816309 10:-1 11:-0.403732 12:0.90824 13:-0.2106 14:-0.0286512 15:-0.209512 16:-0.845293 17:0.245158 18:-0.603243 19:0.145275 20:0.497328 21:0.22435 22:-0.0144846 23:-0.0632531 
-1 1:-0.0398959 2:0.733317 3:-0.041024 4:0.714702 5:0.0398958 6:-0.733317 7:-0.760624 8:0.443038 9:-0.819607 10:-0.479365 11:-0.413021 12:0.99693 13:-0.292486 14:0.782504 15:-0.147659 16:-0.91201 17:0.159206 18:-0.91008 19:0.0718231 20:-0.913023 21:0.00437004 22:-0.382951 23:-0.200227 
-1 1:-1 2:-0.867574 3:-1 4:-0.867574 5:1 6:0.867574 7:1 8:-1 9:-0.823908 10:-1 11:-0.402191 12:1 13:-0.41298 14:-1 15:-0.209367 16:0.98134 17:0.298093 18:1 19:0.198779 20:1 21:0.221968 22:-0.114762 23:-0.0632531 
-1 1:-0.0223285 2:0.785115 3:-0.027151 4:0.705799 5:0.0223284 6:-0.785115 7:-0.792839 8:0.93758 9:-0.783243 10:0.166381 11:-0.399063 12:0.839782 13:-0.36917 14:0.756488 15:-0.164988 16:-0.898406 17:0.197269 18:-1 19:0.183237 20:-0.589237 21:0.191472 22:-0.471667 23:0.0141191 
-1 1:0.150399 2:0.736701 3:0.149616 4:0.71301 5:-0.150399 6:-0.736701 7:-0.890415 8:0.968425 9:-0.665504 10:0.968647 11:-0.170424 12:0.942418 13:-0.363409 14:0.915455 15:-0.117065 16:-0.969606 17:-0.334322 18:-0.908973 19:0.0319943 20:-0.548387 21:0.206564 22:-0.674281 23:-0.0632531 
-1 1:0.0954275 2:0.755655 3:0.09563 4:0.755655 5:-0.0954275 6:-0.755655 7:-0.991221 8:0.978941 9:-0.816184 10:0.293615 11:-0.397506 12:0.962041 13:-0.384628 14:0.994525 15:-0.207541 16:-0.86759 17:0.22537 18:-0.733511 19:0.158628 20:-0.765866 21:0.211447 22:-0.101168 23:-0.195762 
-1 1:-0.128208 2:0.894647 3:-0.128913 4:0.829494 5:0.128208 6:-0.894647 7:-0.598679 8:0.769483 9:-0.818848 10:-0.972411 11:-0.402871 12:0.967387 13:-0.357719 14:0.847833 15:-0.196591 16:-0.991484 17:0.0285746 18:-0.997772 19:0.0383957 20:0.904275 21:0.218387 22:-0.378058 23:-0.236408 
-1 1:-0.0363361 2:0.879589 3:-0.037044 4:0.830942 5:0.0363362 6:-0.87959 7:-0.767152 8:0.289119 9:-0.820824 10:-0.640816 11:-0.402698 12:0.947489 13:-0.39705 14:0.894577 15:-0.19262 16:-0.997303 17:-0.0284193 18:-0.755049 19:0.136666 20:-0.326687 21:0.211052 22:-0.259009 23:-0.0632531 
-1 1:0.094692 2:0.582589 3:0.0948944 4:0.582589 5:-0.0946921 6:-0.582589 7:-0.99257 8:1 9:-0.809069 10:1 11:-0.371011 12:0.933014 13:-0.263154 14:0.777778 15:-0.123765 16:-0.967655 17:0.14207 18:-0.78 19:0.120036 20:-0.692308 21:0.179961 22:0.178131 23:-0.0632531 
-1 1:0.129588 2:0.746904 3:0.129592 4:0.693641 5:-0.129588 6:-0.746904 7:-0.928578 8:0.944133 9:-0.809609 10:0.988536 11:-0.178479 12:0.988988 13:-0.0111928 14:0.927463 15:-0.105927 16:-0.936029 17:0.113488 18:-0.875022 19:0.0748007 20:-0.94452 21:0.212426 22:-0.689334 23:-0.0919843 
-1 1:0.0635339 2:0.8531 3:0.0569969 4:0.807777 5:-0.0635339 6:-0.8531 7:-0.950292 8:0.790927 9:-0.642983 10:0.81263 11:-0.308299 12:-0.267973 13:-0.423345 14:0.264667 15:-0.20219 16:-0.604766 17:0.236302 18:-0.966775 19:0.0477112 20:-1 21:0.183016 22:-0.508933 23:-0.0632531 
-1 1:-0.382994 2:0.814726 3:-0.38288 4:0.814726 5:0.382993 6:-0.814726 7:-0.131457 8:0.650417 9:-0.822263 10:0.881298 11:-0.401473 12:0.698895 13:-0.411846 14:0.717273 15:-0.206561 16:-0.920976 17:0.27478 18:-0.913992 19:0.18121 20:0.519407 21:0.21842 22:-0.424612 23:-0.0632531 
-1 1:-0.170153 2:0.620137 3:-0.17 4:0.620137 5:0.170153 6:-0.620138 7:-0.521761 8:0.870006 9:-0.818018 10:0.484056 11:-0.399677 12:0.720288 13:-0.409255 14:-0.344813 15:-0.210546 16:0.212459 17:0.290953 18:-0.061839 19:0.192153 20:-0.515394 21:0.216216 22:0.029868 23:-0.79278 
-1 1:-0.286641 2:0.708811 3:-0.286509 4:0.708811 5:0.286641 6:-0.708811 7:-0.308147 8:0.240422 9:-0.821538 10:0.73181 11:-0.391961 12:-0.929155 13:-0.416731 14:0.279665 15:-0.207323 16:-0.683158 17:0.268174 18:-0.995641 19:0.0734558 20:-0.818569 21:0.210497 22:-0.572549 23:0.175766 
-1 1:0.503506 2:0.794525 3:0.503269 4:0.732686 5:-0.503506 6:-0.794526 7:-0.242893 8:0.985274 9:-0.822114 10:0.405848 11:-0.402081 12:-0.960827 13:-0.413275 14:0.953794 15:-0.206365 16:-0.90302 17:0.287831 18:-1 19:0.19185 20:0.107061 21:0.217602 22:-0.770369 23:-0.0632531 
-1 1:-0.661394 2:0.780604 3:-0.661331 4:0.780604 5:0.661394 6:-0.780604 7:0.379069 8:0.723245 9:-0.823805 10:0.904463 11:-0.401785 12:1 13:-0.403157 14:0.963663 15:-0.20909 16:-0.979149 17:0.274565 18:-0.852209 19:0.176246 20:0.940363 21:0.218543 22:-0.0678971 23:0.570645 
-1 1:-0.446707 2:0.537198 3:-0.446605 4:0.537198 5:0.446708 6:-0.537198 7:-0.0146194 8:0.916334 9:-0.823086 10:0.358706 11:-0.402064 12:0.986049 13:-0.406812 14:0.671463 15:-0.208537 16:-0.998896 17:0.261824 18:-0.954256 19:0.152662 20:0.604809 21:0.218125 22:0.128106 23:-0.746096 
-1 1:0.0519501 2:0.758012 3:0.0521446 4:0.758012 5:-0.0519501 6:-0.758012 7:-0.92905 8:1 9:-0.822623 10:0.997103 11:-0.361349 12:0.0779024 13:-0.412796 14:0.614035 15:-0.207279 16:-0.952126 17:0.282809 18:-0.0932031 19:0.192258 20:-0.866836 21:0.214434 22:-0.230974 23:-0.0632531 
-1 1:0.517986 2:0.804832 3:0.518267 4:0.804832 5:-0.517986 6:-0.804832 7:-0.21634 8:0.951089 9:-0.814541 10:0.942482 11:-0.396756 12:0.929303 13:-0.385458 14:0.953605 15:-0.20378 16:-0.9796 17:0.20036 18:-0.843682 19:0.169585 20:-0.920765 21:0.209399 22:-0.404306 23:-0.0632531 
-0.3573081161357508 1:0.679311 2:0.483381 3:0.678243 4:0.432352 5:-0.679311 6:-0.483381 7:0.0794949 8:0.233645 9:-0.823889 10:0.931034 11:-0.402167 12:0.997575 13:-0.306732 14:0.627839 15:-0.208695 16:-0.99017 17:0.280732 18:-0.841754 19:0.190388 20:-0.923397 21:0.21337 22:-0.636754 23:-0.0632531 
-1 1:0.474366 2:0.727024 3:0.474639 4:0.727024 5:-0.474366 6:-0.727024 7:-0.296329 8:0.974026 9:-0.805736 10:0.755506 11:-0.387084 12:0.960438 13:-0.337978 14:-0.791045 15:-0.209933 16:-0.992962 17:-0.00886453 18:-0.177905 19:0.183085 20:-0.965841 21:0.214085 22:-0.765011 23:-0.0632531 
-1 1:0.61692 2:0.863956 3:0.617219 4:0.863956 5:-0.61692 6:-0.863956 7:-0.0349166 8:0.710145 9:-0.82381 10:1 11:-0.401015 12:0.952613 13:-0.406584 14:0.955437 15:-0.206636 16:-0.982253 17:0.150251 18:0.404378 19:0.196999 20:0.445954 21:0.217598 22:-0.437351 23:-0.0632531 
-1 1:0.0368548 2:0.018128 3:0.0370464 4:0.018128 5:-0.0368549 6:-0.0181281 7:-0.901369 8:1 9:-0.820096 10:1 11:-0.393283 12:1 13:-0.366482 14:1 15:-0.164141 16:-0.65652 17:0.266107 18:-0.918696 19:0.156205 20:-0.827835 21:0.207235 22:0.508216 23:-0.0632531 
-0.4116942610135136 1:0.279881 2:0.805048 3:0.279738 4:0.785946 5:-0.279881 6:-0.805048 7:-0.652974 8:0.825518 9:-0.767275 10:0.65194 11:-0.382155 12:0.384136 13:-0.401216 14:-0.494098 15:-0.212531 16:-0.887641 17:0.217726 18:-0.814091 19:0.152935 20:-0.15851 21:0.21384 22:-0.36499 23:-0.0632531 
-1 1:0.0273445 2:0.835209 3:0.0275344 4:0.835209 5:-0.0273444 6:-0.83521 7:-0.883929 8:0.938154 9:-0.81812 10:0.775796 11:-0.393122 12:0.860386 13:-0.365621 14:0.829981 15:-0.154479 16:-0.998607 17:0.170531 18:-1 19:0.151494 20:-0.997003 21:0.135819 22:-0.126156 23:-0.0632531 
-1 1:-0.277523 2:0.634966 3:-0.277389 4:0.634966 5:0.277522 6:-0.634966 7:-0.324868 8:0.888411 9:-0.799556 10:0.724761 11:-0.401218 12:0.9853 13:-0.400949 14:0.786581 15:-0.205439 16:-0.971709 17:0.275214 18:-0.94317 19:0.171021 20:-0.495763 21:0.216087 22:0.0870176 23:-0.131772 
-1 1:0.31084 2:0.912021 3:0.310528 4:0.843611 5:-0.31084 6:-0.912021 7:-0.596201 8:0.882796 9:-0.823558 10:0.97698 11:-0.398053 12:0.911214 13:-0.394062 14:0.91792 15:-0.1975 16:-0.963424 17:0.287422 18:-1 19:0.171708 20:0.701014 21:0.217614 22:-0.494263 23:-0.0632531 
-1 1:-0.919117 2:-0.929624 3:-0.919102 4:-0.929624 5:0.919117 6:0.929624 7:0.851678 8:-1 9:-0.823908 10:-1 11:-0.402191 12:1 13:-0.396738 14:-1 15:-0.209367 16:0.97561 17:0.355642 18:1 19:0.233301 20:1 21:0.233607 22:-0.0728064 23:-0.0632531 
-1 1:0.213109 2:0.777414 3:0.209993 4:0.706569 5:-0.213109 6:-0.777415 7:-0.775419 8:0.756532 9:-0.820469 10:-0.0334003 11:-0.402435 12:0.967249 13:-0.143469 14:0.906262 15:-0.19797 16:-0.998807 17:0.0840736 18:-0.981802 19:0.15625 20:-0.990668 21:-0.0407439 22:-0.837851 23:-0.319777 
-1 1:-0.146724 2:0.813633 3:-0.146933 4:0.752141 5:0.146724 6:-0.813633 7:-0.564725 8:-0.411255 9:-0.823954 10:-0.431116 11:-0.40222 12:0.995842 13:-0.234316 14:0.996485 15:-0.150104 16:-0.993632 17:0.288718 18:-0.854596 19:0.191739 20:0.719703 21:0.217784 22:-0.396565 23:-0.0632531 
-1 1:-0.295783 2:0.522403 3:-0.295653 4:0.522403 5:0.295783 6:-0.522403 7:-0.291383 8:0.76378 9:-0.822076 10:0.567251 11:-0.397914 12:0.923311 13:-0.388461 14:0.380952 15:-0.209055 16:-0.920177 17:0.164339 18:-0.936306 19:0.0230552 20:-0.996535 21:0.0647395 22:-0.0234873 23:-0.0632531 
-1 1:0.0584036 2:0.547167 3:0.0585992 4:0.547167 5:-0.0584036 6:-0.547167 7:-0.940885 8:0.948938 9:-0.758493 10:1 11:-0.40049 12:0.822275 13:-0.395917 14:0.327824 15:-0.207598 16:-0.956338 17:0.124544 18:-0.307847 19:0.189034 20:-0.125 21:0.217475 22:0.126217 23:-0.0632531 
-1 1:-0.556487 2:0.781716 3:-0.556405 4:0.781716 5:0.556487 6:-0.781716 7:0.186693 8:0.429736 9:-0.823521 10:0.883682 11:-0.400342 12:0.544856 13:-0.410607 14:0.0704514 15:-0.209201 16:-0.982438 17:0.273594 18:-0.471961 19:0.186299 20:-0.204325 21:0.215713 22:-0.58228 23:-0.914899 
-1 1:0.713066 2:0.861696 3:0.713187 4:0.836534 5:-0.713065 6:-0.861696 7:0.141394 8:0.493438 9:-0.823085 10:0.82376 11:-0.401542 12:0.31939 13:-0.412609 14:0.397795 15:-0.209211 16:-0.973828 17:0.288667 18:-1 19:0.191727 20:0.590842 21:0.218244 22:-0.712347 23:-0.0632531 
-1 1:-0.0937216 2:0.641526 3:-0.0935541 4:0.641526 5:0.0937216 6:-0.641526 7:-0.66192 8:0.598899 9:-0.800762 10:-0.671085 11:-0.40505 12:0.716961 13:-0.310011 14:-0.0319012 15:-0.21029 16:-1 17:0.238332 18:-1 19:0.136438 20:-0.989249 21:0.167325 22:-0.666973 23:-0.0632531 
-1 1:0.365165 2:0.359097 3:0.365417 4:0.359097 5:-0.365165 6:-0.359098 7:-0.496581 8:0.977762 9:-0.807266 10:1 11:-0.381422 12:0.742119 13:-0.410219 14:0.576283 15:-0.207372 16:-0.996755 17:0.255217 18:-0.971229 19:0.188201 20:0.277338 21:0.218902 22:0.266064 23:-0.0632531 
-1 1:0.259165 2:0.749864 3:0.254559 4:0.722837 5:-0.259165 6:-0.749864 7:-0.690962 8:-0.307815 9:-0.833329 10:1 11:-0.401564 12:0.994051 13:-0.244029 14:1 15:-0.201723 16:-0.99228 17:-0.426441 18:-1 19:0.188669 20:-0.692308 21:0.212892 22:-0.674236 23:-0.0632531 
-1 1:0.641037 2:0.376141 3:0.637402 4:0.319133 5:-0.641037 6:-0.376141 7:0.00930961 8:1 9:-0.823793 10:0.98895 11:-0.401883 12:0.970389 13:-0.354825 14:0.970241 15:-0.202621 16:-0.840984 17:0.2496 18:-0.448276 19:0.191767 20:-0.838235 21:0.216638 22:-0.636696 23:-0.0632531 
-1 1:-0.39915 2:0.329767 3:-0.399039 4:0.329767 5:0.39915 6:-0.329766 7:-0.10183 8:0.97283 9:-0.822909 10:1 11:-0.400963 12:0.99663 13:-0.381523 14:0.991763 15:-0.20029 16:0.934361 17:0.347993 18:-0.721017 19:0.174614 20:-0.99105 21:0.216918 22:0.299444 23:-0.0632531 
-1 1:0.00633151 2:0.879589 3:0.00651754 4:0.879589 5:-0.00633145 6:-0.87959 7:-0.845396 8:0.809524 9:-0.810094 10:0.453061 11:-0.396927 12:0.982011 13:-0.349961 14:0.560976 15:-0.205276 16:-0.991308 17:-0.180848 18:-0.626768 19:0.0924479 20:-0.739316 21:0.180458 22:-0.188782 23:-0.063689 
-1 1:0.281704 2:0.861696 3:0.275865 4:0.735884 5:-0.281705 6:-0.861696 7:-0.64963 8:-0.966548 9:-0.883004 10:-0.277031 11:-0.409766 12:-0.635979 13:-0.473714 14:0.591998 15:-0.142561 16:0.233749 17:0.293906 18:-0.0959157 19:0.191795 20:-0.954895 21:-1 22:-1 23:-0.0632531 
-0.1511414311021485 1:-0.240321 2:0.858627 3:-0.240181 4:0.858627 5:0.240321 6:-0.858628 7:-0.393087 8:0.784334 9:-0.820757 10:0.325235 11:-0.401721 12:0.93089 13:-0.376623 14:0.965426 15:-0.180344 16:-0.948306 17:0.246906 18:-0.978884 19:0.132794 20:-0.99653 21:-0.206467 22:-0.0830693 23:-0.370444 
-0.5004311581539996 1:-0.0605389 2:0.817429 3:-0.0622114 4:0.716081 5:0.0605389 6:-0.817429 7:-0.72277 8:-0.0442478 9:-0.823917 10:-0.0940555 11:-0.404756 12:-0.744706 13:-0.615789 14:-0.915004 15:-0.288785 16:-0.813664 17:0.135426 18:-0.812378 19:0.150974 20:0.994245 21:0.223209 22:-0.937407 23:-0.0632531 
-1 1:-0.533776 2:0.653092 3:-0.53369 4:0.653092 5:0.533776 6:-0.653092 7:0.145045 8:0.974003 9:-0.806577 10:-0.330966 11:-0.402547 12:0.986313 13:-0.290658 14:0.816032 15:-0.20553 16:-0.951008 17:0.245202 18:-0.523339 19:0.191183 20:0.367724 21:0.220256 22:-0.263425 23:-0.837749 
-0.6859808826851237 1:-0.232813 2:0.887697 3:-0.233846 4:0.83905 5:0.232813 6:-0.887697 7:-0.406856 8:0.796904 9:-0.823236 10:-0.87761 11:-0.404877 12:0.99683 13:-0.357176 14:-0.483146 15:-0.241495 16:-0.959888 17:0.211122 18:-0.985625 19:0.0853136 20:-0.99263 21:0.106287 22:-0.519176 23:-0.0632531 
-1 1:0.306641 2:0.664862 3:0.306882 4:0.664862 5:-0.306641 6:-0.664862 7:-0.603902 8:1 9:-0.823309 10:0.0503376 11:-0.402124 12:0.856849 13:-0.39858 14:0.898892 15:-0.196458 16:-1 17:0.278287 18:-1 19:0.14965 20:-0.468098 21:0.213663 22:-0.569228 23:-0.0632531 
-1 1:-0.160808 2:0.775201 3:-0.161609 4:0.752397 5:0.160808 6:-0.775201 7:-0.538898 8:0.00342238 9:-0.823901 10:0.0702281 11:-0.397649 12:0.887742 13:-0.332376 14:0.118779 15:-0.194083 16:-0.763914 17:0.167297 18:-0.939527 19:0.0694662 20:-0.991067 21:0.0535393 22:-0.415857 23:-0.0632531 
-1 1:0.106071 2:0.735884 3:0.101146 4:0.672979 5:-0.106071 6:-0.735884 7:-0.971703 8:-0.0763105 9:-0.824035 10:0.421857 11:-0.380452 12:1 13:-0.207691 14:0.959368 15:-0.0753366 16:-0.976237 17:0.0892575 18:-0.94274 19:0.0512007 20:-0.977612 21:0.127895 22:-0.2819 23:-0.0632531 
-1 1:0.21386 2:0.693947 3:0.214084 4:0.693947 5:-0.21386 6:-0.693947 7:-0.774042 8:0.515973 9:-0.821507 10:0.158231 11:-0.401364 12:0.918312 13:-0.376853 14:0.562752 15:-0.199306 16:-0.955794 17:0.0404244 18:-0.941021 19:0.0918136 20:-0.659956 21:0.21699 22:-0.868363 23:-0.0632531 
-1 1:0.0651686 2:0.812671 3:0.0653654 4:0.812671 5:-0.0651686 6:-0.812671 7:-0.95329 8:0.985904 9:-0.698878 10:0.935025 11:-0.343781 12:0.873191 13:-0.227068 14:0.0992506 15:-0.202353 16:-0.964597 17:0.21277 18:-0.12834 19:0.191035 20:-0.979699 21:0.187554 22:-0.0858848 23:-0.0632531 
-1 1:0.269199 2:0.841404 3:0.269106 4:0.753133 5:-0.269199 6:-0.841404 7:-0.672562 8:0.974028 9:-0.820404 10:0.784946 11:-0.40114 12:0.992415 13:-0.384281 14:-0.484752 15:-0.209542 16:-0.991495 17:0.27579 18:-0.999537 19:0.17478 20:0.581229 21:0.217803 22:-0.789245 23:-0.0632531 
-1 1:-0.323326 2:0.897988 3:-0.324246 4:0.827824 5:0.323326 6:-0.897988 7:-0.240875 8:-0.152944 9:-0.823951 10:0.912276 11:-0.401247 12:0.954302 13:-0.409486 14:0.350817 15:-0.209338 16:-0.9624 17:0.288568 18:-0.822504 19:0.192045 20:0.0529275 21:0.217534 22:-0.533007 23:-0.0632531 
-1 1:0.241414 2:0.855494 3:0.240733 4:0.752718 5:-0.241414 6:-0.855494 7:-0.723514 8:-1 9:-0.823908 10:-0.9207 11:-0.402694 12:0.850181 13:-0.393426 14:0.981003 15:-0.202785 16:-0.897406 17:0.267298 18:0.966648 19:0.210524 20:-1 21:0.217526 22:-0.601006 23:-0.0632531 
-1 1:0.377947 2:0.371222 3:0.378202 4:0.371222 5:-0.377947 6:-0.371222 7:-0.473141 8:1 9:-0.809623 10:1 11:-0.395751 12:0.983827 13:-0.288896 14:1 15:-0.180748 16:-0.984733 17:0.219705 18:-0.333333 19:0.190021 20:-0.501831 21:0.193799 22:0.294949 23:-0.0632531 
-0.8410738584030928 1:0.468711 2:0.375066 3:0.468982 4:0.375066 5:-0.468711 6:-0.375066 7:-0.3067 8:1 9:-0.821851 10:-0.050505 11:-0.402225 12:-0.109299 13:-0.41424 14:0.459854 15:-0.208987 16:-0.719298 17:0.289546 18:-0.868647 19:0.172172 20:0.522843 21:0.218584 22:0.0494153 23:-0.0632531 
-1 1:-0.438328 2:0.652703 3:-0.438225 4:0.652703 5:0.438328 6:-0.652703 7:-0.029985 8:1 9:-0.823513 10:-0.372634 11:-0.402443 12:0.993308 13:-0.360648 14:0.482745 15:-0.209084 16:-0.60106 17:0.289627 18:-0.140836 19:0.19217 20:-0.461578 21:0.216949 22:-0.309265 23:-0.920594 
-1 1:-0.297602 2:0.912021 3:-0.297971 4:0.826173 5:0.297602 6:-0.912021 7:-0.288048 8:0.987341 9:-0.583361 10:0.963 11:-0.361736 12:0.770474 13:-0.388493 14:0.68266 15:-0.198635 16:-0.996345 17:0.168891 18:-0.634396 19:0.167586 20:-0.969169 21:0.205248 22:-0.427928 23:-0.706329 
-1 1:-0.0275995 2:0.312763 3:-0.0274198 4:0.312763 5:0.0275995 6:-0.312763 7:-0.783173 8:1 9:-0.818125 10:0.879781 11:-0.382609 12:0.998868 13:-0.373507 14:0.550562 15:-0.206737 16:-0.941832 17:0.235299 18:-0.788144 19:0.12637 20:0.625 21:0.2189 22:-0.296457 23:-0.0632531 
-1 1:0.0728748 2:0.688705 3:0.073073 4:0.688705 5:-0.0728748 6:-0.688705 7:-0.967422 8:0.972503 9:-0.811783 10:-0.823529 11:-0.402425 12:-0.255474 13:-0.413729 14:0.808763 15:-0.19968 16:-0.992517 17:0.279107 18:-0.720613 19:0.190912 20:-0.249428 21:0.21707 22:-0.0363074 23:0.455066 
-1 1:-0.0641361 2:0.781048 3:-0.0639631 4:0.781048 5:0.0641361 6:-0.781048 7:-0.716173 8:-0.926594 9:-0.827831 10:0.0238465 11:-0.40202 12:0.845508 13:-0.288778 14:0.611825 15:-0.172847 16:-0.47166 17:0.23767 18:-0.538906 19:0.173928 20:-1 21:0.20239 22:-0.0137481 23:-0.0632531 
-1 1:0.367861 2:0.875273 3:0.368114 4:0.875273 5:-0.367861 6:-0.875273 7:-0.491637 8:0.517816 9:-0.822899 10:-0.885977 11:-0.408103 12:0.999348 13:-0.39164 14:0.815635 15:-0.20753 16:-1 17:0.219743 18:-0.574671 19:0.190677 20:-0.411333 21:0.217329 22:-0.597081 23:-0.0632531 
-1 1:-0.0848077 2:0.718679 3:-0.0846386 4:0.718679 5:0.0848076 6:-0.718679 7:-0.678266 8:1 9:0.729065 10:0.819417 11:-0.401671 12:0.844973 13:-0.41233 14:0.959073 15:-0.200754 16:-1 17:0.290173 18:-1 19:0.192235 20:1 21:0.220755 22:-0.70531 23:-0.0632531 
-1 1:0.452558 2:0.884995 3:0.451583 4:0.803916 5:-0.452558 6:-0.884995 7:-0.336321 8:0.247717 9:-0.822655 10:0.373297 11:-0.400187 12:0.664069 13:-0.40934 14:0.449313 15:-0.208031 16:-1 17:0.270082 18:-0.271328 19:0.188877 20:0.447938 21:0.221133 22:-0.696443 23:-0.0632531 
-0.9891994540451646 1:0.878711 2:0.826799 3:0.878053 4:0.746904 5:-0.878711 6:-0.8268 7:0.445152 8:0.600688 9:-0.823813 10:0.0527023 11:-0.40219 12:0.80072 13:-0.412321 14:0.875692 15:-0.209252 16:-0.295667 17:0.286642 18:-0.892248 19:0.190151 20:-0.825476 21:0.217112 22:-0.666952 23:-0.0632531 
-1 1:-0.131505 2:0.288937 3:-0.131345 4:0.288937 5:0.131505 6:-0.288936 7:-0.592632 8:1 9:-0.79884 10:0.992843 11:-0.34782 12:0.996525 13:-0.362013 14:0.955728 15:-0.201709 16:-1 17:0.203913 18:-0.720892 19:0.183667 20:-0.145455 21:0.217163 22:0.265733 23:-0.508746 
-1 1:0.187559 2:0.886191 3:0.184302 4:0.805471 5:-0.187559 6:-0.886191 7:-0.822272 8:-0.234824 9:-0.8318 10:-0.0192313 11:-0.402769 12:0.0850332 13:-0.411078 14:0.28921 15:-0.203213 16:0.553724 17:0.385322 18:0.00305998 19:0.192704 20:-0.996758 21:-0.632059 22:-0.138765 23:-0.0632531 
-1 1:0.173072 2:0.777601 3:0.173288 4:0.777601 5:-0.173072 6:-0.777601 7:-0.848839 8:0.826087 9:-0.813724 10:1 11:-0.357769 12:0.888502 13:-0.295086 14:1 15:-0.153602 16:-1 17:0.0324854 18:-0.716129 19:0.0993861 20:-0.45098 21:0.20669 22:0.177911 23:-0.0632531 
-1 1:0.176732 2:0.796384 3:0.176657 4:0.776447 5:-0.176732 6:-0.796384 7:-0.842127 8:0.977011 9:-0.657994 10:0.981818 11:0.0471881 12:0.613188 13:-0.321404 14:0.2688 15:-0.191853 16:-1 17:0.0929446 18:-0.998646 19:0.0602873 20:-0.704811 21:0.159738 22:-0.350252 23:-0.0632531 
-1 1:0.58645 2:0.82128 3:0.586493 4:0.783471 5:-0.58645 6:-0.82128 7:-0.0907926 8:1 9:-0.808325 10:0.944571 11:-0.371069 12:0.684063 13:-0.396912 14:0.885453 15:-0.193172 16:-0.718137 17:0.25961 18:-0.158898 19:0.190456 20:0.339703 21:0.219271 22:-0.205989 23:-0.0632531 
-1 1:0.62724 2:0.791053 3:0.626737 4:0.752031 5:-0.62724 6:-0.791053 7:-0.0159923 8:0.40898 9:-0.823603 10:0.835046 11:-0.382693 12:0.904791 13:-0.40702 14:0.836845 15:-0.207687 16:-0.791806 17:0.283239 18:-0.132346 19:0.192312 20:-0.818653 21:0.216848 22:-0.419349 23:-0.0632531 
-1 1:-0.434857 2:0.804832 3:-0.434753 4:0.804832 5:0.434857 6:-0.804832 7:-0.0363498 8:0.885103 9:-0.82166 10:0.531992 11:-0.401279 12:0.910059 13:-0.400526 14:0.909134 15:-0.201394 16:-0.592385 17:0.278836 18:-0.627505 19:0.185883 20:-0.638811 21:0.214886 22:-0.358917 23:-0.776836 
-1 1:0.108886 2:0.946226 3:0.108605 4:0.860713 5:-0.108886 6:-0.946226 7:-0.966541 8:-0.783151 9:-0.830185 10:-0.638918 11:-0.403942 12:0.73989 13:-0.383866 14:0.717483 15:-0.192053 16:-0.995379 17:0.178553 18:-0.99175 19:0.142419 20:0.7409 21:0.223893 22:-0.709939 23:-0.0632531 
-0.9409472333492426 1:0.232942 2:0.813206 3:0.232788 4:0.794203 5:-0.232942 6:-0.813206 7:-0.739049 8:0.946444 9:-0.822963 10:1 11:-0.340441 12:0.87505 13:-0.377963 14:0.674252 15:-0.208335 16:-0.965814 17:0.0602979 18:-0.993555 19:0.117857 20:-0.817141 21:0.216226 22:-0.178362 23:-0.0632531 
-1 1:-0.266014 2:0.802172 3:-0.266261 4:0.684477 5:0.266014 6:-0.802172 7:-0.345973 8:0.339928 9:-0.770165 10:-0.905991 11:-0.414525 12:0.433412 13:-0.341727 14:-0.76482 15:-0.217774 16:-0.26747 17:0.215641 18:-0.996655 19:0.177917 20:0.496289 21:0.297168 22:-0.93215 23:-0.0632531 
-1 1:-0.297395 2:0.822057 3:-0.298088 4:0.797067 5:0.297395 6:-0.822057 7:-0.288426 8:-0.703012 9:-0.877516 10:-0.623832 11:-0.435427 12:0.716817 13:-0.0661462 14:0.703454 15:-0.110821 16:0.708766 17:0.343498 18:-0.860971 19:0.150806 20:-0.999175 21:-0.313029 22:-0.511407 23:-0.0632531 
-1 1:-0.121629 2:0.824456 3:-0.121467 4:0.824456 5:0.12163 6:-0.824456 7:-0.610743 8:0.194964 9:-0.821282 10:0.987906 11:-0.338792 12:0.925433 13:-0.10628 14:0.642163 15:-0.153755 16:-0.895073 17:0.142365 18:0.00328768 19:0.192496 20:-0.819913 21:-0.0492687 22:-0.6288 23:-0.375604 
-0.7962775312281117 1:0.261626 2:0.857417 3:0.261211 4:0.832597 5:-0.261626 6:-0.857417 7:-0.68645 8:-0.722041 9:-0.828794 10:0.499267 11:-0.399149 12:0.919395 13:-0.409012 14:0.981404 15:0.0671003 16:-0.344997 17:-0.247673 18:-0.524203 19:-0.275102 20:-1 21:0.0559075 22:-0.426953 23:-0.0632531 
-1 1:-0.176905 2:0.105501 3:-0.176752 4:0.105501 5:0.176904 6:-0.105501 7:-0.50938 8:1 9:-0.767196 10:1 11:-0.371838 12:1 13:-0.290631 14:1 15:-0.166767 16:-0.60237 17:0.236005 18:-0.578695 19:0.156663 20:-0.904036 21:0.097972 22:0.509861 23:-0.0632531 
-1 1:-0.977259 2:0.640378 3:-0.977255 4:0.640378 5:0.977259 6:-0.640378 7:0.958298 8:0.993924 9:-0.823038 10:1 11:-0.402052 12:0.981684 13:-0.411577 14:0.980987 15:-0.209289 16:-0.244231 17:0.290266 18:-1 19:0.191084 20:0.999959 21:1 22:-0.471949 23:-0.0632531 
-1 1:-0.0279924 2:0.655637 3:-0.0285908 4:0.635915 5:0.0279923 6:-0.655637 7:-0.782453 8:0.702624 9:-0.821827 10:0.709459 11:-0.400074 12:0.993758 13:-0.370443 14:0.69662 15:-0.205608 16:-0.978292 17:-0.241537 18:-0.976013 19:0.0352147 20:-0.746725 21:0.213632 22:-0.359522 23:-0.0632531 
-1 1:-0.000776896 2:0.34447 3:-0.000592183 4:0.34447 5:0.000777016 6:-0.34447 7:-0.83236 8:0.973593 9:-0.823447 10:1 11:-0.394724 12:0.997378 13:-0.371369 14:1 15:-0.17595 16:-0.691095 17:0.27506 18:0.611193 19:0.193724 20:-0.803678 21:0.199201 22:0.314628 23:-0.592274 
-1 1:0.125949 2:0.718192 3:0.12303 4:0.689688 5:-0.125949 6:-0.718192 7:-0.935252 8:-0.110605 9:-0.824609 10:0.498955 11:-0.396616 12:-0.482728 13:-0.443084 14:0.933535 15:-0.185436 16:-0.951793 17:0.174703 18:-0.903254 19:0.151946 20:-0.62203 21:0.199187 22:-0.552538 23:-0.0632531 
-1 1:0.0700696 2:0.504742 3:0.0702675 4:0.504742 5:-0.0700697 6:-0.504742 7:-0.962278 8:1 9:-0.790355 10:1 11:-0.392373 12:0.828283 13:-0.400422 14:1 15:-0.185462 16:-0.982449 17:0.0131345 18:-0.989503 19:-0.0206808 20:-0.552782 21:0.196429 22:0.126078 23:-0.0632531 
-1 1:0.0852691 2:0.616948 3:0.0854697 4:0.616948 5:-0.0852692 6:-0.616948 7:-0.99015 8:0.676902 9:-0.823441 10:0.744851 11:-0.396701 12:0.991963 13:-0.37864 14:0.905337 15:-0.198768 16:-0.996765 17:0.161128 18:-0.985585 19:0.149218 20:-0.924563 21:0.209675 22:-0.101227 23:-0.0632531 
-1 1:0.446439 2:0.504742 3:0.446706 4:0.504742 5:-0.446439 6:-0.504742 7:-0.347542 8:0.994143 9:-0.819983 10:1 11:-0.401827 12:0.995507 13:-0.192002 14:0.989292 15:-0.10923 16:-0.938863 17:0.230642 18:-0.975636 19:0.118727 20:-0.207251 21:0.214127 22:0.189972 23:-0.0632531 
-1 1:0.661109 2:0.875535 3:0.660975 4:0.83905 5:-0.661109 6:-0.875536 7:0.046117 8:-0.139148 9:-0.824391 10:-0.0240497 11:-0.402233 12:0.969953 13:-0.362246 14:0.805675 15:-0.206018 16:-0.950235 17:0.202486 18:-0.657143 19:0.191031 20:0.738729 21:0.22094 22:-0.348807 23:-0.0632531 
-1 1:0.00808634 2:0.837992 3:0.00671262 4:0.785115 5:-0.00808628 6:-0.837993 7:-0.848613 8:0.729338 9:-0.814357 10:0.307672 11:-0.401016 12:0.918671 13:-0.351137 14:0.080597 15:-0.209343 16:-0.827623 17:0.261981 18:-0.820619 19:0.148952 20:-0.77224 21:0.209775 22:-0.278504 23:-0.0632531 
-1 1:-0.116108 2:0.664517 3:-0.115944 4:0.664517 5:0.116108 6:-0.664518 7:-0.620868 8:0.905396 9:-0.818193 10:1 11:-0.402109 12:0.770438 13:-0.40849 14:-0.176046 15:-0.209406 16:-0.996834 17:0.0609481 18:-0.982965 19:-0.0160832 20:-0.99919 21:0.0859699 22:-0.207543 23:0.547938 
-1 1:0.281982 2:0.598315 3:0.282219 4:0.598315 5:-0.281982 6:-0.598314 7:-0.64912 8:1 9:-0.823004 10:-1 11:-0.40293 12:0.602564 13:-0.383852 14:-0.609375 15:-0.22389 16:-0.582609 17:0.239917 18:-0.940828 19:0.147513 20:-0.307692 21:0.216255 22:-0.613927 23:-0.0632531 
-1 1:0.18694 2:0.647717 3:0.180025 4:0.618988 5:-0.18694 6:-0.647717 7:-0.823407 8:1 9:-0.77409 10:-0.411043 11:-0.431933 12:0.137534 13:-0.367124 14:0.509269 15:-0.117898 16:0.0853549 17:0.303134 18:-0.818499 19:0.0529374 20:-0.960159 21:0.177248 22:-0.753842 23:-0.0632531 
-1 1:-0.023637 2:0.787574 3:-0.0234566 4:0.787574 5:0.023637 6:-0.787575 7:-0.79044 8:0.512479 9:-0.80905 10:0.450269 11:-0.396266 12:0.965669 13:-0.241235 14:0.374418 15:-0.197423 16:-0.999046 17:-0.298634 18:-0.964298 19:-0.0910548 20:-0.994376 21:-0.239514 22:-0.667281 23:-0.0632531 
-1 1:0.221918 2:0.919467 3:0.22068 4:0.882237 5:-0.221918 6:-0.919467 7:-0.759266 8:0.993083 9:-0.780626 10:0.96873 11:-0.318146 12:0.933471 13:-0.407664 14:0.851567 15:-0.190869 16:-0.984477 17:-0.0652056 18:-1 19:0.159315 20:-0.64597 21:0.199063 22:-0.371971 23:-0.0632531 
-1 1:-0.040382 2:0.906882 3:-0.0428088 4:0.881188 5:0.040382 6:-0.906882 7:-0.759733 8:1 9:-0.79969 10:0.557428 11:-0.37568 12:0.879031 13:-0.360098 14:-0.201698 15:-0.210911 16:-0.971737 17:0.0864258 18:-1 19:-0.152495 20:-0.55247 21:0.177363 22:-0.232054 23:-0.0632531 
-1 1:-0.0207953 2:0.870323 3:-0.0213622 4:0.828626 5:0.0207954 6:-0.870323 7:-0.795651 8:-0.132254 9:-0.824032 10:0.709544 11:-0.401474 12:0.752628 13:-0.407249 14:-0.963434 15:-0.21033 16:-0.0318351 17:0.290262 18:1 19:0.193116 20:-1 21:0.207366 22:-0.388177 23:-0.665424 
-0.1597538653661974 1:0.00473722 2:0.89531 3:0.00426237 4:0.811756 5:-0.00473724 6:-0.89531 7:-0.842472 8:-0.721188 9:-0.849335 10:-0.976985 11:-0.42231 12:0.677469 13:-0.351941 14:0.675752 15:-0.163691 16:-1 17:0.245742 18:-0.312889 19:0.186495 20:-0.924925 21:0.0795114 22:-0.69623 23:-0.0632531 
-0.08658350832329205 1:-0.0657449 2:0.8298 3:-0.0655722 4:0.8298 5:0.0657449 6:-0.8298 7:-0.713223 8:-1 9:-0.826666 10:0.416818 11:-0.396244 12:0.970449 13:-0.339628 14:0.963774 15:-0.164238 16:-0.979115 17:0.262996 18:-0.99907 19:0.0572506 20:-0.813874 21:0.203497 22:-0.100046 23:-0.0632531 
-1 1:0.0838574 2:0.807777 3:0.0840577 4:0.807777 5:-0.0838573 6:-0.807777 7:-0.987561 8:-0.508542 9:-0.824348 10:1 11:-0.401911 12:0.0635285 13:-0.41039 14:0.299216 15:-0.194277 16:-1 17:0.151461 18:-0.941342 19:0.177537 20:0.143331 21:0.218279 22:-0.965422 23:-0.0632531 
-1 1:0.139116 2:0.960209 3:0.139132 4:0.925789 5:-0.139116 6:-0.960209 7:-0.911107 8:1 9:-0.821201 10:0.776334 11:-0.39801 12:0.994801 13:-0.4056 14:-0.818117 15:-0.216809 16:-1 17:0.290544 18:-0.187024 19:0.186951 20:1 21:0.217714 22:-0.908665 23:-0.709439 
-1 1:0.199169 2:0.0985754 3:0.19939 4:0.0985754 5:-0.199169 6:-0.0985756 7:-0.800982 8:1 9:-0.786225 10:1 11:-0.374231 12:1 13:-0.40467 14:1 15:-0.203051 16:0.407612 17:1 18:0.397065 19:1 20:-0.998647 21:-0.438171 22:0.485602 23:-0.0632531 
-1 1:-0.212196 2:0.615364 3:-0.21205 4:0.615364 5:0.212196 6:-0.615364 7:-0.444663 8:0.108143 9:-0.822724 10:-0.878641 11:-0.420135 12:0.844799 13:-0.383102 14:0.956768 15:-0.189253 16:-0.969814 17:0.194752 18:-0.992026 19:0.118083 20:-0.466941 21:0.202933 22:0.0190595 23:-0.0632531 
-1 1:0.0669913 2:0.600508 3:0.0652963 4:0.579172 5:-0.0669914 6:-0.600508 7:-0.956633 8:0.82415 9:-0.816564 10:1 11:-0.399722 12:0.936592 13:-0.333198 14:-1 15:-0.209474 16:-0.470947 17:0.266949 18:-0.952452 19:0.17153 20:-0.947903 21:0.156711 22:-0.439143 23:-0.0632531 
-1 1:0.28422 2:0.818342 3:0.284345 4:0.79369 5:-0.284219 6:-0.818342 7:-0.645018 8:0.950029 9:-0.822843 10:0.900699 11:-0.400095 12:0.994106 13:-0.350851 14:0.984813 15:-0.19887 16:-0.979002 17:0.139485 18:-0.97954 19:0.120082 20:-0.930789 21:0.165772 22:-0.538836 23:-0.0632531 
-1 1:0.130179 2:0.775201 3:0.128901 4:0.718192 5:-0.130179 6:-0.775201 7:-0.927494 8:0.28365 9:-0.821738 10:-0.652963 11:-0.425953 12:-0.965808 13:-0.45138 14:-0.924065 15:-0.236101 16:-0.031014 17:0.270134 18:-0.350278 19:0.0335525 20:-0.0541865 21:0.213531 22:-0.732648 23:-0.0632531 
-0.808521001246749 1:0.1077 2:0.355669 3:0.107904 4:0.355669 5:-0.1077 6:-0.355669 7:-0.968717 8:1 9:-0.823301 10:1 11:-0.392813 12:1 13:-0.183414 14:1 15:-0.110712 16:-0.905227 17:0.190292 18:-0.989051 19:0.0248452 20:-0.968899 21:0.100771 22:0.357464 23:-0.237935 
-1 1:0.0586908 2:0.959099 3:0.0588015 4:0.93556 5:-0.0586909 6:-0.959099 7:-0.941411 8:0.759281 9:-0.746375 10:0.792796 11:-0.344139 12:0.864541 13:-0.317874 14:0.668812 15:-0.176746 16:-0.997848 17:-0.138442 18:-0.982069 19:-0.0135535 20:-0.969809 21:-0.100417 22:-0.453775 23:-0.0632531 
-1 1:-0.204918 2:0.615577 3:-0.204771 4:0.615577 5:0.204918 6:-0.615577 7:-0.45801 8:0.882485 9:-0.82115 10:0.944516 11:-0.398654 12:0.949687 13:-0.403939 14:1 15:-0.207032 16:-1 17:0.167804 18:-0.980302 19:0.15708 20:-0.980018 21:0.204044 22:-0.23681 23:-0.367254 
-1 1:-0.12548 2:0.66755 3:-0.125318 4:0.66755 5:0.12548 6:-0.66755 7:-0.603682 8:0.816161 9:-0.819215 10:1 11:-0.399237 12:0.846097 13:-0.393288 14:0.704457 15:-0.196879 16:-0.69609 17:0.274961 18:0.559999 19:0.196981 20:-0.77267 21:0.19395 22:0.0248107 23:-0.270327 
-1 1:0.21919 2:0.865353 3:0.217149 4:0.801716 5:-0.21919 6:-0.865354 7:-0.764267 8:0.731461 9:-0.773152 10:0.939203 11:-0.367811 12:0.978364 13:-0.0897448 14:0.988306 15:-0.0599378 16:-0.987179 17:-0.175706 18:-0.99627 19:-0.286132 20:-0.999573 21:-0.0379434 22:-0.291702 23:-0.0632531 
-1 1:-0.113137 2:0.749864 3:-0.112973 4:0.749864 5:0.113137 6:-0.749864 7:-0.626317 8:-1 9:-0.825229 10:0.381174 11:-0.401328 12:0.922936 13:-0.374256 14:-0.0395434 15:-0.20953 16:-0.995443 17:0.259146 18:-0.182804 19:0.191322 20:-0.0085764 21:0.217497 22:-0.583994 23:-0.0632531 
