svm_type c_svc
kernel_type rbf
gamma 0.142857
nr_class 2
total_sv 260
rho -0.532044
label 1 -1
nr_sv 127 133
SV
1 1:-0.241379 2:-0.48623 3:-0.90809 4:-0.518519 5:-0.571429 6:-0.0310774 
1 1:-0.37931 2:-0.583895 3:-0.920724 4:-0.1875 5:-0.839286 6:-0.660705 7:1 
1 1:-0.931034 2:-0.290438 3:-0.537272 4:-0.458333 5:-0.0357143 6:0.535738 
1 1:-0.310345 2:-0.5338 3:-0.907917 4:-0.362745 5:-0.243697 6:-0.847589 7:1 
1 1:-1 2:-0.276413 3:-0.675221 4:0.547619 5:-0.632653 6:0.24428 7:1 
1 1:-0.37931 2:-0.390898 3:-0.886994 4:-0.0520833 5:-0.357143 6:-0.367445 
1 1:-0.241379 2:-0.582448 3:-0.883201 4:0.324074 5:-0.428571 6:-0.525268 
1 1:-0.724138 2:-0.468985 3:-0.877878 4:0.378788 5:-0.0649351 6:0.0650669 
1 1:-0.931034 2:-0.288454 3:-0.506243 4:-0.1875 5:-0.357143 6:0.369617 
1 1:-0.37931 2:-0.307705 3:-0.897673 4:-0.1875 5:-0.517857 6:-0.207538 7:1 
1 1:-0.517241 2:-0.344343 3:-0.914243 4:0.702381 5:-0.0816326 6:-0.4745 
1 1:-0.37931 2:-0.252088 3:-0.736665 4:0.0833333 5:-0.357143 6:-0.0929526 7:1 
1 1:-0.517241 2:-0.371896 3:-0.831565 4:-0.380952 5:-0.44898 6:-0.0896593 7:1 
0.9640805968402784 1:-1 2:-0.215181 3:-0.289894 4:-0.690476 5:0.469388 6:0.726722 
1 1:0.862069 2:-0.663598 3:-0.909536 4:-0.617647 5:-0.773109 6:-0.412346 7:-1 
1 1:-0.724138 2:-0.267428 3:-0.456891 4:-0.0151515 5:-0.532468 6:0.100579 7:1 
1 1:-0.862069 2:-0.433816 3:-0.874294 4:-0.277778 5:0.428571 6:0.563044 
1 1:-0.793103 2:-0.285441 3:-0.789383 4:-0.133333 5:-0.742857 6:0.461847 
1 1:-0.724138 2:-0.20629 3:-0.701326 4:0.575758 5:-0.766234 6:-0.0335733 7:1 
1 1:-0.931034 2:-0.172582 3:-0.722064 4:-0.1875 5:-0.357143 6:0.407466 7:1 
1 1:-0.310345 2:-0.393416 3:-0.865847 4:0.27451 5:-0.243697 6:-0.319272 7:1 
1 1:-0.310345 2:-0.419821 3:-0.768026 4:0.0196078 5:0.512605 6:-0.0311913 
1 1:0.172414 2:-0.648493 3:-0.900489 4:-0.458333 5:-0.678571 6:-0.802595 
1 1:0.37931 2:-0.600103 3:-0.909536 4:-0.277778 5:-0.428571 6:-0.547839 7:-1 
1 1:-0.172414 2:-0.0824265 3:-0.651707 4:0.254386 5:-0.0526316 6:-0.282169 
1 1:0.241379 2:-0.120562 3:-0.900489 4:-0.0466667 5:-0.28 6:-0.0313917 
1 1:-0.310345 2:-0.0915925 3:-0.598523 4:0.0196078 5:-0.546218 6:0.436612 
1 1:0.724138 2:-0.829349 3:-0.925247 4:-0.255208 5:-0.517857 6:-0.666227 7:-1 
1 1:-0.793103 2:-0.354364 3:-0.530451 4:-0.35 5:-0.485714 6:0.368674 7:1 
1 1:-0.655172 2:-0.35028 3:-0.782299 4:-0.0972222 5:-0.571429 6:0.153881 
1 1:0.103448 2:-0.77115 3:-0.915565 4:-0.528986 5:-0.776398 6:-0.859992 
1 1:-0.862069 2:-0.250968 3:-0.701443 4:0.444444 5:-0.142857 6:0.444627 
1 1:0.241379 2:-0.619707 3:-0.900489 4:0.3 5:-0.485714 6:-0.049499 7:1 
1 1:-0.586207 2:-0.468397 3:-0.901703 4:0.333333 5:-0.010989 6:-0.217662 7:1 
1 1:-0.655172 2:-0.286756 3:-0.579113 4:-0.277778 5:-0.142857 6:0.252305 7:-1 
1 1:-0.517241 2:-0.243184 3:-0.524577 4:-0.22619 5:-0.0816326 6:0.32376 
1 1:-0.793103 2:-0.343474 3:-0.753986 4:-0.133333 5:-0.228571 6:-0.122669 
1 1:-0.724138 2:-0.330754 3:-0.646377 4:-0.212121 5:0.168831 6:0.160098 7:1 
1 1:-0.931034 2:-0.223299 3:-0.42933 4:-0.458333 5:0.285714 6:0.184891 
1 1:-0.724138 2:-0.230862 3:-0.514869 4:0.181818 5:-0.298701 6:0.235952 
1 1:-0.931034 2:-0.323058 3:-0.362464 4:0.354167 5:-0.678571 6:0.0569779 
1 1:-0.655172 2:-0.285406 3:-0.579994 4:0.263889 5:-0.571429 6:-0.465278 
1 1:-0.37931 2:-0.355082 3:-0.757722 4:0.489583 5:-0.196429 6:-0.20073 
1 1:-0.103448 2:-0.3892 3:-0.825284 4:0.3 5:-0.228571 6:-0.362396 
1 1:-0.517241 2:-0.338635 3:-0.803881 4:-0.690476 5:-0.0816326 6:0.0556964 
1 1:0.103448 2:-0.223735 3:-0.918002 4:0.130435 5:0.00621114 6:0.229439 
1 1:-0.862069 2:-0.236869 3:-0.320418 4:-0.277778 5:0.142857 6:-0.0131616 
1 1:-0.103448 2:-0.297841 3:-0.824209 4:-0.025 5:0.414286 6:0.158518 
1 1:-0.793103 2:-0.380259 3:-0.798152 4:-0.133333 5:-1 6:-0.461338 7:1 
1 1:-0.241379 2:-0.618069 3:-0.882975 4:0.203704 5:0.142857 6:0.0430099 7:1 
1 1:-0.586207 2:-0.245859 3:-0.623829 4:0.166667 5:-0.208791 6:-0.289937 7:1 
1 1:-0.655172 2:-0.34345 3:-0.729769 4:0.263889 5:-0.785714 6:0.492403 7:1 
1 1:-0.310345 2:0.0057331 3:-0.640964 4:0.0196078 5:0.361345 6:0.755297 7:-1 
1 1:-0.586207 2:-0.395567 3:-0.740535 4:0.333333 5:-0.802198 6:-0.237142 7:1 
1 1:-0.793103 2:-0.376799 3:-0.628935 4:0.0833333 5:-0.228571 6:-0.459936 7:1 
1 1:-0.586207 2:-0.372921 3:-0.828409 4:-0.166667 5:0.186813 6:-0.145837 7:1 
1 1:-0.793103 2:-0.63468 3:-0.935978 4:-0.35 5:-1 6:-0.688348 7:-1 
1 1:0.517241 2:-0.902187 3:-0.940958 4:-0.775862 5:-0.73399 6:-0.701773 7:-1 
1 1:-0.793103 2:-0.546968 3:-0.952616 4:-0.566667 5:-0.742857 6:0.131487 
1 1:0.37931 2:-0.476981 3:-0.900489 4:-0.037037 5:-0.52381 6:-0.0628567 7:1 
1 1:-0.586207 2:-0.332219 3:-0.7446 4:-0.5 5:0.582418 6:-0.456102 7:1 
1 1:-0.586207 2:-0.446724 3:-0.870618 4:-1.08333e-008 5:-0.406593 6:-0.150417 
1 1:-0.724138 2:-0.402211 3:-0.857637 4:-0.0151515 5:0.168831 6:0.146792 7:1 
1 1:-0.793103 2:-0.419513 3:-0.863119 4:-0.133333 5:-0.485714 6:-0.403859 
1 1:-0.862069 2:-0.336106 3:-0.7446 4:0.444444 5:-0.142857 6:-0.576431 7:1 
1 1:-0.448276 2:-0.452956 3:-0.719941 4:-0.133333 5:-0.142857 6:0.346591 7:1 
1 1:-0.448276 2:-0.178046 3:-0.696151 4:-0.133333 5:0.542857 6:0.71148 7:-1 
1 1:0.655172 2:-0.936618 3:-0.951321 4:-0.72043 5:-0.751152 6:-0.721208 
1 1:-0.310345 2:-0.224934 3:-0.589522 4:0.27451 5:-0.092437 6:-0.435616 
1 1:-0.586207 2:-0.401171 3:-0.655289 4:-1.08333e-008 5:-0.010989 6:-0.32191 
1 1:-0.0344828 2:-0.709157 3:-0.957154 4:-0.484127 5:-1 6:-0.865976 
1 1:-0.586207 2:-0.385129 3:-0.716265 4:-1.08333e-008 5:0.384615 6:-0.43438 
1 1:-1 2:-0.352717 3:-0.459725 4:-0.0714286 5:0.102041 6:0.610971 
1 1:-0.655172 2:-0.503127 3:-0.873498 4:-0.277778 5:-0.357143 6:-0.404742 7:1 
1 1:-0.310345 2:-0.50236 3:-0.809868 4:-0.107843 5:-0.243697 6:-0.237648 
1 1:0.310345 2:-0.419544 3:-0.850887 4:-0.0833333 5:-0.406593 6:-0.174632 7:1 
1 1:1 2:-0.833087 3:-0.912551 4:-0.638889 5:-0.428571 6:-0.510315 7:-1 
1 1:-0.37931 2:-0.361767 3:-0.669208 4:-0.0520833 5:-0.0357143 6:-0.506907 7:1 
1 1:-0.655172 2:-0.430158 3:-0.66526 4:0.444444 5:-0.571429 6:-0.0674941 7:1 
1 1:-0.862069 2:-0.576875 3:-0.885538 4:-0.277778 5:0.142857 6:-0.766175 7:-1 
1 1:-0.724138 2:-0.355254 3:-0.788071 4:0.378788 5:0.168831 6:-0.536547 
1 1:0.241379 2:-0.634731 3:-0.870644 4:0.3 5:-0.28 6:-0.200825 7:1 
1 1:-0.724138 2:-0.330181 3:-0.807739 4:0.378788 5:-0.0649351 6:-0.171485 7:1 
1 1:-0.310345 2:-0.218355 3:-0.837711 4:-0.235294 5:0.0588235 6:-0.214493 7:-1 
1 1:-0.655172 2:-0.215307 3:-0.777217 4:0.0833333 5:-0.142857 6:0.0727197 
1 1:-0.793103 2:-0.415335 3:-0.76492 4:-0.133333 5:0.0285714 6:-0.469124 7:1 
1 1:-0.655172 2:-0.500687 3:-0.873423 4:0.0833333 5:-0.357143 6:-0.5819 7:1 
1 1:0.37931 2:-0.795349 3:-0.918951 4:-0.358025 5:-0.809524 6:0.115482 7:1 
1 1:-0.241379 2:-0.664206 3:-0.943007 4:-0.398148 5:1.28571e-008 6:-0.652305 7:-1 
1 1:-0.655172 2:-0.385729 3:-0.653315 4:-0.0972222 5:-0.357143 6:-0.242609 
1 1:-0.793103 2:-0.275356 3:-0.69472 4:-0.133333 5:-0.485714 6:0.45331 
1 1:0.37931 2:-0.418604 3:-0.900489 4:-0.037037 5:-0.142857 6:-0.106769 7:1 
1 1:-0.862069 2:-0.261951 3:-0.623804 4:0.203704 5:-0.142857 6:-0.28015 
1 1:0.310345 2:-0.436923 3:-0.900489 4:-0.833333 5:-0.010989 6:0.00381001 
1 1:-0.793103 2:-0.535227 3:-0.877469 4:-0.783333 5:-0.742857 6:-0.0880047 
1 1:-0.931034 2:-0.284357 3:-0.523207 4:-0.458333 5:0.607143 6:0.221204 7:1 
1 1:-0.0344828 2:-0.204539 3:-0.88494 4:0.34127 5:-0.265306 6:0.0131454 
1 1:-0.655172 2:-0.267018 3:-0.588588 4:-0.277778 5:-0.357143 6:0.485339 7:1 
1 1:-0.793103 2:-0.286724 3:-0.772944 4:-0.35 5:0.285714 6:0.166651 
1 1:-0.448276 2:-0.377137 3:-0.844638 4:0.444444 5:-0.314286 6:-0.0379484 
1 1:-0.724138 2:-0.495351 3:-0.900489 4:0.181818 5:-0.766234 6:-0.406567 7:-1 
1 1:0.517241 2:-0.55354 3:-0.932627 4:-0.178161 5:-0.46798 6:0.621521 7:1 
1 1:-0.517241 2:-0.45223 3:-0.685305 4:0.0833333 5:-0.265306 6:-0.165251 7:1 
1 1:-0.310345 2:-0.26761 3:-0.900489 4:-0.107843 5:0.0588235 6:-0.19112 
1 1:-0.862069 2:-0.244531 3:-0.23871 4:0.203704 5:-0.714286 6:0.296864 
1 1:-0.862069 2:-0.30754 3:-0.47998 4:-0.277778 5:0.428571 6:-0.252382 7:1 
1 1:-0.724138 2:-0.646875 3:-0.974077 4:-0.409091 5:-0.766234 6:-0.852232 
1 1:-0.586207 2:-0.478723 3:-0.803049 4:0.5 5:-0.010989 6:-0.192285 7:1 
1 1:-0.793103 2:-0.118171 3:-0.491243 4:0.0833333 5:-0.228571 6:0.184716 
1 1:-0.862069 2:-0.370359 3:-0.602779 4:0.444444 5:-1 6:0.504577 7:1 
1 1:-0.724138 2:-0.291917 3:-0.813544 4:0.378788 5:-0.298701 6:-0.0712661 
0.9339870694824339 1:-0.586207 2:-0.261986 3:-0.366721 4:0.166667 5:-0.406593 6:0.192552 
1 1:0.172414 2:-0.667548 3:-0.900489 4:0.173611 5:-0.25 6:-0.537069 7:1 
1 1:-0.793103 2:-0.24428 3:-0.501567 4:0.0833333 5:-0.742857 6:0.412821 
1 1:-0.655172 2:-0.560635 3:-0.940958 4:-0.0972222 5:-0.785714 6:-0.412343 7:-1 
1 1:-0.793103 2:-0.211425 3:-0.576712 4:0.0833333 5:0.0285714 6:-0.0393997 
0.9270779802951742 1:-0.586207 2:-0.142073 3:-0.703038 4:0.5 5:-0.406593 6:0.186126 
1 1:-0.724138 2:-0.179104 3:-0.422208 4:0.181818 5:-0.0649351 6:-0.0716954 
1 1:-0.862069 2:-0.29406 3:-0.810751 4:0.203704 5:-0.142857 6:-7.71596e-005 7:1 
1 1:-0.448276 2:-0.363591 3:-0.700354 4:-0.277778 5:-0.142857 6:0.528887 7:1 
1 1:-0.172414 2:-0.179011 3:-0.875021 4:0.0263158 5:0.353383 6:-0.241964 
1 1:-0.586207 2:-0.215836 3:-0.849651 4:-1.08333e-008 5:-0.208791 6:-0.287691 7:1 
1 1:-0.793103 2:-0.299007 3:-0.408911 4:0.516667 5:-0.485714 6:-0.111755 
1 1:-1 2:-0.521259 3:-0.853444 4:-0.0714286 5:-0.632653 6:0.424164 
1 1:-0.793103 2:-0.335992 3:-0.637842 4:0.0833333 5:0.285714 6:-0.368557 
1 1:-0.724138 2:-0.363766 3:-0.900489 4:-0.0151515 5:-0.766234 6:-0.592984 
1 1:-0.862069 2:-0.337604 3:-0.352754 4:0.203704 5:-0.428571 6:-0.149161 
-1 1:-0.793103 2:-0.300039 3:-0.685204 4:0.0833333 5:-0.228571 6:-0.287248 7:1 
-1 1:-0.586207 2:-0.430449 3:-0.834167 4:-1.08333e-008 5:-0.604396 6:-0.331483 7:1 
-1 1:0.0344828 2:-0.584435 3:-0.851202 4:0.280303 5:-0.415584 6:-0.629043 7:1 
-1 1:-0.862069 2:-0.286357 3:-0.623804 4:-0.037037 5:-0.428571 6:0.0477259 7:-1 
-1 1:-0.0344828 2:-0.390569 3:-0.900489 4:-0.277778 5:-0.265306 6:-0.328902 
-1 1:-0.37931 2:-0.508333 3:-0.900489 4:-0.0520833 5:-0.678571 6:-0.488107 7:1 
-0.3461158665854429 1:0.517241 2:-0.760923 3:-0.909536 4:-0.402299 5:-0.46798 6:-0.676679 7:-1 
-1 1:0.172414 2:-0.609246 3:-0.884986 4:-0.00694444 5:-0.142857 6:-0.640898 
-1 1:-0.103448 2:-0.749119 3:-0.957154 4:-0.566667 5:-0.357143 6:0.390458 7:1 
-0.1986656559283165 1:-0.103448 2:-0.505162 3:-0.821382 4:-0.458333 5:-0.228571 6:-0.640563 7:1 
-1 1:-0.931034 2:-0.450195 3:-0.735707 4:-0.1875 5:-0.357143 6:-0.156017 7:1 
-1 1:-0.586207 2:-0.395101 3:-0.680834 4:-0.333333 5:0.78022 6:-0.378797 7:1 
-1 1:-0.0344828 2:-0.35478 3:-0.865847 4:-0.174603 5:-0.142857 6:-0.0275198 
-1 1:-0.241379 2:-0.526708 3:-0.911543 4:-0.037037 5:-0.714286 6:-0.559884 7:1 
-1 1:-0.655172 2:-0.200549 3:-0.76409 4:0.0833333 5:-0.571429 6:0.270576 7:-1 
-1 1:-1 2:-0.375035 3:-0.832913 4:-0.380952 5:0.102041 6:-0.0804503 7:1 
-1 1:-0.103448 2:-0.628021 3:-0.944364 4:-0.241667 5:-0.228571 6:0.0472809 
-1 1:-0.862069 2:-0.343055 3:-0.870644 4:-0.037037 5:-0.142857 6:0.345233 
-1 1:-0.241379 2:-0.442694 3:-0.87441 4:0.0833333 5:0.142857 6:-0.588923 
-1 1:-0.724138 2:-0.406114 3:-0.837092 4:-0.0151515 5:-0.532468 6:-0.00378432 7:1 
-1 1:-0.724138 2:-0.233608 3:-0.662433 4:-0.212121 5:0.168831 6:-0.0642961 7:1 
-1 1:-0.862069 2:-0.440206 3:-0.855997 4:0.203704 5:-0.142857 6:-0.389992 
-1 1:-0.862069 2:-0.456476 3:-0.681721 4:-0.277778 5:-0.142857 6:-0.403798 7:1 
-0.1188327971508159 1:-0.448276 2:-0.226053 3:-0.88494 4:-0.133333 5:-0.314286 6:-0.131822 7:-1 
-1 1:0.0344828 2:-0.489735 3:-0.894901 4:-0.409091 5:-0.298701 6:-0.524047 7:1 
-1 1:-0.655172 2:-0.287704 3:-0.897673 4:0.0833333 5:0.0714285 6:0.131022 7:-1 
-1 1:-0.655172 2:-0.48276 3:-0.828798 4:-0.277778 5:-0.571429 6:-0.111716 7:1 
-1 1:-0.655172 2:-0.392846 3:-0.8066 4:0.263889 5:-1 6:-0.542138 
-1 1:-0.448276 2:-0.373677 3:-0.909536 4:-0.133333 5:-0.485714 6:-0.164521 
-0.1911177572129832 1:-1 2:-0.390458 3:-0.834381 4:-0.380952 5:-0.632653 6:0.570309 
-1 1:-0.862069 2:-0.404916 3:-0.73092 4:-0.037037 5:-0.428571 6:-0.394964 
-1 1:-0.793103 2:-0.424249 3:-0.544062 4:-0.35 5:-0.228571 6:-0.389475 
-1 1:-0.793103 2:-0.270138 3:-0.611044 4:0.0833333 5:0.0285714 6:0.196232 
-1 1:-0.862069 2:-0.358739 3:-0.900489 4:-0.277778 5:0.428571 6:0.270363 
-1 1:-0.862069 2:-0.243284 3:-0.801284 4:-0.037037 5:-0.142857 6:0.270616 7:1 
-1 1:-0.517241 2:-0.591815 3:-0.917591 4:0.0833333 5:-0.44898 6:-0.637813 7:1 
-1 1:0.0344828 2:-0.662881 3:-0.921478 4:-0.212121 5:-0.0649351 6:-0.463562 
-1 1:0.517241 2:-0.75733 3:-0.909536 4:-0.477011 5:-0.73399 6:-0.566725 7:-1 
-1 1:-0.862069 2:-0.358723 3:-0.844736 4:-0.037037 5:-0.714286 6:0.0890594 7:1 
-1 1:-0.793103 2:-0.36291 3:-0.820885 4:-0.35 5:-0.485714 6:0.754638 
-1 1:-0.793103 2:-0.306744 3:-0.756006 4:0.0833333 5:0.285714 6:0.0400099 7:-1 
-1 1:-0.517241 2:-0.397803 3:-0.932062 4:-0.22619 5:-0.265306 6:0.123637 
-1 1:-0.0344828 2:-0.434735 3:-0.909536 4:-0.380952 5:0.102041 6:-0.418503 
-1 1:0.724138 2:-0.164899 3:-0.903678 4:0.015625 5:-0.357143 6:-0.4674 
-1 1:-0.448276 2:-0.322144 3:-0.900489 4:-0.133333 5:-0.142857 6:-0.499298 
-1 1:-0.931034 2:-0.309543 3:-0.638945 4:0.0833333 5:0.285714 6:-0.240527 
-1 1:-0.931034 2:-0.293594 3:-0.510508 4:0.0833333 5:-0.357143 6:0.157461 7:1 
-1 1:-0.862069 2:-0.45875 3:-0.915472 4:0.203704 5:0.142857 6:0.274205 
-1 1:-0.931034 2:-0.429477 3:-0.544742 4:-0.458333 5:-0.0357143 6:-0.262015 7:1 
-1 1:-1 2:-0.516554 3:-0.957154 4:0.238095 5:-0.632653 6:0.232113 
-1 1:-0.655172 2:-0.306011 3:-0.679549 4:-0.0972222 5:-0.785714 6:-0.118516 7:-1 
-1 1:-0.37931 2:-0.542896 3:-0.788843 4:-0.1875 5:0.125 6:0.12049 7:-1 
-1 1:0.37931 2:-0.674517 3:-0.908419 4:-0.277778 5:-0.333333 6:-0.372233 
-1 1:-0.517241 2:-0.380952 3:-0.92255 4:0.0833333 5:-0.44898 6:-0.51216 7:1 
-1 1:0.724138 2:-0.817156 3:-0.928262 4:-0.59375 5:-0.919643 6:-0.367139 7:-1 
-1 1:-0.172414 2:-0.54858 3:-0.900489 4:0.140351 5:-0.323308 6:0.0448816 
-1 1:-1 2:-0.316595 3:-0.901703 4:-0.0714286 5:0.102041 6:-0.541845 7:1 
-1 1:-1 2:-0.357677 3:-0.281824 4:-0.0714286 5:0.102041 6:0.610997 7:1 
-1 1:-0.517241 2:-0.435548 3:-0.883168 4:-0.0714286 5:-0.265306 6:-0.0986343 
-1 1:-0.862069 2:-0.187698 3:-0.598523 4:0.203704 5:0.714286 6:0.300126 
-1 1:0.37931 2:-0.401564 3:-0.900489 4:-0.037037 5:0.047619 6:-0.476828 7:-1 
-1 1:-0.517241 2:-0.497936 3:-0.908423 4:-0.0714286 5:-0.0816326 6:-0.195657 7:1 
-1 1:-0.586207 2:-0.404157 3:-0.730835 4:0.5 5:-0.406593 6:-0.60907 
-1 1:-0.37931 2:-0.403389 3:-0.882191 4:-0.1875 5:-0.517857 6:-0.0374236 
-1 1:-0.241379 2:-0.544544 3:-0.883168 4:-0.398148 5:-0.571429 6:-0.102519 7:1 
-1 1:-0.793103 2:-0.345087 3:-0.898462 4:-0.133333 5:0.542857 6:0.195684 
-1 1:-0.517241 2:-0.256095 3:-0.876263 4:0.0833333 5:0.102041 6:-0.182766 7:-1 
-1 1:-0.862069 2:-0.535223 3:-0.934693 4:-0.037037 5:-0.714286 6:0.384471 7:1 
-1 1:-0.37931 2:-0.324887 3:-0.796261 4:0.0833333 5:-0.678571 6:-0.0394031 7:-1 
-1 1:-0.931034 2:-0.390808 3:-0.493696 4:0.354167 5:-0.357143 6:0.0723801 
-1 1:-0.862069 2:-0.321522 3:-0.459725 4:-0.277778 5:-0.142857 6:0.0106136 7:1 
-1 1:-0.931034 2:-0.196354 3:-0.838718 4:-0.1875 5:-0.0357143 6:-0.181903 7:1 
-1 1:0.448276 2:-0.68652 3:-0.900489 4:-0.0714286 5:-0.265306 6:-0.61311 7:1 
-1 1:0.37931 2:-0.66825 3:-0.900489 4:-0.358025 5:-0.428571 6:-0.617936 7:1 
-1 1:-0.931034 2:-0.191597 3:-0.782381 4:-0.458333 5:0.285714 6:0.719136 7:-1 
-1 1:-0.862069 2:-0.301338 3:-0.71994 4:0.444444 5:-0.714286 6:0.0272952 
-1 1:-0.655172 2:-0.297984 3:-0.866199 4:-0.0972222 5:-0.142857 6:0.246378 
-0.00194321300395835 1:-0.517241 2:-0.455946 3:-0.868246 4:-0.380952 5:-1 6:0.506886 
-1 1:-0.655172 2:-0.480972 3:-0.845555 4:-0.277778 5:0.0714285 6:-0.187785 
-1 1:-0.655172 2:-0.483952 3:-0.836982 4:0.444444 5:-0.785714 6:-0.519897 7:1 
-1 1:-0.172414 2:-0.288114 3:-0.900489 4:-0.31579 5:-0.729323 6:-0.0571029 
-1 1:-0.37931 2:-0.331432 3:-0.811018 4:0.625 5:-0.196429 6:0.277337 
-1 1:-0.517241 2:-0.388103 3:-0.745131 4:-0.0714286 5:-0.265306 6:-0.207788 
-1 1:-0.241379 2:-0.543316 3:-0.84407 4:-0.037037 5:0.142857 6:-0.625793 
-1 1:-0.0344828 2:-0.481044 3:-0.900489 4:-0.174603 5:-0.387755 6:-0.39622 7:1 
-1 1:0.241379 2:-0.516918 3:-0.900489 4:-0.393333 5:-0.485714 6:-0.379752 
-1 1:-0.0344828 2:-0.528156 3:-0.900489 4:-0.793651 5:-0.510204 6:0.0612873 7:1 
-1 1:-0.931034 2:-0.393626 3:-0.631499 4:0.0833333 5:-0.0357143 6:-0.341374 
-1 1:-0.862069 2:-0.391379 3:-0.902731 4:-0.277778 5:-0.142857 6:-0.037767 7:1 
-1 1:-0.793103 2:-0.28445 3:-0.521809 4:-0.35 5:0.285714 6:-0.180078 
-0.09605236892975597 1:-0.172414 2:-0.520633 3:-0.900489 4:-0.429825 5:0.218045 6:-0.532098 
-1 1:-0.241379 2:-0.402277 3:-0.843681 4:-0.157407 5:-0.285714 6:-0.0713978 7:-1 
-1 1:-1 2:-0.19968 3:-0.598831 4:0.547619 5:0.102041 6:-0.106444 
-1 1:-1 2:-0.486976 3:-0.740206 4:0.238095 5:-0.632653 6:0.902842 
-1 1:-0.103448 2:-0.681568 3:-0.973066 4:-0.241667 5:-0.485714 6:0.216375 7:1 
-1 1:0.655172 2:-0.867517 3:-0.928277 4:-0.370968 5:-0.419355 6:-0.719936 7:1 
-1 1:-0.655172 2:-0.360159 3:-0.810736 4:-0.0972222 5:-0.571429 6:-0.596847 7:1 
-1 1:-0.517241 2:-0.494547 3:-0.880431 4:0.392857 5:-1 6:-0.243662 7:1 
-0.64657580806115 1:0.862069 2:-1 3:-0.969184 4:-0.362745 5:-0.394958 6:-0.726131 
-1 1:-0.793103 2:-0.332484 3:-0.797365 4:-0.133333 5:-0.228571 6:-0.259068 
-1 1:-0.931034 2:-0.557352 3:-0.892522 4:0.625 5:-0.678571 6:-0.350259 
-1 1:-0.793103 2:-0.467025 3:-0.860495 4:-0.35 5:-0.228571 6:0.319392 7:1 
-1 1:-0.655172 2:-0.368204 3:-0.900489 4:-0.0972222 5:-0.357143 6:-0.138288 
-1 1:-0.862069 2:-0.427017 3:-0.498743 4:-0.277778 5:-0.714286 6:0.288458 
-1 1:-0.862069 2:-0.501067 3:-0.839876 4:0.203704 5:-1 6:-0.124326 7:1 
-0.2258421797454636 1:-1 2:-0.494694 3:-0.753129 4:0.238095 5:-1 6:0.521165 7:-1 
-1 1:-0.241379 2:-0.543085 3:-0.863171 4:0.0833333 5:-0.714286 6:-0.373437 
-1 1:-0.931034 2:-0.414547 3:-0.705799 4:-0.1875 5:-0.0357143 6:-0.10521 7:1 
-1 1:-0.724138 2:-0.281936 3:-0.72282 4:-0.212121 5:-0.298701 6:-0.204346 7:1 
-1 1:-0.655172 2:-0.436776 3:-0.724993 4:-0.0972222 5:-0.571429 6:0.300358 
-1 1:-0.793103 2:-0.336565 3:-0.369472 4:-0.35 5:-1 6:0.249166 
-1 1:-0.37931 2:-0.445792 3:-0.79556 4:0.21875 5:-0.0357143 6:-0.441957 7:1 
-1 1:-0.862069 2:-0.210173 3:-0.826262 4:-0.037037 5:-0.142857 6:-0.168494 
-1 1:-0.862069 2:-0.50748 3:-0.870644 4:-0.037037 5:-0.714286 6:0.0609867 7:1 
-1 1:-1 2:-0.391642 3:-0.746024 4:-0.0714286 5:-0.632653 6:0.327364 7:1 
-1 1:-0.931034 2:-0.455162 3:-0.80779 4:-0.1875 5:-0.678571 6:0.76007 7:1 
-1 1:-0.37931 2:-0.356715 3:-0.725025 4:-0.0520833 5:-0.517857 6:-0.163341 
-1 1:-0.310345 2:-0.442106 3:-0.837711 4:-0.107843 5:-0.697479 6:0.0491281 
-1 1:0.0344828 2:-0.325442 3:-0.898997 4:-0.113636 5:-0.649351 6:-0.303956 
-1 1:-0.862069 2:-0.584626 3:-0.957154 4:-0.277778 5:-0.428571 6:0.904204 
-1 1:0.310345 2:-0.672325 3:-0.900489 4:-0.25 5:-0.10989 6:-0.48558 7:-1 
-1 1:-0.655172 2:-0.410823 3:-0.889056 4:0.0833333 5:0.0714285 6:-0.0893431 7:-1 
-1 1:-0.793103 2:-0.411392 3:-0.853012 4:-0.133333 5:-0.485714 6:-0.13411 7:1 
-1 1:-0.655172 2:-0.330315 3:-0.667955 4:-0.638889 5:0.0714285 6:-0.0845123 
-1 1:-0.862069 2:-0.421901 3:-0.809639 4:0.203704 5:-0.142857 6:-0.245588 
-1 1:-0.241379 2:-0.512065 3:-0.797986 4:-0.037037 5:0.142857 6:-0.205094 7:-1 
-1 1:-1 2:-0.470644 3:-0.76633 4:0.238095 5:-0.632653 6:0.381814 
-1 1:-0.448276 2:-0.450273 3:-0.900489 4:0.0111111 5:0.0285714 6:-0.240713 
-1 1:-0.103448 2:-0.531 3:-0.826215 4:0.0833333 5:0.157143 6:-0.187406 
-1 1:-0.241379 2:-0.60538 3:-0.892715 4:0.203704 5:-0.428571 6:-0.55211 
-1 1:-0.862069 2:-0.578037 3:-0.975431 4:0.203704 5:-0.428571 6:-0.165502 7:1 
-1 1:-1 2:-0.415978 3:-0.509378 4:-0.0714286 5:-0.265306 6:-0.400697 
-1 1:0.37931 2:-0.605814 3:-0.900489 4:-0.277778 5:-0.428571 6:-0.720478 7:1 
